<?xml version="1.0" encoding="ISO-8859-1"?>
<!-- This file was created by ACADEMIC version of SMILE -->
<smile version="1.0" id="Unnamed" numsamples="10000" discsamples="10000">
	<nodes>
		<cpt id="herl_evidence" target="true" dynamic="plate">
			<state id="yes" />
			<state id="no" />
			<probabilities>0.8563725753508845 0.1436274246491154</probabilities>
		</cpt>
		<cpt id="verl_evidence" target="true" dynamic="plate">
			<state id="yes" />
			<state id="no" />
			<probabilities>0.8229324898866871 0.1770675101133131</probabilities>
		</cpt>
		<cpt id="raim_integrity_evidence" target="true" dynamic="plate">
			<state id="successful" />
			<state id="failed" />
			<state id="not_available" />
			<probabilities>0.9999657917583112 2.540962212434424e-05 8.798619564272802e-06</probabilities>
		</cpt>
		<cpt id="raim_status_symptom" target="true" dynamic="plate">
			<state id="yes" />
			<state id="warn" />
			<state id="no" />
			<parents>herl_evidence verl_evidence raim_integrity_evidence</parents>
			<probabilities>2.679279601179584e-06 2.68814914531504e-06 0.9999946325712534 0.9282849728864555 0.07171065494582292 4.372167721650845e-06 0.4906794369150583 0.4236083809855513 0.0857121820993903 0.0003231634057874055 0.9995167431315028 0.0001600934627097663 0.4983883442599109 0.5008962422444962 0.000715413495592949 0.4990199846559205 0.5004995497916568 0.0004804655524228484 0.1314376725166551 0.6940857384819732 0.1744765890013718 0.4992605585555729 0.5005172314242378 0.0002222100201894208 0.4995098533492108 0.5001098289652833 0.0003803176855056011 0.9999840914178815 1.590857930682329e-05 2.811708175669601e-12 0.4998300371967249 0.5001698945989045 6.820437075929351e-08 0.4999324150238459 0.5000665748973316 1.010078822315788e-06</probabilities>
		</cpt>
		<cpt id="pdop_evidence" target="true" dynamic="plate">
			<state id="very_low" />
			<state id="low" />
			<state id="fairly_low" />
			<state id="medium" />
			<state id="fairly_high" />
			<state id="high" />
			<state id="very_high" />
			<probabilities>0.05978598128604497 0.7580785335487676 0.1425655232007197 0.03264938265100135 0.005748187695068526 0.001172324670227038 6.694817072840611e-08</probabilities>
		</cpt>
		<cpt id="pdop_evaluation_symptom" target="true" dynamic="plate">
			<state id="ideal" />
			<state id="excellent" />
			<state id="good" />
			<state id="moderate" />
			<state id="fair" />
			<state id="poor" />
			<state id="not_available" />
			<parents>pdop_evidence</parents>
			<probabilities>3.687202000777363e-05 3.677310174343152e-05 6.804257174581918e-08 2.469231633707462e-07 1.98588720119191e-07 4.49300998419811e-08 0.9999257963936936 0.9999970938717735 2.886796765347466e-06 1.500926357268414e-09 7.368743016904439e-09 2.378853520418017e-09 9.892730594222464e-10 7.093665282525071e-09 1.548646908013641e-05 0.9999840909850124 5.41497029246451e-08 1.667108395592971e-07 1.242578816865082e-07 1.233874767580582e-08 6.508873568411527e-08 6.768386010383536e-05 6.778579836943552e-05 0.9998643891449075 3.580032732937876e-08 5.210742892899857e-08 2.260233213289058e-08 3.068653072449853e-08 0.0003904279387471001 0.0003895471797587601 2.626490560394322e-06 0.9992161451975747 2.833037428242763e-07 4.85833672925876e-07 4.840559432329263e-07 0.001928444881046785 0.001910611287313133 3.165793144246364e-06 4.695992079856046e-05 0.9960960305577434 6.136849755695183e-07 1.417387497827868e-05 0.4999732477671552 0.4999141865943669 1.497643012220794e-05 4.56274233820541e-05 1.807160367239708e-05 4.036268957346062e-06 2.985391234374433e-05</probabilities>
		</cpt>
		<cpt id="sat_evidence" target="true" dynamic="plate">
			<state id="very_low" />
			<state id="low_to_very_low" />
			<state id="low" />
			<state id="fairly_low" />
			<state id="medium" />
			<state id="fairly_high" />
			<state id="high" />
			<state id="high_to_very_high" />
			<state id="very_high" />
			<probabilities>8.53172477468422e-05 0.001729668012081043 0.0124460861201628 0.01718563227453676 0.06818849363747001 0.1824708717586969 0.4830752850228054 0.2060741065312986 0.02874453939520153</probabilities>
		</cpt>
		<cpt id="sat_status_symptom" target="true" dynamic="plate">
			<state id="not_enough" />
			<state id="enough" />
			<state id="good" />
			<parents>sat_evidence</parents>
			<probabilities>0.75 0.25 0 0.9990384615384615 0.0009615384615384616 0 0.0001316482359136387 0.9998683517640863 0 9.574875526618154e-05 0.9999042512447338 0 2.440452948067161e-05 0.9999755954705194 0 9.11726627887894e-06 9.11726627887894e-06 0.9999817654674422 3.428884926621862e-06 3.428884926621862e-06 0.9999931422301467 7.973591465067697e-06 7.973591465067697e-06 0.9999840528170699 5.752416014726185e-05 5.752416014726185e-05 0.9998849516797055</probabilities>
		</cpt>
		<cpt id="rtk_evidence" target="true" dynamic="plate">
			<state id="very_low" />
			<state id="low_to_very_low" />
			<state id="low" />
			<state id="fairly_low" />
			<state id="medium" />
			<state id="fairly_high" />
			<state id="high" />
			<state id="high_to_very_high" />
			<state id="very_high" />
			<probabilities>0.1016882137526046 0.03005151346491261 0.1797613357831459 0.4101375396107663 0.08300985732057611 0.04985800601584524 0.06459086347293212 0.02476338119708042 0.05613928938213662</probabilities>
		</cpt>
		<cpt id="rtk_status_symptom" target="true" dynamic="plate">
			<state id="good" />
			<state id="medium" />
			<state id="bad" />
			<state id="very_bad" />
			<state id="no_correction" />
			<parents>rtk_evidence</parents>
			<probabilities>1.685191709443766e-05 1.685048311608136e-05 6.947764887456375e-17 6.104169226980522e-17 0.9999662975997894 0.9999433475660969 5.665243390247212e-05 2.783637129904736e-16 1.775268796635909e-16 1.490429559765297e-16 0.999990534150946 9.465849054084984e-06 2.00770992883722e-17 5.030236764861268e-17 6.119533722869014e-17 0.9999958506976021 4.14930239782354e-06 1.206590155514847e-17 5.272960151104961e-18 5.305139832007157e-18 0.9999796351109679 2.036488903217619e-05 6.436149886073419e-18 1.266827996160335e-17 5.271654083464763e-17 3.385065699701277e-05 0.9999661493430025 2.08988431703713e-16 1.893423823782295e-16 6.607562324441143e-17 2.617335649490883e-05 0.9999738266435052 1.487097617529028e-17 2.246701436766671e-17 2.620810466426127e-17 6.832332729764237e-05 6.831758716424067e-05 0.9998633590855377 1.099656840840493e-16 2.054684788935922e-16 3.114293375519846e-05 3.114023005259614e-05 1.921004639454405e-16 0.9999377168361915 3.387890194155188e-16</probabilities>
		</cpt>
		<cpt id="innov_x_evidence" target="true" dynamic="plate">
			<state id="very_low" />
			<state id="low_to_very_low" />
			<state id="low" />
			<state id="fairly_low" />
			<state id="medium" />
			<state id="fairly_high" />
			<state id="high" />
			<state id="high_to_very_high" />
			<state id="very_high" />
			<probabilities>0.18490495046349 0.07270332992475684 0.04380760824336867 0.116762233747137 0.3386975483495339 0.1179066771268362 0.02878436212833503 0.02970593988445131 0.06672735013209097</probabilities>
		</cpt>
		<cpt id="innov_y_evidence" target="true" dynamic="plate">
			<state id="very_low" />
			<state id="low_to_very_low" />
			<state id="low" />
			<state id="fairly_low" />
			<state id="medium" />
			<state id="fairly_high" />
			<state id="high" />
			<state id="high_to_very_high" />
			<state id="very_high" />
			<probabilities>0.03930545387734981 0.01806746135906245 0.02807086291473392 0.1336681416521614 0.2738700857938554 0.1523479770155419 0.05934485416902964 0.08332469653832375 0.2120004666799418</probabilities>
		</cpt>
		<cpt id="innov_t_evidence" target="true" dynamic="plate">
			<state id="very_low" />
			<state id="low_to_very_low" />
			<state id="low" />
			<state id="fairly_low" />
			<state id="medium" />
			<state id="fairly_high" />
			<state id="high" />
			<state id="high_to_very_high" />
			<state id="very_high" />
			<probabilities>0.09374011716645039 0.08824910803056372 0.2086141393624089 0.2323749200644656 0.1749375522608843 0.05121382393101389 0.04328706764325238 0.03924111321080705 0.06834215833015402</probabilities>
		</cpt>
		<cpt id="pose_residual_symptom" target="true" dynamic="plate">
			<state id="very_large" />
			<state id="large" />
			<state id="medium" />
			<state id="small" />
			<state id="very_small" />
			<parents>innov_x_evidence innov_y_evidence innov_t_evidence</parents>
			<probabilities>0.9995522709238041 0.0004477290761955951 9.21958472936037e-19 5.21175722438672e-17 1.208628410200756e-16 0.999090992288337 0.0009090077113900896 5.985519938489188e-15 5.208792953691678e-14 2.149405994074052e-13 0.9988455156247791 0.001154484220434901 1.787829681555392e-11 6.210453560545661e-11 7.480331726274585e-11 0.9984990334863609 0.001500941561831923 1.696177189759858e-09 2.072482458063713e-08 2.530805330797815e-09 0.9987029547002551 0.001297045164769043 2.153232456143467e-11 2.711919883396584e-11 8.632441717923771e-11 0.9985434387301713 0.00145656126964715 1.675454068128462e-14 2.576964037947914e-14 1.391038861133024e-13 0.9986675389474143 0.00133246105258253 3.716479031386621e-16 2.350206806208244e-15 4.421341623420699e-16 0.9986815938033226 0.001318406196673733 2.622118735323981e-16 8.950725391680589e-16 2.550982386205114e-15 0.9993075067641043 0.0006924932358940485 1.421897622558027e-16 1.012580851966049e-15 4.449579621301954e-16 0.9985132389948334 0.00148676100515054 1.333593739054048e-15 3.605033010318138e-15 1.104280650656947e-14 0.9966867949242221 0.003313205032209703 1.334014107158517e-12 1.180962015174775e-11 3.04246780614274e-11 0.9965547777462428 0.003445215978757385 1.664971044131168e-10 3.169461394984726e-09 2.939041430845433e-09 0.9967613467341777 0.003238621132798929 4.082202536349262e-09 2.163891642996283e-09 2.588692923620535e-08 0.9964537929618292 0.003546205000957896 2.153805034790607e-10 2.737100625951486e-10 1.548122425882385e-09 0.9965553129215473 0.003444687078237311 9.397281521224423e-14 5.331020355221941e-14 6.814650336029833e-14 0.9963251109406762 0.003674889059220987 1.069399211306956e-15 3.190862008587888e-14 6.999659108067416e-14 0.9959190259546681 0.004080974045132849 1.154126870342424e-14 1.998135643021592e-14 1.675921296392905e-13 0.9975271619412234 0.002472838058285784 4.709144279991469e-14 5.173341858414974e-15 4.385041978768678e-13 0.9953873728973117 0.00461261218925407 2.4323697821757e-09 6.648617955099534e-09 5.832446401037548e-09 0.9922274303411995 0.007771010019242517 4.539855110630777e-08 6.757912440508022e-08 1.446661882543386e-06 0.9771223651423662 0.01841672426441643 7.73875951238223e-05 0.001760773499925712 0.002622749498167945 0.9317692776803439 0.01940221526563999 0.002623093245219213 0.01459866526905446 0.03160674853974246 0.9888259818008762 0.01089921442045313 1.377440022814305e-05 1.180751280880636e-05 0.0002492218656337792 0.9925297721202945 0.007470192681926239 4.99646558234633e-09 5.558527963980841e-09 2.464278579551073e-08 0.9894420105098584 0.01055793251006011 5.188160549791764e-09 2.773482247585255e-08 2.405709858265869e-08 0.9889066485407142 0.01109326627000082 8.107802647662556e-09 4.440872688655603e-08 3.26727554755232e-08 0.9924133500367781 0.007586343379845911 7.464357132872272e-08 5.354888269450247e-08 1.783909220162444e-07 0.6762281543651871 0.07249512011784671 0.02274544973601524 0.01918589875896087 0.2093453770219901 0.584272726441651 0.05758207580656384 0.02752685227481339 0.2811643274681462 0.04945401800882557 0.2625756029371751 0.1243827593073256 0.03722958361514718 0.2258218502156051 0.3499902039247471 0.209617119731475 0.01949856585997379 0.01365236311766001 0.2409700566173257 0.5162618946735654 0.3447882780650003 0.1660284398923456 0.04342933474624272 0.128914837133445 0.3168391101629663 0.9209344059363522 0.03455037834643906 0.006986011332805746 0.007278393838384292 0.03025081054601859 0.8914515129190688 0.05363337742285812 0.002070858765017579 0.04699095031591911 0.005853300577136415 0.3139296231178056 0.07633617154194768 0.04121295629009332 0.2483262158766225 0.320195033173531 0.3251066163271029 0.0542188883786448 0.03400841143064073 0.1664324278074705 0.420233656056141 0.3566888837406824 0.05774208061300212 0.02097776425963449 0.1625480217576205 0.4020432496290606 0.2986982431107133 0.04404468884097436 0.03163035488506322 0.06832324221326103 0.557303470949988 0.1925155283534211 0.2067956011755719 0.2470762156109366 0.3087531410828574 0.04485951377721298 0.1628058001180094 0.04812415822986438 0.06723116965619466 0.5319097246610324 0.1899291473348991 0.190766373834502 0.1231723375827401 0.01640400394031427 0.01081837255817208 0.6588389120842716 0.5547491561668643 0.03447167585904919 0.0139260382902601 0.09006791258174821 0.3067852171020783 0.6327204474791769 0.08867553369494548 0.04277255011610011 0.01777727360685375 0.2180541951029237 0.3131365029506452 0.06031018180685791 0.03872975596582721 0.02398208027578769 0.5638414790008821 0.1755923726797804 0.02927415703527394 0.02368054207634031 0.3222193663435921 0.4492335618650131 0.9967577782638354 0.003239783286010582 4.117729203667211e-07 7.320946563489138e-07 1.294582577458082e-06 0.9940652642840728 0.005815777109706031 7.490157699953067e-06 4.225219425298138e-05 6.921625426829825e-05 0.9559106722799016 0.03573264080915169 0.0003824662806478518 0.003925887311750665 0.004048333318548227 0.7772758920845944 0.06525913904939655 0.009666975051012754 0.01483485059874966 0.1329631432162467 0.9854859937012496 0.01347454549796076 8.107539683571947e-05 0.0003801270148056469 0.0005782583891481601 0.993735208628683 0.00622217382847077 4.85927298442639e-07 5.965548248017367e-06 3.616606729982926e-05 0.994571752327953 0.005426463615689237 1.434874999916778e-07 5.499650476548541e-07 1.090603810324153e-06 0.9917776508823194 0.008194265110896045 8.902068335259568e-07 5.196813506046807e-06 2.199698644463311e-05 0.9852098873668638 0.01184439107897568 3.122718500766023e-05 0.0008947487134583277 0.002019745655694636 0.9990563043844913 0.0009436956127524276 3.743983773704908e-14 1.08074570782433e-12 1.638263330250068e-12 0.9980375837118854 0.001962412421820847 2.361326918788133e-10 1.526557114287013e-09 2.103603818034899e-09 0.9981434388061859 0.00185650526269383 1.552091405406335e-08 3.272611391205992e-08 7.684092329752576e-09 0.9981558441512192 0.001843373400955578 2.042008406820275e-07 2.483325203308801e-07 3.299144642267326e-07 0.9980084926469903 0.001991414552447746 1.038123176318847e-08 4.086074039504415e-09 7.833325602351039e-08 0.998370012398707 0.001629987593768345 4.377678798522438e-13 4.002963900853038e-12 3.08389136745411e-12 0.9984312982714091 0.001568701728205695 1.617046993095042e-15 3.088524170321481e-14 3.525461577977946e-13 0.9981701741990524 0.001829825799408096 1.769340275766321e-13 5.447127666260454e-13 8.178501775893948e-13 0.9990660016010304 0.0009339983980769833 4.141275982899679e-15 3.072593662242732e-13 5.811418472351861e-13 0.9996905227549175 0.0003094772450815104 8.260444708097263e-17 1.260641910104807e-16 6.167171927139524e-16 0.9994064433270121 0.0005935566723799298 1.72204587489613e-14 6.226750696796775e-14 5.285104876896573e-13 0.9993495564108048 0.0006504434484583871 1.181317228470782e-11 5.683152777018647e-11 7.209207980965644e-11 0.9993796967278232 0.0006203009601170869 1.918410805727546e-10 2.745940763845282e-10 1.845624597137692e-09 0.9992554482005144 0.0007445516319410577 1.737504288777701e-11 1.944225559814503e-11 1.307273103694953e-10 0.9993630298207209 0.000636970179269203 8.242165615009879e-16 3.261414474634973e-16 8.737972114164821e-15 0.9993896152236191 0.0006103847763803525 2.059812941499226e-17 1.673556416652693e-16 3.658945371986644e-16 0.999399961926967 0.000600038073032762 2.386719503534554e-18 9.888991830262955e-17 1.536209709908899e-16 0.9996982430404491 0.0003017569595508163 1.879430021169639e-17 9.755109513892425e-18 1.01597119919066e-16 0.9998996313373836 0.0001003686626164234 2.539843446255448e-18 2.448553547692694e-18 3.20474157840752e-17 0.9997930132876278 0.0002069867123380234 4.384552727991326e-15 2.010553820511491e-14 9.612044364678965e-15 0.9997746765375688 0.0002253234316039923 9.583435575669787e-13 5.041624396735692e-12 2.48272640268762e-11 0.9997691506551746 0.0002308488790498989 1.857213422964735e-11 7.435953796458598e-11 3.728440348671076e-10 0.9997792824320394 0.0002207175625620046 3.85376966462923e-13 9.16626419072836e-13 4.096718883005855e-12 0.9997833943916794 0.0002166056083199753 5.121255555954938e-17 6.568785759745544e-18 5.737290042236514e-16 0.9997925295115435 0.0002074704884565602 2.558145414127699e-18 1.152407940415044e-17 2.676715057353463e-17 0.9998085302368891 0.000191469763111034 2.18467851016626e-19 5.149284353898168e-18 1.613183230953789e-18 0.9998963835959011 0.0001036164040990265 7.406932349085823e-22 4.935090952472046e-18 7.595641446278587e-18 0.9978707979296686 0.002129202064190545 5.914359245347069e-13 2.517135430017312e-12 3.032335367748547e-12 0.9950177912599838 0.004982205281712851 1.597063426518696e-09 1.469849860816613e-09 3.913901067320083e-10 0.9952606586357864 0.004738187796621811 1.262709444430581e-07 5.628184814195294e-07 4.644781658104787e-07 0.994609745047601 0.005366780650836586 1.979455128359626e-06 1.085947782403477e-05 1.06353686098206e-05 0.9953199847054814 0.004679584332037089 5.420355639671652e-10 1.027332135548711e-07 3.276872322955313e-07 0.9960313221694114 0.003968677812847885 1.963288478533835e-12 5.859164036932315e-12 9.918256687673674e-12 0.9962338903769133 0.003766109621292723 5.676682952599634e-14 1.645522240616993e-13 1.572795086677828e-12 0.9959401791591681 0.004059820840452681 1.487301507005097e-13 2.18936449449944e-13 1.153403841074962e-14 0.9974786814360166 0.002521318558500209 5.78090952210791e-13 3.130558489451571e-12 1.774643440435652e-12 0.9954038843225164 0.004596115670726685 6.547355420969233e-13 9.697077446113974e-13 5.132336721941968e-12 0.01021403290546349 0.9897859445147589 1.912706589573484e-11 6.810024714396512e-09 1.575062588040092e-08 0.007207945957235676 0.992791581723971 4.659478435346987e-08 4.362974625817343e-08 3.820942629789548e-07 0.007200494408437598 0.9927959893407317 2.855787136367707e-09 1.504766659207349e-06 2.00862838423686e-06 0.006958421763590498 0.9930415068642846 9.051496939136187e-09 8.58036064294827e-09 5.374026733618436e-08 0.008576897822096301 0.9914231021509953 1.059614074961532e-12 6.981625501640652e-12 1.886711881418242e-11 0.01252101306310805 0.9874789868653983 1.792786746028076e-11 3.821282744510679e-11 1.535280818127526e-11 0.01680920555390827 0.9831907928516129 1.202076117406164e-10 3.478072099087712e-10 1.126464002307003e-09 0.9958307081224259 0.004169291877206963 3.67407014483187e-14 2.505523290875418e-13 7.982709609677133e-14 0.9922439525389188 0.007755984374700701 4.351821518000721e-09 1.512080393890748e-08 4.361375509718034e-08 0.01017449911578846 0.989824584313187 5.3117106307759e-08 1.041786555154373e-07 7.592752627025837e-07 0.007867422297953659 0.9920775283502268 2.22948715750731e-06 1.328476642709759e-05 3.953509823488123e-05 0.009054080955972169 0.9898166896759063 0.0001065376013413243 0.000271959637597075 0.0007507321291829898 0.008592338848771766 0.9913780361761618 3.529715636369609e-06 1.23221167707848e-05 1.37731426591062e-05 0.01174894352622753 0.9882510136606854 2.428582451678212e-09 6.638174349336407e-09 3.374633037022715e-08 0.01786489800478864 0.9821349206114597 1.763516023261337e-08 4.862875546322676e-08 1.151198361384558e-07 0.02675789437108585 0.9732373701854174 1.608260030476565e-07 1.779082731592323e-06 2.795534762076952e-06 0.9823101677288439 0.01768652946894036 5.429856202922831e-07 2.281272754492452e-06 4.785438411270959e-07 0.913899652075984 0.02369856980072758 0.004161504464056793 0.01453213433553996 0.04370813932369166 0.006061735814887982 0.9907564834697331 0.0001522561436264434 0.0008360444656702906 0.002193480106082209 0.00335867875051786 0.9923556245885929 0.0005088256892002092 0.001025351235375624 0.002751519736313306 0.002929467562300382 0.9805498529112443 0.001637831340449673 0.001420171654728058 0.01346267653127748 0.004143068204269679 0.9883583634294915 0.0006632562238285769 0.0007964484976532435 0.006038863644756923 0.00781014682017005 0.9918517592395533 5.130918604224185e-06 0.000112793813453921 0.0002201692082185227 0.009736503110645663 0.9900600631972196 8.207779509870677e-07 9.225616754719715e-05 0.0001103567466366568 0.01428381829238274 0.9821933860176778 0.0002741714435373345 0.001813396040514893 0.001435228205887088 0.5356028200539577 0.0489518661074863 0.0434517875309184 0.2169676796879172 0.1550258466197203 0.8345750075160606 0.0122182123314985 0.007885923362998941 0.03743720672973037 0.1078836500597115 0.003653316671021787 0.9875541254440777 0.0001963913385946251 4.133427143254955e-05 0.008554832274873244 0.00126585396282663 0.9984259901555281 2.32856036830592e-05 0.0001125656334940721 0.0001723046444679231 0.001508790700289601 0.9739166986247295 0.001656402503130286 0.003604380127684301 0.01931372804416624 0.00220125372017214 0.982004284378342 0.001072920153562882 0.003856386859596229 0.01086515488832689 0.003999485648586895 0.995553691815573 4.593046592819511e-06 8.940922320195587e-05 0.000352820266045264 0.006276952708534497 0.9892843642543548 0.0001358708101158378 0.0001883791349787644 0.004114433092016172 0.008031707378955366 0.970648843849515 0.0002662878919968433 0.003112858805875012 0.01794030207365777 0.4286738110437242 0.05058377927092367 0.01930782403405126 0.2316401240395864 0.2697944616117145 0.9970812465182972 0.002918595717761667 5.132810525233804e-08 9.725959559761985e-08 9.176240282350463e-09 0.003256142068902423 0.9967375883804014 1.494019306446474e-07 4.707407408282368e-06 1.412741357245381e-06 0.002626046068694821 0.9971422746618772 4.872198392960481e-05 0.0001170639373713077 6.589334812678731e-05 0.002351339759445315 0.9957172896688015 0.0001646222502105921 2.55568848932916e-05 0.001741191436649256 0.002738913251171025 0.9970301928485069 1.776976844302079e-05 1.773570383428708e-05 0.0001953884280448753 0.003746700508566804 0.9962529666240688 1.85809296458487e-08 5.857115066994207e-08 2.557152839637154e-07 0.004527943967475362 0.9954720266204087 1.589251101680882e-08 3.518546763149431e-09 1.000105826153806e-08 0.007709363716675991 0.9922723252987862 2.672949791348454e-06 1.835204181831672e-06 1.380283056463278e-05 0.9634923258697139 0.01797288715051937 0.001432390670574492 0.001197234304880664 0.01590516200431141 0.9979002772303873 0.002099722661813329 2.877933145873088e-12 1.801351652396959e-11 8.690771713521603e-11 0.002939907602122922 0.9970600867708462 2.657956786666896e-10 1.230224282875984e-09 4.131010771734865e-09 0.00215593586922141 0.9978439463400252 7.260778819025142e-09 4.081465179257625e-08 6.971532272462659e-08 0.001934535434090109 0.9980648820884673 2.861331522210278e-08 2.536031597591843e-08 5.285038115569621e-07 0.002128378746268209 0.9978715954511271 2.447071110040584e-09 2.056709335114833e-09 2.129882423425619e-08 0.002432064324653514 0.9975679356645593 1.104202804089419e-13 1.403858346193e-12 9.272817412775087e-12 0.003535948733872979 0.9964640512437037 2.001147207163524e-12 1.32247877737337e-12 1.909970041850921e-11 0.003452811936472083 0.9965471880464836 1.571274941348229e-12 1.468338691686494e-12 1.400460718742085e-11 0.9974984707634085 0.002501529146154716 4.75941376975658e-12 1.47701478260849e-11 7.090737693800994e-11 0.9991659878661892 0.0008340121336112096 1.105362186493131e-14 9.330985912700025e-15 1.792953763255855e-13 0.001294063913560509 0.998705936052613 5.149726739553631e-13 3.171923609428248e-12 3.013947739670071e-11 0.001346138052989877 0.9986538516188057 3.192184654579531e-10 8.097041286260445e-09 1.911944573008154e-09 0.001284018602846053 0.9987159103962758 6.589368488611562e-09 4.118598281123504e-08 2.322552686859403e-08 0.00128728610644108 0.9987127126689719 1.817810545998187e-10 4.807722565454528e-10 5.620338545793945e-10 0.001345312008772101 0.9986546879910108 1.964027327094647e-14 1.304846183088153e-13 6.706324456134328e-14 0.001501463899854975 0.9984985361000821 3.412678210128694e-15 1.606047018802275e-14 4.349583951310406e-14 0.001358062400990837 0.9986419375989919 1.173597828008778e-15 5.069067606051605e-15 1.089013651708102e-14 0.9991579318957569 0.0008420681041733292 1.687415767992616e-16 2.874494838442949e-14 4.103146725443534e-14 0.9997083697165096 0.0002916302834755596 3.276842593212683e-16 2.127690242332894e-15 1.235319358778915e-14 0.9994042322364216 0.0005957677323268449 3.323184028768563e-12 7.125848870141656e-12 2.080259045342467e-11 0.9993264576994331 0.0006735300237720227 1.20148397389484e-09 4.409788064006885e-10 1.063433218700247e-08 0.9993399362698681 0.0006599333169821055 1.712524471571167e-08 5.181227170794829e-08 6.147563335490598e-08 0.9993575645958983 0.0006424339340350042 7.360538552737898e-12 9.13444043833034e-10 5.492621720129646e-10 0.9994617263820689 0.0005382736178457351 7.769018033846836e-15 1.716954147212811e-14 6.051464148355798e-14 0.9994577571110385 0.0005422428889502269 8.511372537362204e-18 3.550132337278025e-15 7.790648577978868e-15 0.9994358103252022 0.0005641896747896435 1.883103685228037e-16 8.555554900241648e-16 6.960676974324488e-15 0.9997080922615026 0.0002919077384924246 4.86050146674546e-16 3.385652606551188e-16 4.163201125204461e-15 0.9942851188251599 0.005714880930586491 1.293988273579777e-11 4.389568402868179e-11 1.87417986565255e-10 0.9910412513081829 0.008958733364843333 9.771812289730309e-10 5.736028906639417e-09 8.613763483884781e-09 0.9892938190314795 0.01070291964488144 3.168928914113744e-07 2.240281637979156e-06 7.041491097772812e-07 0.98341299119771 0.01596445400568724 1.022401691995403e-05 3.293778399140627e-05 0.0005793929956916325 0.9895177528335343 0.01047990565777569 1.53502021417295e-07 7.748852550286049e-07 1.413121413444503e-06 0.9893610759359438 0.01063892290502039 5.082152157073695e-11 1.875432360942288e-10 9.206710196109279e-10 0.9904690081044792 0.009530991868252488 5.689548819451561e-13 8.276733269242695e-12 1.842259064061256e-11 0.9901375740002204 0.009862425974819749 1.93094137826678e-12 1.195674843650564e-11 1.107224497810371e-11 0.9948967878432818 0.005103212138952019 1.704215712135182e-12 2.22553406531559e-12 1.383634847127701e-11 0.9850682595682525 0.01493173851596302 1.86843311992793e-11 7.198727515023263e-10 1.177227186644732e-09 0.01179865531801306 0.9882013443873914 2.886014762685031e-11 1.363183710973283e-10 1.294170920244627e-10 0.007856613571020318 0.9921433822365485 2.195634565870581e-11 9.946125973838709e-10 3.175862218510054e-09 0.008294197078326971 0.9917057516034556 3.794716610342945e-09 9.859322378143799e-10 4.653756861108908e-08 0.009858076782185567 0.9901419210339033 7.645597492037458e-10 5.849323773939771e-10 8.344189518636116e-10 0.01498135420008292 0.985018645762654 1.714984805399316e-12 6.966958893935324e-13 3.485145551341307e-11 0.0150776170034566 0.9849223829936814 2.029973566591544e-13 1.590133967771291e-12 1.068858688131137e-12 0.03117858344839748 0.9688214148687161 2.373275297225187e-10 1.398456273076541e-09 4.710238802944451e-11 0.9853650525154091 0.01463494739332973 2.281897761468562e-11 5.379063904278045e-11 1.465169126642479e-11 0.9907528977601608 0.009247100855230356 1.272991931084521e-10 8.104609053880166e-10 4.468486618012883e-10 0.009670681540760421 0.9903293132068907 5.284651128042041e-10 1.963054877784511e-10 4.52757836966803e-09 0.006753015276819842 0.007668591845036815 0.9855783269014496 1.49709039703411e-08 5.100578952360672e-08 0.007914569005167562 0.009377293473068368 0.9827060932679932 1.30991726718129e-06 7.343365034834604e-07 0.007762917702512949 0.008772327505754546 0.9834647245513292 1.81873732126865e-08 1.205303023505664e-08 0.01031882303013883 0.01080239419358456 0.9788787827446496 1.554771341399716e-11 1.607917453053474e-11 0.0151224231428103 0.01601016886053123 0.968867407832906 8.739562238026722e-11 7.635681181910926e-11 0.03423240067020342 0.9657675160882301 5.123986520764681e-08 2.149341153761998e-08 1.050828981288372e-08 0.9691099868647028 0.03088839399209851 3.084596042872571e-07 1.22059989120872e-06 9.00837030373724e-08 0.9916793300978847 0.008308188698413994 9.106028087698146e-07 3.827156171689193e-06 7.743444720802937e-06 0.00551225201977323 0.9944853008989447 5.626628008975239e-07 1.732037490200971e-06 1.523809908817916e-07 0.001184563228790681 0.00131569196692618 0.9974997443048524 2.452400703682034e-11 4.749067867342431e-10 0.001438501497297333 0.001662837421789768 0.9968985858416666 3.679217525864587e-08 3.844707116277665e-08 0.003372993451184654 0.004428324037526627 0.9921967578902243 7.677128880594566e-07 1.156908176325318e-06 0.006970299452047592 0.008143485769237959 0.9848855940997052 2.186088696325864e-07 4.020701395274838e-07 0.009278259192616651 0.01107319211862983 0.9796476217109433 1.055713053654566e-07 8.214065046641772e-07 0.01678503239999228 0.9831188630637538 7.288734052947454e-06 4.098793497988086e-05 4.782786722107961e-05 0.852799280217705 0.05849910646768514 0.00499958371402224 0.04896030616848204 0.03474172343210561 0.9934600415356086 0.006313700902754614 2.21097435766528e-05 1.553071732385388e-05 0.0001886171007362787 0.001965360709786946 0.9980344959256046 1.175775830702867e-08 9.25307553517587e-08 3.907609479505729e-08 0.0006608316617539593 0.0007458190235601686 0.9985933471851057 3.822572459252099e-10 1.747322896294499e-09 0.0006888016703753415 0.0007938930550909863 0.9985172558227403 1.064105540100773e-08 3.881073812174606e-08 0.00197162789086711 0.002760114349155616 0.9952511685151377 2.472865829061912e-06 1.461637901044942e-05 0.003995934133406852 0.004810272805993472 0.9911930025983586 6.14909586845036e-07 1.755526542229322e-07 0.005298842488919215 0.006539878288482208 0.988159468152806 1.845160561969899e-07 1.626553736370839e-06 0.01187626301945221 0.9846588526497555 0.0001712722333478511 0.0007593664465291544 0.002534245650915277 0.5725474570017133 0.05017342293304785 0.03711457980439723 0.08442479722434766 0.2557397430364941 0.9940142546098847 0.005985272223738248 6.76641489364266e-08 2.345583041267089e-07 1.709439241544564e-07 0.003063389641344311 0.9969365959205956 1.303038305611186e-09 2.99237926860172e-09 1.01426424205474e-08 0.001860349010511862 0.002264514829012578 0.9958750956846281 3.257772052089107e-09 3.721807522334152e-08 0.001900932038231327 0.002385946411939001 0.9957124454126528 4.058237579578807e-07 2.703134188582349e-07 0.002488965954273287 0.00311219159613884 0.9943987283517501 5.53808835382094e-08 5.871695425018262e-08 0.003833921968797951 0.004214194488358605 0.9919518823840052 5.856691526942857e-11 1.100271352576163e-09 0.005191045293803818 0.005788844988308476 0.9890201079501696 5.391392342990286e-10 1.228579011009398e-09 0.008629386982946394 0.991370351569275 6.450920147797624e-10 7.8505806372708e-08 1.822968802876032e-07 0.9809988862727698 0.01822796202207178 5.464001333041878e-05 0.0001489814490313905 0.0005695302427967715 0.9947179715910776 0.005282026542311594 1.661400096070527e-10 5.624071216240996e-10 1.138063712881706e-09 0.004430011727515187 0.9955699876822917 9.16951072444586e-12 1.282279783447087e-10 4.52795753038324e-10 0.00278836174410805 0.003112607552022807 0.9940990290007441 1.177437146330339e-09 5.256877376997244e-10 0.002663011471564679 0.002995067382129887 0.9943419006350037 9.014713305054465e-09 1.149658855888881e-08 0.002526824960758985 0.00274395275421518 0.9947292221145871 1.267395718146423e-10 4.369917745891076e-11 0.003140088281587797 0.003233156779044655 0.993626754939241 2.673854294735135e-14 9.973614696096993e-14 0.004258384725472224 0.004403672244938091 0.9913379430291909 1.646989611848418e-13 2.341108312391913e-13 0.009177460059616433 0.9908225396703503 1.102493811815837e-11 2.392526205213069e-11 2.350830679236074e-10 0.9927455863438144 0.007254406654680354 3.359542595737722e-10 2.555354927088849e-09 4.110196148765753e-09 0.9977902202844094 0.002209779711110406 5.199422209307655e-14 1.607768916884673e-12 2.820282773914699e-12 0.002957552759294463 0.9970424469983106 1.197421419595412e-11 6.739106345623458e-11 1.63029726124705e-10 0.002588744849510285 0.9974112383832701 1.067051011978926e-09 5.905768445483804e-09 9.794400075242964e-09 0.002014934157248494 0.9979850284857363 1.25273822276266e-09 1.087967023884144e-08 2.522460677131443e-08 0.002213128923871201 0.9977868698378626 1.170242240729415e-10 3.077642742021242e-10 8.134777887421275e-10 0.002951338822631716 0.9970486611742576 1.327333839484556e-14 6.472065580800307e-13 2.449960905447903e-12 0.002899874331263221 0.9971001256686067 2.621974459562589e-15 1.282664275885699e-14 1.146710065776443e-13 0.003069061661157589 0.9969309383386946 3.68939427906068e-15 5.215155077197334e-14 9.203272993878248e-14 0.9978762872390523 0.00212371276005043 6.884681871083138e-14 1.831579515320818e-13 6.452446070491613e-13 0.9990828611864102 0.000917138811279381 1.780573079101531e-13 1.518665040757955e-12 6.136467753099312e-13 0.9983324165974173 0.001667582706838055 5.281233778124822e-11 5.122285700928133e-10 1.307038424433154e-10 0.9981289030867303 0.001870834232029042 1.616903754770448e-08 8.465939722707105e-08 1.61852805874081e-07 0.9983894767015766 0.001609734769125249 7.459602782844536e-08 5.803289129665484e-07 1.336043573548855e-07 0.9981889904971595 0.001810957786750029 5.752546783366345e-09 7.8409305892064e-09 3.812261319707005e-08 0.9985618723389901 0.001438127658617325 3.009979500516369e-13 2.983161926681228e-13 1.793197135579199e-12 0.9984187525212203 0.001581247478313158 1.913960149585661e-15 2.734009038335228e-13 1.912733842326133e-13 0.9982846772819567 0.001715322717069505 3.374976398678149e-14 2.294318502404498e-13 7.105392185034439e-13 0.9990552350447989 0.0009447649539784702 7.12767434471477e-14 2.202584973401249e-13 9.311467569326614e-13 0.9782243919737613 0.01966317798296744 0.000184203532053081 0.00112999281532374 0.0007982336958943602 0.974649916519432 0.02147855854294802 0.000373716667061721 1.362207610455835e-05 0.003484186194453745 0.731243144173951 0.03748114693546759 0.02032028231606905 0.1238593933742411 0.08709603320027144 0.7653018985843376 0.03601518832733008 0.02124336088399505 0.1414284756524502 0.03601107655188693 0.8198988712878431 0.0491910759357138 0.02494963805794987 0.04117672029558636 0.06478369442290666 0.9660327091294717 0.03316823582215698 0.0001694409167041401 0.0002119349554590199 0.0004176791762081733 0.9784479028664487 0.02148057580513116 1.164247576067826e-05 4.818777566287443e-07 5.939697490289116e-05 0.9387983640873028 0.05418962627581998 0.0009002202935825631 0.003498178821952984 0.002613610521341747 0.9767334946246955 0.02236571218703735 0.0001030302019819913 0.0004042316238730595 0.0003935313624118887 0.97528541944378 0.02459873742095967 5.712981290128125e-07 8.418281584381578e-05 3.108902128755411e-05 0.01056001447972009 0.9894385550310183 4.312906814256831e-08 3.30841204150633e-07 1.056518989340671e-06 0.009610520436062081 0.9901985000362324 1.929410484374889e-05 2.242298319241161e-05 0.0001492624396691674 0.007601219840130769 0.9921012599880659 1.570735340397153e-05 8.485013216052978e-05 0.0001969626862390282 0.009157719035234713 0.9908006816691534 3.348179051998198e-06 8.610839179692316e-06 2.964027738012175e-05 0.01229236827173539 0.9877075728867354 2.543331056586111e-09 1.809166085066842e-08 3.82065373428957e-08 0.01993394831237248 0.9800655078882928 5.561872113695381e-08 2.019642699209855e-07 2.862163435470268e-07 0.0298172813665166 0.9701631488948056 2.940911955622094e-07 4.916403187622696e-06 1.435924429462967e-05 0.9238832264312316 0.06705599523167026 0.0004651180428231607 0.003005063176013669 0.005590597118261546 0.9939378002831933 0.006062095317881449 3.040160263413336e-08 2.903796149796557e-08 4.49593612070919e-08 0.004100849816325291 0.9958991400931076 1.154851113488123e-09 7.787224463352838e-09 1.148491391306095e-09 0.000248020994030282 0.0002509514850557627 0.999501027520914 1.683472820598142e-18 6.67604700808133e-18 0.0007267169802332 0.0007555293483410181 0.9985177536647653 1.578409672377128e-12 5.082090621056869e-12 0.004366598382490896 0.00527777637509349 0.9903543486375204 1.206592866445673e-06 7.001202866319943e-08 0.005842588613042584 0.006266040238363347 0.9878913683602726 3.552769162850065e-10 2.433044718817874e-09 0.01233998680852212 0.01403367261180917 0.9736258217069359 2.639114753436945e-08 4.924815850492202e-07 0.02587765801683796 0.9739706414243892 1.511055837889863e-05 1.480879158740927e-05 0.0001217812088063588 0.718247359330252 0.08957756790360445 0.009119860253431865 0.02487310830351041 0.1581821042092013 0.9981387185900431 0.001861140585121371 4.429695051785771e-09 8.08338984779927e-08 5.556124217008037e-08 0.0004953393036169345 0.9995046606865969 2.806321531184082e-13 1.141528203352405e-12 8.364155301558875e-12 0.0001014745904475738 0.0001038361515188403 0.9997946892580336 3.172816605916782e-17 7.107505888485226e-17 0.0001315110943434367 0.0001359788253552568 7.609798685610564e-15 0.9997325100802715 2.232254327502928e-14 0.0009587140175607863 0.001170242220809038 2.133732426550644e-08 0.9978707978778623 2.245464437141915e-07 0.003207145438781835 0.003897202286774208 3.276115900260918e-07 0.9928906892981687 4.635364685190998e-06 0.005181755900451898 0.006832257800468401 0.9879465215792973 9.921101092466216e-06 2.954361868985944e-05 0.008620750806896825 0.9886296889068604 6.462749530825429e-05 0.0008436584575314692 0.001841274333402902 0.6663295246220827 0.02356979937205496 0.00399674899778187 0.1540604787557775 0.1520434482523029 0.9986185169058988 0.001375439713557659 5.06852562605653e-07 5.906806661739367e-07 4.945847314871794e-06 0.0004362346787922061 0.9995637638466448 1.247705391097863e-10 1.789070907501447e-10 1.170885492589708e-09 0.0001818169832406279 0.00019839272031046 0.999619790215187 5.748198865855545e-11 2.37799926103623e-11 0.0001670944546201037 0.0001827421586959852 4.349666965718934e-11 0.9996501622747228 1.068464208401662e-09 0.0005177057317343852 0.0006473463644947 1.70683395313134e-08 1.003640576970576e-07 0.9988348304713738 0.001347372440516517 0.001589538597796931 8.182335213395306e-08 0.997062526812509 4.80325825604558e-07 0.002611621814995467 0.003480870635683276 0.9938823766997738 8.589635465587798e-06 1.654121408184111e-05 0.004843663749118213 0.9910303683858073 0.0008720606044920903 2.885423871081385e-05 0.003225053021871786 0.4742798430999551 0.01443143970503203 0.0494040747481564 0.1218592572256498 0.3400253852212067 0.9989376967300837 0.001062302141534604 1.817493540176224e-10 4.662404961145869e-10 4.803917528955217e-10 0.0006544395416440515 0.9993455604135022 6.077245810971408e-12 1.977119629445621e-11 1.900533337672351e-11 0.0002242936749826046 0.0002379250924694036 0.9995377812322503 2.275844705305574e-13 7.017140833604812e-14 0.0002769257152279492 0.0003006443365536312 5.318816957933047e-12 0.9994224298445106 9.838903449754157e-11 0.001038385222879162 0.001336902275589843 4.419320574862606e-08 0.9976243243852481 3.439230771416881e-07 0.002234065303310015 0.002599001399779706 2.44358934642913e-09 0.9951668714024491 5.945087182889324e-08 0.00361702826746967 0.004476417079420468 0.9919054825645643 3.120744471024639e-07 7.600140983866351e-07 0.005212291981827074 0.9947780531396887 5.890434874536252e-07 9.059718033663183e-06 6.116963153949448e-09 0.5598381899563175 0.03279572462115901 0.006672137947361241 0.1549198384399084 0.2457741090352537 0.9953977780316496 0.004600013318645752 1.16161118831583e-07 1.064955863439192e-06 1.02753272255228e-06 0.003246742219037101 0.996752323109372 2.039366148756506e-09 1.947977120824519e-07 7.378345124995303e-07 0.002223440542380319 0.002856861558386567 0.9949135948394312 3.015088854785511e-06 3.087970947210052e-06 0.002004833217564713 0.002579972590956479 0.9953901130301248 3.741231540439192e-06 2.133992981339071e-05 0.002121455822937643 0.002578567549961369 0.9952988874893964 2.257934496276304e-08 1.0665583595471e-06 0.003126044243408927 0.003384712021584585 0.9934892426917226 9.382360268429022e-10 1.050477290154576e-10 0.005332899667208521 0.005993478721333069 0.9886735714550371 2.621452229468801e-08 2.394189911625812e-08 0.007429480948588318 0.9925694755274141 1.307359037288392e-10 2.420176285526769e-07 8.013756334137916e-07 0.9825280230501573 0.01573654690676377 6.363129891828219e-05 0.0004391292524715591 0.001232669491689178 0.9871323808460024 0.01049624042146747 0.0001098575246036231 0.0004119249244596691 0.001849596283466906 0.004485711060395612 0.9953624318338627 1.003863296201609e-05 2.720139882764012e-05 0.0001146170739520856 0.002607050436363379 0.9969252072213051 2.376332221768563e-05 7.858136791144858e-05 0.0003653976522024503 0.002138454979631724 0.9972132981983454 3.960372746186918e-05 0.000101627738519975 0.0005070153560409638 0.002457263306959456 0.9974838954541173 4.956234516577402e-07 2.600497721733331e-05 3.234063825431594e-05 0.003543706992784182 0.9964561750542459 3.98243728525401e-09 5.606684326292487e-08 5.790368936467564e-08 0.004654102364962409 0.9953457903678713 1.884468070838557e-10 8.756975648124083e-08 1.950896313309717e-08 0.005742057600133888 0.9942569735576396 8.919439559821178e-08 2.74624319049394e-07 6.050235118403283e-07 0.9679314697882259 0.0180850866667946 0.0004752199002487829 0.004322705997956973 0.009185517646773935 0.9729669204302375 0.009017801694580338 0.003072897949553688 0.00343652931018217 0.0115058506154462 0.951351365747647 0.01107449596635786 0.0008486092393365618 0.01409766623381461 0.02262786281284394 0.5144642706858747 0.02377745561749255 0.01717222334497431 0.09279825394047722 0.3517877964111812 0.5441248252417731 0.01540286372562004 0.04174011207471745 0.1293259557415475 0.2694062432163419 0.7843829068848711 0.01417968864951186 0.01703689766948757 0.03485746505941038 0.1495430417367191 0.9950158672586019 0.004748819656247625 7.55602982725917e-06 9.780330509035843e-06 0.0002179767248143086 0.9947302653215666 0.005204674572773248 2.037504272012536e-06 2.03770887718235e-05 4.264551261631287e-05 0.9839502818825584 0.01095228909477386 8.740327993572972e-05 0.001241102066408627 0.003768923676323345 0.9888940460860851 0.005979749211743254 0.0002658567826237827 0.001539253633470168 0.003321094286077897 0.601695272471819 0.02279770645786025 0.0247972486677475 0.1132658422246536 0.2374439301779195 0.504764218810476 0.03171653700532565 0.03914304989533086 0.1536304439485238 0.2707457503403436 0.198322901278695 0.03309040261758581 0.04455414113095258 0.225365879937839 0.4986666750349275 0.1478699647945051 0.01156300082596298 0.005265834325890952 0.2574917404789166 0.5778094595747244 0.2184159926335476 0.02756215452635618 0.02206075492473851 0.29408692527849 0.4378741726368678 0.5090499174637317 0.0500177041807235 0.02558792671979099 0.1826358013660863 0.2327086502696673 0.4321605768451453 0.05757144553612688 0.03422854511807392 0.05303054562472802 0.4230088868759259 0.3389439096668283 0.05541001202793618 0.08021985059273316 0.0188598783086045 0.506566349403898 0.2502397811410885 0.03039120667196855 0.0141325125134422 0.2776936427105799 0.4275428569629209 0.9652987339055696 0.02068460207689426 0.001239518925915098 0.00313676041671045 0.009640384674910598 0.01050177347947297 0.9803714702829609 0.0002109518658251324 0.001508760142396318 0.007407044229344606 0.005853020179599218 0.9739203666256879 0.001253289588557665 0.007208117462445081 0.01176520614371007 0.005541914713282476 0.9233094880132691 0.005025876443110756 0.0124245991517359 0.05369812167860172 0.005965047505624193 0.9897692880507957 0.0005181382102085391 0.002752849041576513 0.0009946771917951915 0.0168623393173131 0.9806081855233477 0.0007284046381921358 0.001002668267999035 0.0007984022531480208 0.01924594729725148 0.9787870935318408 0.0002190125037099732 0.0001343276477724896 0.001613619019425348 0.03242952716879777 0.8956182006280288 0.009880180005157715 0.0163772013143892 0.0456948908836264 0.8195881958288457 0.04181580805295071 0.002615855495354803 0.01153135134787218 0.1244487892749766 0.9968595636918672 0.00313797952643215 7.530671853123163e-08 1.723140858239732e-07 2.209160896109873e-06 0.002440741961407374 0.9975585391879104 6.970651058054402e-08 2.686425544578345e-07 3.805016172904362e-07 0.001271734154689743 0.001539630097477204 0.9971879458337952 1.786180946803122e-07 5.11295943292887e-07 0.002031606372476646 0.002945364504937265 0.9942197146556578 0.0004052788001125535 0.0003980356668156953 0.003058394314477344 0.004724993220472517 0.9910424512811234 0.0001151301767123284 0.001059031007214319 0.006749852657309177 0.008733216439359003 0.9844297791622193 2.621020540505164e-05 6.09415357072881e-05 0.0089155540705648 0.01194134780379863 0.978973806851797 8.026434682701177e-05 8.902692701257195e-05 0.01142884072611779 0.9871885065247835 3.250366498893143e-05 9.091902587514281e-05 0.001259230058234534 0.4798377879670838 0.03766838909002067 0.005288912953267547 0.1418500143049058 0.3353548956847222 0.9991719215413495 0.0008270264878139637 9.889111419852558e-08 2.655335846548043e-07 6.875461376682793e-07 0.0002523208372814168 0.9997476790117014 4.526632598946981e-12 4.862272113058943e-11 9.78678878995969e-11 8.553698959286179e-05 9.05767567909636e-05 0.9998238862529067 1.403071030124956e-13 5.690735950961191e-13 5.37915821148075e-05 5.597443253609903e-05 7.840031472725231e-15 0.9998902339852064 1.349207625702124e-13 0.0004849254330824216 0.0006608968174383274 6.523591764085061e-07 2.469347460693376e-06 0.9988510560428422 0.001799706692649444 0.002541717796615699 4.928331812977011e-06 0.995631946463102 2.170071581990424e-05 0.003438430606341047 0.006492100126108399 0.9817380575876643 0.002127791171617861 0.006203620508268617 0.00462744157960097 0.8995776659774278 0.005571573832311323 0.0006397896377881103 0.08958352897287178 0.1421356385761705 0.01611912094195194 0.02758755312036974 0.1182674454329651 0.6958902419285428 0.9722902397082319 0.00362296822857974 0.0010360179185033 0.009966761395469219 0.01308401274921578 0.0006424457956584342 0.9991209746691587 7.112425786185811e-05 8.423916030502425e-07 0.0001646128857178406 0.0001157847937605134 0.0001369401279466481 0.9997472616997058 6.16546314691632e-09 7.213123740185832e-09 4.653061374565045e-05 4.99888700944109e-05 2.674708955337236e-12 5.482079792732898e-12 0.999903480508003 1.586836039959513e-05 1.615482787167898e-05 2.070001408926172e-20 2.922796238992068e-18 0.9999679768117288 0.0007265103720821867 0.0009556235584991579 2.133801511462451e-06 7.90413599989566e-06 0.9983078281319072 0.001499289363264979 0.002602674583896073 0.9936318212795857 0.0002653682856571825 0.002000846487595974 0.002250897701522691 0.9541840818363145 0.001357070086006298 0.006544441005037336 0.03566350937111907 0.4664044003003055 0.01136000978080711 0.01208373914766618 0.3185392840722089 0.1916125666990122 0.9988242753209347 0.00116921619604936 4.815283236736365e-07 1.221015547859962e-06 4.805939144459648e-06 0.0003264155534744082 0.9996735838363585 5.986716293053435e-11 2.715022553371094e-10 2.787976196880477e-10 6.669934337601556e-05 7.01677913959255e-05 0.9998631328651754 7.163430537352397e-15 4.546570990817671e-14 4.348823044318495e-05 4.510850289836702e-05 6.79957475939701e-16 0.9999114032666488 8.768539964807264e-15 0.0003759777425376826 0.0004913611739905883 2.455757091654753e-08 6.669951003463758e-08 0.9991325698263909 0.001348100358034283 0.001788979977502198 3.222786586044325e-07 0.9968599984465195 2.598939285301503e-06 0.002405118441169998 0.003827973704159164 0.9937016835728603 7.90219727670128e-06 5.732208453393568e-05 0.003577072470377314 0.9929827985647636 0.0001349356221103082 0.002544763107321926 0.0007604302354268514 0.5686711919160617 0.01245278967523709 0.05037950716883757 0.2225731147379718 0.1459233965018917 0.9934689288538718 0.005196723189889392 0.0001883563684930488 0.0007119405440403585 0.0004340510437052667 0.00117907498961527 0.9988208410729373 3.21384351803944e-08 1.344305753895038e-09 5.045470638481005e-08 0.0007688661938385962 0.000988861295613152 0.9982413007506615 5.346665824926368e-07 4.370933042330477e-07 0.0007933682884431566 0.001067090288618013 0.9981157942182243 8.131986874310355e-06 1.56152178401875e-05 0.00155972836538794 0.002518963290096218 0.9954453318350455 0.0001178462073372917 0.0003581303021329437 0.002985303280306968 0.003789241989481927 0.9932062234814258 6.26005511007915e-06 1.297119367527805e-05 0.004092466673156802 0.005425880171504235 0.9904234474702795 2.005735374291841e-05 3.814833131629135e-05 0.006322152520788664 0.9920082494192395 3.860332679838096e-05 0.0004974573761347256 0.001133537357038839 0.5683794864657084 0.04006197080579262 0.04955376753279052 0.214184067958631 0.1278207072370774 0.4738409728060876 0.02176568444952671 0.07782999482027192 0.05617929695909298 0.3703840509650208 0.003369238547977273 0.9414276082759357 0.007965264934996722 0.0299314987441228 0.01730638949696764 0.001667402453025108 0.9580550489244286 0.002881392536979321 0.03438890225570971 0.003007253829857383 0.001420725884814552 0.8663325546659161 0.01092423407183478 0.04026730169565994 0.0810551836817746 0.00170465068967165 0.9949502112357133 0.0002990928382626299 0.002765245440409925 0.0002807997959424869 0.00303580272677145 0.9964088536909242 9.19076718836881e-07 9.379576514899273e-05 0.0004606287404366189 0.004311625316259086 0.9948448303486449 1.978540038037946e-05 0.000387920367089397 0.0004358385676262444 0.005866353528032783 0.9864123960225142 0.0004215257232389656 0.00208943420847462 0.005210290517739417 0.3432520692057043 0.02380430911962082 0.04585446313602223 0.1844685377958818 0.402620620742771 0.191361061167961 0.02782668413366998 0.04666214840667419 0.2459830729141332 0.4881670333775616 0.2294514715710984 0.04187081778592366 0.09279648006443157 0.3641410338479712 0.2717401967305752 0.1298217583974816 0.03635196686199546 0.1624685572791426 0.1801063858366114 0.491251331624769 0.1147547109352425 0.01518574469069703 0.05301220212072359 0.2470772946613065 0.5699700475920305 0.1880693920520757 0.01203374221603805 0.07234324119453012 0.2550498329555383 0.472503791581818 0.4640985604185673 0.01382852079764187 0.02256284336978827 0.1353459495180751 0.3641641258959274 0.3854189048641796 0.03337477254852619 0.02673306868716597 0.2659286307202455 0.2885446231798827 0.3110418195495113 0.02443218569882445 0.04722775611291127 0.2352450921528464 0.3820531464859065 0.1691761169651137 0.04054923226148022 0.1943819432183082 0.06988361374649238 0.5260090938086056 0.9679840019569659 0.02319772555638341 0.0001783212521817325 0.00242662312047857 0.006213328113990422 0.9793575123212531 0.01846248997858762 0.0002047686241712989 0.0002113940972455574 0.00176383497874258 0.6610777457502083 0.04050485126657102 0.04042622284761022 0.1626307463419482 0.09536043379366214 0.6468240596981534 0.05131505669446693 0.02874174441213106 0.1294944413591753 0.1436246978360734 0.6075284800635724 0.05290283187865474 0.02020684185131543 0.170054998507125 0.1493068476993325 0.9728829581955574 0.02629366302775175 0.0001603033375494834 0.0003284147845933214 0.0003346606545478988 0.9792606420992375 0.02065727435665868 1.430864642584294e-06 4.019333781355898e-05 4.045934164774769e-05 0.944513227941542 0.04938245567301535 0.000516163469940364 0.002173396844131871 0.003414756071370372 0.8999759444970143 0.0531870611051071 0.004352156118511918 0.01234316046670555 0.03014167781266102 0.9878627147309171 0.01213674009825833 4.195090226302854e-08 1.94633750896409e-07 3.085861712866597e-07 0.009187763752689105 0.9908118587024 8.39880420571889e-09 7.26309217685791e-08 2.965151848734561e-07 0.007552696999816176 0.9923954903027732 2.977330976544101e-06 1.263167787760391e-05 3.620368855640743e-05 0.007582182216344902 0.9922168854825663 3.206046400351251e-05 0.0001075395803015655 6.133225678382435e-05 0.008370469025011314 0.9915893400517068 3.047362398207172e-07 1.32005956003606e-05 2.668559144153187e-05 0.01683733236261755 0.9831618615633646 8.33469460180854e-08 3.756326451873359e-07 3.470944264494185e-07 0.02261890571601936 0.9773792892258977 2.400241005856686e-07 8.888893482411088e-07 6.761446339921678e-07 0.0391508420922281 0.9606867410245135 1.118583906121977e-05 4.352526859031632e-05 0.0001077057756069373 0.691276575946102 0.1742926391283131 0.02287103135694033 0.02750005785068881 0.08405969571795559 0.9936201258145461 0.006379519960671557 4.011460271118122e-08 2.169610784766442e-08 2.924140717269504e-07 0.004503635348977069 0.9954963162468228 1.853763735637102e-09 2.251487653976353e-08 2.403555984753035e-08 0.004061008459693262 0.005035264205608877 0.9908917601798483 3.329685197145426e-06 8.637469652604639e-06 0.003752779267759325 0.004687057237372965 0.9915361426525637 1.001544842754322e-05 1.400539387654612e-05 0.004175879361332182 0.00501151359843658 0.9908093072411758 4.979198379123631e-07 2.801879217665385e-06 0.008247244373107926 0.009126804648560182 0.9826258284548571 3.836962924236158e-08 8.415384542566204e-08 0.009329579844307635 0.01027633696560256 0.9803940475314414 1.839081270777278e-10 3.547474012304571e-08 0.01301446394592336 0.9869849613223999 3.588426197225251e-08 1.220940603941544e-07 4.167533543135339e-07 0.9906120238738877 0.009387159076658505 5.902149525094074e-08 8.059969381732062e-08 6.774282646757066e-07 0.9988967157531992 0.001103277887457516 4.811864306413301e-10 1.717439740193499e-09 4.160717337114362e-09 0.0005208974539708996 0.9994791025239873 7.359453311218029e-13 2.642253947401896e-12 1.866337604527519e-11 0.0005976647811029055 0.0006912858325451919 0.9987110320765028 8.402127519681906e-09 8.90772147796096e-09 0.0006379543141086029 0.0007607078860438618 7.481649887994871e-08 0.9986003632477227 8.997356259566317e-07 0.0009416738618598627 0.001147408355535727 6.758280302226745e-08 0.9979103434044032 5.067953981743291e-07 0.003261215647870372 0.003986386807418246 9.805472272245703e-07 0.9927485496655756 2.867331908585158e-06 0.005333107567872872 0.007122590179945374 0.9874623099499987 2.381925101277721e-05 5.817305117028418e-05 0.01145406364729088 0.9544699716364441 0.003122485051802776 0.003824500704295178 0.02712897896016716 0.4369169697324212 0.02194025666955981 0.004524400648682327 0.1331383595813209 0.4034800133680158 0.9989151708363085 0.001083138196855065 1.451286291953527e-07 5.367013938311386e-07 1.009136813251567e-06 0.0002776011122173523 0.9997223988507926 2.595019904513071e-13 1.07806756557731e-11 2.594972955856374e-11 9.26845555280477e-05 9.684914123823833e-05 0.9998104663030168 3.2999299249549e-14 1.839771086267488e-13 9.908348160670008e-05 0.0001044357871588001 2.097932013200278e-13 0.999796480723311 7.713821907213098e-12 0.000482606152677592 0.0005946972592285589 6.407808102887896e-08 4.642183913631612e-08 0.9989225860881739 0.001396855345903302 0.001662048055650126 1.331658890446113e-07 0.9969408460835979 1.173489595713091e-07 0.003311630404717519 0.004874849106016807 0.9912495767875426 0.0001449811078833056 0.0004189625938400089 0.006119677364679638 0.9496866958428751 0.008644971486068577 0.00725019335477491 0.02829846195160174 0.3121123485826083 0.03275083795686672 0.02084605639372019 0.1375352613117437 0.4967554957550608 0.9980841124976716 0.001915554979402171 2.329544830758252e-08 2.014164057836968e-07 1.078110721014633e-07 0.0003841543719664764 0.9996158456276574 4.89068428950911e-14 1.847399640777765e-13 1.425578858030871e-13 0.0001428291563611403 0.000148292467251795 0.9997088783763748 4.779244478830483e-15 7.577333183224699e-15 0.0002273013625993551 0.0002432032431818508 2.242463368783423e-12 0.9995294953758205 1.615592701519286e-11 0.001157076406638423 0.001545824442350248 4.660859580567738e-07 0.997295641297108 9.917679452285615e-07 0.002180659660149079 0.00253099859642568 1.136186254135489e-08 0.9952882543642609 7.60173017040328e-08 0.003235212388650594 0.003913860661887746 0.9928504143483938 1.506929813906542e-07 3.619080863537814e-07 0.004665191098758631 0.9953315905592242 1.87918736412901e-06 1.499197243144724e-07 1.1892349289227e-06 0.9932937774369267 0.005908037210580204 2.403831599232336e-05 0.0002053552485011303 0.0005687917879997619 0.9951162951878092 0.004879413210676435 4.685190137103279e-07 1.73188599905641e-06 2.091196501541139e-06 0.002853601295680547 0.9971462581659658 2.346946308006123e-08 4.068489218714895e-08 7.638399857841713e-08 0.0001747305454669908 0.0001778538643692372 0.9996474155901635 3.190950620375425e-17 1.213941311616172e-16 0.0006296408312359829 0.0006774318676053437 0.9986929259484922 1.097340153201451e-10 1.242932505908305e-09 0.002671814665321172 0.003450756032908926 0.9938698564921383 1.015673681123688e-06 6.557135950502197e-06 0.003934729372974271 0.004358224927674817 0.9917070046055243 1.589152055650689e-08 2.520230587586472e-08 0.006033846387347293 0.006903457050322836 0.9870623077740963 1.277153319210944e-07 2.610729014609191e-07 0.009732786177173745 0.9902529204167583 7.631076643792123e-07 3.39837484106264e-06 1.013192356262908e-05 0.9151381585473763 0.03117132761891445 0.004268161704719952 0.01400955596839658 0.0354127961605928 0.9740248065032627 0.01470746075579484 0.000861788815872149 0.007126421513357437 0.00327952241171296 0.004639886532726668 0.9950825976111137 1.358855177495865e-05 7.700338517580288e-05 0.0001869239192088887 0.001375556272332772 0.9986234440239999 1.187887903815948e-07 2.193378103449896e-07 6.615770664459511e-07 0.002957967222016758 0.9887543935652422 0.00057701497491854 0.001627429641866792 0.006083194595955892 0.003517495856368352 0.9941752365284995 0.0001587119240729661 0.0007386731722549076 0.001409882518804391 0.006828629539191549 0.9930475085323331 3.375247779397284e-06 3.352959610399673e-05 8.695708459193011e-05 0.006891989697260009 0.9930968953716985 8.002422104518425e-07 3.244596135102731e-06 7.070092695884442e-06 0.009584917582354368 0.9902671661742026 1.332712220629984e-05 6.147238789936707e-05 7.311673333748115e-05 0.4157777083098977 0.04165256781852487 0.006576776144791692 0.1547355591375963 0.3812573885891894 0.6756577155229336 0.01482787153861876 0.02591238271927173 0.1359694682165752 0.1476325620026007 0.4635333651651821 0.03488548998631644 0.05638719298983638 0.1479777128305408 0.2972162390281241 0.296217058222583 0.0284229657829865 0.008232221508610185 0.4075132208392286 0.2596145336465916 0.3570485709662395 0.01740617841781813 0.03559683643448237 0.295098849685761 0.294849564495699 0.446148236628913 0.04029770766794155 0.07936831427494154 0.1825461935643486 0.2516395478638553 0.945650243298003 0.01391897730172369 0.0001099143987841453 0.00823471308708543 0.03208615191440363 0.8075619828292896 0.02176476641972534 0.004635190842133364 0.0178259951278749 0.1482120647809768 0.817467292781352 0.02945860831992446 0.0154023075351678 0.04142733069668221 0.09624446066687375 0.7103340685872866 0.02986476038513461 0.03645222996810454 0.01428771072694262 0.2090612303325316 0.9921119502452062 0.007888049164115004 6.069409885539604e-11 1.845801765451681e-10 3.454044572408522e-10 0.9873745214247647 0.01262545406199377 2.646877625919375e-09 8.60813196341955e-09 1.325823203799845e-08 0.9897809307854488 0.01021668955902715 1.958964679527447e-07 4.153518371433922e-08 2.142223872374079e-06 0.9856047273030641 0.0142679085508525 1.996037445725475e-06 3.310608798695015e-05 9.226202065078003e-05 0.9878788055535596 0.01211969118851885 2.002201554602813e-07 8.354648609479858e-07 4.675729053343315e-07 0.9861238597158214 0.01387613904017184 4.876345051692331e-11 3.292788293317774e-10 8.65964250786578e-10 0.9869576968306534 0.01304230305297393 5.261934882291372e-12 3.69834396847014e-11 7.412744470151299e-11 0.9876514487520723 0.01234855121669415 1.395693206111604e-12 1.124654836551113e-11 1.859128285172198e-11 0.9909691813782632 0.009030818318416204 2.934726829007549e-11 9.730298639120506e-11 1.766703410449215e-10 0.9911251269374365 0.008874873058643592 2.941706009725645e-14 9.75712657504872e-13 2.914767385218756e-12 0.01073781472720886 0.9892621852498196 8.265289333111887e-13 6.313132572375369e-12 1.583191217527021e-11 0.01259760782848887 0.9874023364281292 6.594302344056742e-09 1.603858962603054e-08 3.311048970745821e-08 0.01133345931023009 0.9886664148150642 1.487189286258868e-09 5.567862700718589e-08 6.870888932838617e-08 0.01133851843010073 0.9886614764140965 4.103990927577191e-10 1.976482838844174e-09 2.768920991522734e-09 0.01730013054443241 0.9826998694406562 1.686416772831216e-13 6.190428569341523e-13 1.412369593182593e-11 0.01868404130855105 0.9813159586871329 3.303946166454555e-13 8.235601890336761e-13 3.16217695825056e-12 0.02997212759548027 0.9700278723405175 1.856899489919782e-11 8.104240362560429e-13 4.462277717615009e-11 0.9789929764375397 0.02100702287944249 3.592004860261825e-11 8.775646346816329e-11 5.593414180604989e-10 0.9909777051103491 0.009022294741444621 6.575946878332238e-13 8.115798558018823e-11 6.639073650346356e-11 0.008412331599128804 0.9915876682623549 2.48410132609894e-12 7.698585347950518e-11 5.904647233242509e-11 0.00612713513195306 0.006596631540795567 0.9872762288978094 1.964014076084286e-09 2.465427871687429e-09 0.007651494076453926 0.008492825149468135 0.9838555400949591 1.174094329270747e-07 2.326968583588421e-08 0.007515591600065631 0.008109151028399196 0.9843752533506696 1.657988099071869e-09 2.362877464006758e-09 0.01007776258588197 0.01037589384600283 0.9795463435658416 8.301900179496508e-13 1.44328437413982e-12 0.01127082741118299 0.0115854568450389 0.9771437157423453 9.553097643523892e-13 4.776233633783989e-13 0.01917786442709004 0.9808221353913745 7.343409192454952e-12 2.056787891198152e-11 1.536242378468383e-10 0.9872195793445093 0.01278042022816102 3.295201942961905e-11 4.520137965648782e-12 3.898574414224959e-10 0.9935597405700146 0.006439209631112432 7.14920528980232e-08 2.399686881392614e-07 7.383381318759704e-07 0.005456346715946948 0.9945427447821509 3.527400695598005e-08 3.017963988105741e-07 5.714314963601773e-07 0.001313688746552513 0.001416580371047168 0.9972697303826551 2.311054730376128e-10 2.686398254957329e-10 0.002162701963134763 0.002495420346904641 0.995341275580355 2.687204182093686e-08 5.752375638845214e-07 0.004487825394638943 0.00566888088498172 0.9898368987071579 3.005971791389855e-06 3.389041429990245e-06 0.007609654692651112 0.008486669636893146 0.983903573562632 6.487447294506135e-08 3.723335083811386e-08 0.01494418899462628 0.01804075904962155 0.9670079399178234 9.056055196640259e-07 6.206432409011388e-06 0.02371522087807416 0.976155020051298 8.748614193737615e-06 9.017556394056929e-05 3.083489249333778e-05 0.9016125595754803 0.06516251032978526 0.002619574861447166 0.0002153740059161009 0.03038998122737112 0.9922865984792902 0.007285840183103308 5.878447879598764e-06 0.0001089892780153088 0.0003126936117114017 0.002842381425064642 0.9971565396754851 3.25739549365252e-08 1.967007995562565e-07 8.496246955980325e-07 0.000486462476895366 0.0005148337936055373 0.9989987036894518 1.530444462857248e-11 2.474293798214567e-11 0.0005648213274850278 0.0006081902741112664 0.9988269866069451 6.102788547777813e-10 1.181179744751785e-09 0.002573968438573228 0.003409794865144244 0.9939634586759909 1.010010415957131e-05 4.267791613188152e-05 0.005566059577827237 0.006586991648475726 0.9878421799561878 1.729961498815117e-06 3.038856010412611e-06 0.008286744617649822 0.01029528281244234 0.9813927637256077 5.415474924967703e-06 1.979336937514958e-05 0.01881419910045628 0.9707036215585945 0.001105258930840816 0.002340696147750573 0.007036224262357667 0.505159461952241 0.09209369561721857 0.03883837350984057 0.3314163422404374 0.03249212668026245 0.9945002519275011 0.005499567669236393 4.188339783407396e-09 3.922397298434834e-08 1.369909498689682e-07 0.004414183607813787 0.9955856513666907 1.317860004064931e-08 1.811303717327073e-08 1.33733858482706e-07 0.002747826280949652 0.003323732459736866 0.9939282308762656 1.394066456275971e-07 7.097640214906323e-08 0.00316335625550538 0.004068916796595578 0.9927400820175749 4.718084003055103e-06 2.292684632112322e-05 0.003842746760291531 0.004822927939327463 0.9913311612745248 7.915677272840191e-07 2.3724581287179e-06 0.006188572725983018 0.006843843461633447 0.9869675407318504 7.56589359018291e-09 3.551463940578474e-08 0.008276178718532527 0.009280575901246119 0.9824432004462087 1.384975085882339e-08 3.108426180286361e-08 0.01796994905913287 0.9819874958970861 2.738127669864045e-06 8.136362668105384e-06 3.168055344312277e-05 0.9511117622697746 0.03812989679870032 0.0003263949931618299 0.004861087678059498 0.005570858260303799 0.9925959569562167 0.007404037553746751 2.487076020830174e-10 3.592343286897418e-09 1.648985555637806e-09 0.005802926494898246 0.9941970722782272 1.465266977484584e-10 5.408114770119281e-10 5.395363706106332e-10 0.004348321029538087 0.004868161884680966 0.9907834901913876 3.953729185640575e-09 2.29406641847576e-08 0.003828629780969465 0.004276678575379144 0.9918944746280426 3.567507789906461e-08 1.81340530922782e-07 0.003914442809411743 0.004257497977149774 0.9918280512841494 2.385004431280828e-09 5.544284428027361e-09 0.005785145862794366 0.005994106975198791 0.9882207471469694 1.652343815336214e-12 1.338525835980171e-11 0.00782588115417839 0.008150740010600878 0.9840233788227202 1.244383467470069e-11 5.672738036262977e-14 0.01378258103381855 0.9862174167247276 5.284715878266691e-10 2.031273798440795e-10 1.509854929264394e-09 0.9857268860184303 0.01427285989929216 2.208606023891216e-08 2.599898028799517e-08 2.059972370660875e-07 0.9946981250731216 0.005301871851802629 4.388504485234142e-10 1.330919991911911e-10 2.503133311574457e-09 0.007327239972375246 0.9926724329255494 2.965706009796622e-09 5.576275474804878e-08 2.683736145879717e-07 0.004894877840292253 0.9951022302053393 2.437507352608635e-07 3.284766435031583e-07 2.319726989709488e-06 0.004269137138181108 0.9957253511178126 5.205990299585374e-07 4.142434063684752e-08 4.949720635843427e-06 0.005242691430679175 0.9947564987324393 8.608480927785305e-08 1.397115243384995e-07 5.840405480233579e-07 0.006312933283869327 0.9936870662075403 2.979706821842427e-11 9.373486233589594e-11 3.850584145156668e-10 0.007868305713079131 0.9921316937776581 3.432099995372137e-11 4.421315994420073e-11 4.30728538632338e-10 0.008443887252791755 0.9915561122353821 3.282901801529209e-11 1.574516143930717e-10 3.215453992086751e-10 0.9892257963945061 0.01077385096804501 1.833752249958282e-08 9.50749746999313e-08 2.392249515806808e-07 0.9976895466997727 0.002310447417252034 1.237369892668795e-10 1.455227672366071e-09 4.304010522900536e-09 0.9942768878580621 0.00571363552098407 2.334577131005957e-07 2.665587400170162e-06 6.577575840586391e-06 0.9941828952700483 0.005437320368552719 1.26892431959773e-05 3.350310947081329e-05 0.0003335920087320374 0.9908478481299929 0.005631988029924441 0.0001768925460267537 0.0009676178133740868 0.002375653480681984 0.9950830619143526 0.004842593258842859 5.938433907636543e-06 2.144196599499562e-05 4.696442690199159e-05 0.9946405319540239 0.005359375266746664 1.360872348087177e-08 3.429437262849391e-08 4.487613315456258e-08 0.9952359714163576 0.004764022265685472 5.664525906934404e-11 1.469726449612123e-09 4.791585242726754e-09 0.9930368084429682 0.006963109546696902 5.538549895692222e-09 4.9424794236128e-09 7.152930569320358e-08 0.9962883462703559 0.003711631468573808 1.675118024699219e-09 1.373903104676554e-08 6.846921308245991e-09 0.9953815867507714 0.004618413248817286 4.819980366754147e-14 1.744645071080526e-14 3.45878379178998e-13 0.9926985184995886 0.007301481458092462 2.500323633967967e-12 4.794358991354193e-12 3.502436570506337e-11 0.9934781307545115 0.006521866273049085 2.442272025826857e-10 9.161467095119358e-10 1.812065208305509e-09 0.9920273358004904 0.007972376292113951 2.866777988374636e-08 5.767591432266513e-08 2.015637012664915e-07 0.9909135605411317 0.009086431571960936 1.664807635461166e-10 4.574273717239913e-09 3.146152773068635e-09 0.9905593729930966 0.009440627002774891 5.506818121414603e-13 1.803772956113331e-12 1.773909579503627e-12 0.9924557178834518 0.007544282116500047 2.750827965770379e-15 1.63083176322033e-14 2.9247653459334e-14 0.994007206230574 0.005992793769422406 1.269073349864379e-16 1.449180813196749e-15 1.9704365980607e-15 0.9969928079850565 0.003007192014941547 5.080849626769578e-17 9.443777757677106e-17 1.771608665822533e-15 0.9904374657629337 0.009562534236634687 3.450488094529723e-14 9.132337705668646e-14 3.056792426885121e-13 0.01173370378862192 0.9882662962080782 7.676709034197202e-13 1.473802209395029e-12 1.058603976720187e-12 0.009649200021523724 0.9903507995178874 2.891624999106472e-11 2.629896104477137e-11 4.053735365643999e-10 0.01307524524276265 0.9869246820846682 7.52762932069648e-09 4.247278968482626e-08 2.267215015798638e-08 0.01275803457739461 0.98724196440665 8.263330400713689e-11 3.156612522886492e-10 6.17660770386316e-10 0.0167053181292036 0.9832946818689805 4.193492126319111e-14 6.061055108827946e-13 1.16780323656208e-12 0.01289009665149168 0.9871099033484989 8.678622245079048e-16 1.125488778237199e-15 7.295847377088012e-15 0.01944668667125677 0.9805533133283681 3.611774824347381e-14 9.331675594859918e-14 2.455744041143587e-13 0.9931268496802219 0.006873150319773345 5.436139626401276e-16 1.009162279003004e-15 3.267563934720114e-15 0.9900673004020378 0.009932699548122053 2.814929966839433e-12 1.384662590577945e-11 3.31787264819282e-11 0.01369842840431027 0.9863015702547885 2.13402027988479e-10 5.022181956525085e-10 6.252809662584875e-10 0.008938614489093688 0.9910613773990329 1.13201411133644e-09 2.127133337413534e-09 4.852726135926775e-09 0.00679074652605374 0.9932092389382523 4.068359599789014e-10 2.612803564434106e-09 1.151605436999387e-08 0.009263398459524277 0.9907365971935513 2.676770644097145e-10 1.102709635166746e-09 2.976537729246774e-09 0.01053629763291965 0.9894637023658963 6.792177317668792e-14 2.135806261053717e-13 9.025896036759429e-13 0.01982694255593139 0.9801730573679108 7.967178686746323e-14 2.368535899826906e-11 5.239278462960893e-11 0.02487652167021866 0.9751234781421289 3.775420412351258e-11 7.933133782212907e-11 7.056699640548553e-11 0.9872001596162721 0.01279984035306927 4.175041248397585e-12 1.452011569357246e-11 1.196366316950522e-11 0.9896430336922593 0.01035603861125264 2.02529872648855e-07 3.751696228410438e-07 3.49996992459949e-07 0.007577876402817791 0.9924204609643807 1.068535597918445e-07 1.118050511097918e-06 4.377287305091425e-07 0.004835814716617584 0.9951557761539996 1.539752622132767e-07 1.526647733593339e-06 6.728506387003123e-06 0.004601792945546175 0.9953387376238523 4.361102734056743e-06 5.317303836760635e-05 1.9352894999066e-06 0.005897432766503368 0.9940898868701625 1.035364779557657e-06 1.94345823155855e-07 1.14506527314047e-05 0.01088692228189921 0.9891126846113354 4.590209402185411e-08 2.121363683545415e-07 1.350683031006031e-07 0.01395244039926525 0.9860472312494751 4.522546455927426e-08 1.20928957551659e-07 1.621968376632278e-07 0.02353552945823166 0.9764341910791974 2.553065337639538e-06 1.030956031392927e-05 1.741683691949502e-05 0.955986538084145 0.0416764618935177 0.001002610364114109 0.0008429336978540053 0.0004914559603693532 0.9906116019227691 0.009298092147896489 4.308607646451571e-06 2.175277502437216e-05 6.424454666356399e-05 0.00590964208833887 0.994012592093758 4.3679163251361e-06 4.026730495876511e-05 3.313059661917828e-05 0.003750676006097147 0.9958175852587695 4.140087560301292e-05 3.806672244183391e-05 0.0003522711370885457 0.003183868885034647 0.9957301007568308 0.0001533735822641584 0.0005480893987072124 0.0003845673771630956 0.004315601117189301 0.995219323776971 3.057227174104694e-05 0.000218028917312851 0.0002164739167859322 0.00778292166971228 0.9922017710317971 1.230127359234563e-06 2.762968237556626e-06 1.131420289371099e-05 0.009801376571498294 0.9901895806181908 4.568812140240465e-07 7.345770826785709e-06 1.240158270158159e-06 0.01621399461626259 0.9832306254025956 0.000117257050234983 7.961246013548129e-05 0.0003585104707712724 0.8062926250549943 0.04915812096812799 0.01508255839243919 0.004430233083614829 0.1250364625008236 0.9896894316859932 0.01030993309275195 8.402535504986812e-08 3.94246557019103e-07 1.569493428310298e-07 0.007501477022396744 0.99249771196223 1.125066857690975e-07 4.470283639834367e-07 2.514803234044054e-07 0.004933187660621808 0.9950618255860793 3.051104998723837e-07 1.736969839758354e-06 2.944672959343234e-06 0.004804779544368243 0.9951775244012564 7.066489874986129e-06 1.11743040018037e-06 9.51213410011325e-06 0.006016979082381739 0.9939740521990732 7.653638448422113e-07 4.427412009086842e-07 7.760613499068305e-06 0.00685659144359498 0.99314340435252 2.869684204338011e-10 9.451103001348209e-10 2.971806155701567e-09 0.01119384120697171 0.9888061201486276 9.05949318610172e-10 9.914125815087261e-09 2.782432555319878e-08 0.0185151530638283 0.9814802172049936 2.311206111116762e-07 5.570198298393595e-07 3.841590737252331e-06 0.95190193491866 0.04254103345479791 0.0001054299872189727 0.001446955510509725 0.004004646128813226 0.9944659476747013 0.005534052292135438 3.128140131821021e-12 1.329743875678836e-11 1.67375579680857e-11 0.007010599769064645 0.9929893996325772 8.733195411934451e-11 4.387592279797091e-10 7.226725698392921e-11 0.004970250778083621 0.9950297374243481 3.827942603869049e-10 1.818566591111426e-09 9.596207463534458e-09 0.005745141942485423 0.9942541214268577 8.379427612375016e-10 2.100587853493326e-07 5.257339287523547e-07 0.006988849780694622 0.9930110871759255 5.117596916279371e-09 1.941951856655989e-08 3.850626448322518e-08 0.007802290583580672 0.9921977093931232 6.204091611701973e-13 9.275150522011003e-12 1.340052184278768e-11 0.008679984177062252 0.9913200158178529 2.554822551537015e-13 1.011172249229109e-12 3.818175861029993e-12 0.01180516986678803 0.9881948300946668 6.590661783681508e-12 8.234737193020896e-12 2.371972096079189e-11 0.9925242752238093 0.00747572466282924 5.494800006910261e-12 9.394772367978752e-11 1.391892496176262e-11 0.9978074654640363 0.002192534535919935 6.208735603936147e-15 9.710182333870449e-15 2.774437463025763e-14 0.003921832634612051 0.9960781673450225 3.655757199632888e-12 1.57466500025057e-11 9.631032320735468e-13 0.004212291595518028 0.9957876748097575 2.613814861143697e-09 2.901278712662869e-09 2.80796309079086e-08 0.003603988334219105 0.9963959180676631 5.09779834340102e-09 7.972023649924216e-09 8.052829575369434e-08 0.004005075754871529 0.9959949228652171 1.025214393492207e-10 1.113823455728711e-09 1.635664428002044e-10 0.004053673977206259 0.9959463260222855 2.260387686029059e-14 6.651145242276193e-15 4.790276981377972e-13 0.004601089512373908 0.99539891048753 1.101468078021371e-14 3.581047257964137e-14 4.918998518891279e-14 0.005725741906037127 0.9942742580934248 4.07833113453174e-14 2.818968875833784e-13 2.150704532514995e-13 0.9974644594416213 0.002535540558311986 3.296834406713786e-16 2.499311266255361e-14 4.132379800784468e-14 0.9992160315046146 0.0007839684953819458 5.811499056355068e-16 5.65694636540884e-16 2.412948448568681e-15 0.9987242066681423 0.00127579333098191 4.467567922172334e-14 4.191240939921395e-13 4.119233528956427e-13 0.9984067944974548 0.001593203005435299 5.437563855203647e-11 8.95832858461034e-11 2.353150854500964e-09 0.9981104715624605 0.00188944914779314 9.719197907990486e-09 3.393889288512413e-08 3.563165540968917e-08 0.998107085071564 0.00189291370120021 1.23329698722911e-10 7.957952094290049e-10 3.081110115628324e-10 0.9980074635399315 0.001992536459665515 5.512349965339949e-14 1.847530342329316e-13 1.630835681219197e-13 0.9983369344966588 0.001663065503331188 5.404362958844993e-16 4.071762247893068e-15 5.456951134511341e-15 0.9982302144753075 0.001769785524678132 1.72764523364644e-15 6.133525656822445e-15 6.355643526344084e-15 0.9990978685592432 0.0009021314407530131 2.69076460512125e-16 6.305360610479234e-16 3.034978692508424e-15 0.9977738148612411 0.002226185130928734 4.588386566112541e-13 9.371149060476203e-13 6.434187085488341e-12 0.9968568080518168 0.003143191807854906 9.308385145285582e-12 2.645232873914423e-11 1.04567789408029e-10 0.9968202571354893 0.003179660313714704 3.189174352147445e-09 2.21731675351631e-08 5.718845410977507e-08 0.9959002417552901 0.004094983383148767 1.791563894647365e-08 1.568398891100579e-06 3.188547030961784e-06 0.9973444104566208 0.002655586682245895 3.808433777428566e-10 1.30190695769764e-09 1.178382845669809e-09 0.9971494205303778 0.002850579468388925 4.475663728554612e-14 1.937225344125543e-13 9.947233959824211e-13 0.9975138490424097 0.002486150957556052 5.308111059585344e-16 1.794033946255602e-15 3.191250456989668e-14 0.9980655687720295 0.001934431227970185 5.295658352632645e-17 5.372510306900221e-16 1.068250934952487e-17 0.9989127203869723 0.001087279613025377 2.054625513449533e-16 6.742267801824843e-17 1.78135584608596e-15 0.9944533179079477 0.005546682051244087 9.315410288489363e-13 1.831875133604325e-13 3.969348893903374e-11 0.9911299747569651 0.008870021292511986 8.073364674950482e-11 5.112278664517485e-11 3.818666583849782e-09 0.9889874748435855 0.01100882936677084 2.926886614551044e-07 3.963069061474181e-07 3.006794076144391e-06 0.9902688269261064 0.009723034549842503 3.574398144482e-07 2.644635950692138e-06 5.136448285984086e-06 0.9908757847410896 0.009124027189579213 1.664330182625167e-08 6.401203611398578e-08 1.074139930584965e-07 0.9937414184990196 0.006258581499586454 2.680575701715521e-14 1.368154997190847e-13 1.23013529057418e-12 0.9948033314835421 0.005196668516431906 1.935330603053461e-15 5.865088390115084e-15 1.817177420348392e-14 0.9942117826511199 0.005788217348844278 1.789053605986511e-15 9.805210203589875e-15 2.436000434902923e-14 0.9970091999736023 0.0029908000263823 1.113291403303621e-15 1.737425546037583e-15 1.253746868630487e-14 0.9909125961659252 0.009087272136388158 2.909204301874239e-09 4.389061549293091e-08 8.489786687569816e-08 0.9922299383598741 0.007770030095805693 2.908593783399444e-09 7.141478549112349e-09 2.149424790749875e-08 0.9896678390354954 0.01028137490425483 5.50615770176576e-06 2.757406652084786e-05 1.770583602730773e-05 0.9781542353198835 0.0183484779784325 0.0002564829380818504 0.0005982221865175202 0.002642581577084533 0.984520598527807 0.01522111855706617 1.693636470764808e-05 9.177607654580805e-05 0.0001495704738734624 0.988822977006503 0.01117701526553422 3.069956078081999e-10 2.015871443404271e-09 5.405095713348216e-09 0.9816571657682247 0.01834273644232157 7.63609030171485e-09 3.062929219554345e-08 5.952407122015038e-08 0.9876545048804778 0.01234549358554057 2.241849256792829e-10 5.114230816342645e-10 7.983737727673472e-10 0.9908489171745957 0.009151066576564677 1.876796514961172e-09 5.971457194401864e-09 8.400585987658325e-09 0.9052997786278932 0.02474352419213944 0.0006834602909132316 0.003798321650141669 0.06547491523891248 0.9792775078574583 0.01436750851839226 0.001072861803343103 0.00177165717316957 0.003510464647636906 0.6037219847638459 0.02546187250961597 0.02342186099232132 0.1426012072958389 0.2047930744383779 0.4698185253404684 0.01327305392277929 0.02621636550798271 0.1108687425026085 0.3798233127261612 0.5445303520147788 0.03080751749831445 0.01398443900985445 0.09228009336544805 0.3183975981116043 0.9498833595997032 0.02734410105331144 0.001160947273123256 0.005113464742190207 0.01649812733167201 0.929632263820709 0.03551070977602885 0.001205507999932436 0.004981545466897637 0.02866997293643215 0.6765787567458366 0.06478118124200236 0.003951107871100606 0.07834802756645402 0.1763409265746066 0.5294834978733426 0.04960807499175676 0.01099223308817046 0.1631438967197682 0.246772297326962 0.6822027354227675 0.01798511228367983 0.02324105835494037 0.1808646697159752 0.09570642422263691 0.660523382889718 0.03325445167079939 0.04638398798823745 0.1797660258224617 0.08007215162878341 0.2181794628652411 0.01759530480106579 0.0007386008718224454 0.1552039829759015 0.6082826484859692 0.264794782730813 0.04164653166458957 0.07427150418294279 0.4781090312946971 0.1411781501269575 0.4820273445511929 0.0515881520133087 0.03463433930830156 0.2528026652802319 0.178947498846965 0.896474145720502 0.02384499009584982 0.02147404519420324 0.0543202058391893 0.003886613150255626 0.4864696283279775 0.03769303344303716 0.005436150661240844 0.06102573557745192 0.4093754519902925 0.6504281798988196 0.05749936758061475 0.02361454452188346 0.02872902254815376 0.2397288854505285 0.3926180734772782 0.03953060600743476 0.08289663447796648 0.05359149050383145 0.4313631955334892 0.9882995525581538 0.009901768848454428 7.739393042800673e-05 0.0004981454315919745 0.001223139231371872 0.9811123420893618 0.01393778481622976 0.0007929739980105376 0.002749132466896036 0.001407766629502059 0.5066663992926174 0.03235684722287006 0.03297225404646027 0.1655420509164363 0.262462448521616 0.5550438564923948 0.02571690910281331 0.01397584839700737 0.05772954193843381 0.3475338440693507 0.8134463411145433 0.0344461898241093 0.01939878559757294 0.1157610520127798 0.01694763145099481 0.9752374320188273 0.01971498389266945 0.0005180372793941588 0.001168457544681832 0.003361089264427371 0.9616117718624325 0.02877819960791733 0.0002662316458991684 0.003289530346252153 0.006054266537498952 0.9554042608491699 0.0333363027151237 0.001946616697034152 0.006273766228698841 0.003039053509973585 0.9791891928145533 0.01446073560727393 0.0003688533192872848 0.0006980357020679914 0.005283182556817666 0.9974657124082393 0.002534287197525343 3.178022542107283e-11 9.982160684569013e-11 2.626335011689835e-10 0.9954959909728481 0.004503920140510953 3.889886336748394e-09 4.280600507416617e-09 8.071615397780644e-08 0.9946773101706209 0.005286083061499803 2.926105987055696e-06 8.614520179800978e-06 2.506614171232517e-05 0.9942810841669604 0.005604321865606909 2.173268276890574e-05 5.535646426972442e-05 3.75048203942031e-05 0.9939765834478456 0.006010079344431147 1.772256911213504e-06 3.165721591321374e-06 8.399229220918454e-06 0.9950028306715905 0.00499716819931372 1.476313644700421e-10 7.576310198045728e-10 2.238333798471022e-10 0.9947442979122221 0.005255701809694092 6.791021012723861e-11 1.679342452122343e-10 4.223930428598832e-11 0.9945463364210276 0.005453663191865975 3.086314811501138e-11 1.097691358543462e-10 2.464740837335819e-10 0.9970713939686033 0.002928605901763078 2.898756701001879e-11 6.426963219754996e-11 3.637623088871097e-11 0.9990911508063183 0.0009088491933035985 1.618981867134969e-14 1.086629242223424e-13 2.534733314651669e-13 0.9984284010179927 0.00157159892607661 5.555351063573557e-12 1.218844093634734e-11 3.818678501984109e-11 0.9980323069185925 0.001967638659565208 1.291427502374129e-08 3.979812000978246e-08 1.709447466604218e-09 0.9981371982542073 0.001861985223265903 1.180440276972322e-08 2.486165803130664e-07 5.561015439194708e-07 0.9980281902427915 0.001971798190818092 1.33924038829532e-09 3.175413189018898e-09 7.05173672708114e-09 0.9980562179762333 0.001943782021399776 2.46661676239727e-13 1.809281224928701e-12 3.109753809631402e-13 0.9980138633405543 0.001986136659048165 5.371033632411963e-14 2.269034191158435e-13 1.169121000999904e-13 0.9979551219019243 0.002044878097432358 5.359653882013569e-14 7.028366902781508e-14 5.195056957447304e-13 0.9989753460962628 0.001024653903595095 2.290855171181689e-14 3.776609135941849e-14 8.130445474150115e-14 0.9997367936212643 0.0002632063787321806 8.639898271324892e-16 2.818017946224939e-16 2.35334644357269e-15 0.9994530608609105 0.0005469391238682136 2.709589596088255e-13 3.317197896414315e-12 1.16332766507331e-11 0.9993716121726295 0.0006283824257650838 6.311540411390159e-10 1.772465584420532e-09 2.997985730985793e-09 0.9992834223990896 0.0007162980140972874 1.358469628845141e-08 9.490138773241422e-08 1.711007291968434e-07 0.9993253122267887 0.0006746848930371493 2.246299907038942e-10 3.696034467654611e-10 2.28594083552433e-09 0.9993262983380715 0.0006737016612839427 2.166835728878548e-14 3.261404734681189e-13 2.967679605729007e-13 0.9993781220820551 0.0006218779179335038 6.84542648536712e-17 4.12672324690029e-15 7.43520249007142e-15 0.9993670632902724 0.0006329367097144696 1.668158461981534e-15 3.123846239314815e-15 8.495497710209881e-15 0.9996657525808985 0.0003342474190888549 2.379539866916203e-17 8.738885947260009e-15 3.93400364398755e-15</probabilities>
		</cpt>
		<cpt id="var_x_evidence" target="true" dynamic="plate">
			<state id="very_low" />
			<state id="low_to_very_low" />
			<state id="low" />
			<state id="fairly_low" />
			<state id="medium" />
			<state id="fairly_high" />
			<state id="high" />
			<state id="high_to_very_high" />
			<state id="very_high" />
			<probabilities>1.369289161369072e-05 0.8435301237596647 0.00207770821320705 0.001193538640437306 0.001070453087250503 0.0006455220332168485 0.0006175343646438103 0.001242291353435501 0.1496091356565305</probabilities>
		</cpt>
		<cpt id="var_y_evidence" target="true" dynamic="plate">
			<state id="very_low" />
			<state id="low_to_very_low" />
			<state id="low" />
			<state id="fairly_low" />
			<state id="medium" />
			<state id="fairly_high" />
			<state id="high" />
			<state id="high_to_very_high" />
			<state id="very_high" />
			<probabilities>1.369289161369072e-05 0.8440588800358242 0.001544738739628011 0.001015681520795741 0.001153212322278305 0.001051493698862316 0.0007315916376457616 0.001152911379605476 0.1492777977737465</probabilities>
		</cpt>
		<cpt id="var_t_evidence" target="true" dynamic="plate">
			<state id="very_low" />
			<state id="low_to_very_low" />
			<state id="low" />
			<state id="fairly_low" />
			<state id="medium" />
			<state id="fairly_high" />
			<state id="high" />
			<state id="high_to_very_high" />
			<state id="very_high" />
			<probabilities>1.369289161369072e-05 0.8409579667350007 0.002393096134331179 0.0006232522754275493 0.000469169626939425 0.001059920093701511 0.001330166613901385 0.002319967064833886 0.1508327685642507</probabilities>
		</cpt>
		<cpt id="pose_variance_symptom" target="true" dynamic="plate">
			<state id="very_large" />
			<state id="large" />
			<state id="medium" />
			<state id="small" />
			<state id="very_small" />
			<parents>var_x_evidence var_y_evidence var_t_evidence</parents>
