<?xml version="1.0" encoding="ISO-8859-1"?>
<!-- This file was created by ACADEMIC version of SMILE -->
<smile version="1.0" id="Unnamed" numsamples="10000" discsamples="10000">
	<nodes>
		<cpt id="lateral_residue" target="true" dynamic="plate">
			<state id="very_low" />
			<state id="low_to_very_low" />
			<state id="low" />
			<state id="fairly_low" />
			<state id="medium" />
			<state id="fairly_high" />
			<state id="high" />
			<state id="high_to_very_high" />
			<state id="very_high" />
			<probabilities>0.07011704466026362 0.002312237499274992 0.004801145092618061 0.1481996988662881 0.6856559916971362 0.04989789605714979 0.01106888596079168 0.005813390566167568 0.02213370960031004</probabilities>
		</cpt>
		<cpt id="lateral_symptom" target="true" dynamic="plate">
			<state id="very_large" />
			<state id="large" />
			<state id="medium" />
			<state id="small" />
			<state id="very_small" />
			<parents>lateral_residue</parents>
			<probabilities>0.9999889776587509 1.102234124802676e-05 4.451313427148995e-24 4.1211902451204e-16 5.601233461626797e-16 0.0001911580749863057 0.9998088419250137 5.296032796354704e-27 4.261132994688724e-19 3.969386329104328e-19 6.624369201186977e-05 6.427437666196736e-05 0.9998694819313261 5.928099648675361e-21 8.106659346004865e-21 5.013274555110163e-06 4.678401367731313e-06 6.291132473651102e-26 0.9999903083240771 5.353428134777643e-17 1.506390742016267e-06 1.370066307716367e-06 3.966627427142133e-24 2.788218608087518e-16 0.99999712354295 1.389601027507085e-05 1.302586374605612e-05 9.907418119786664e-25 0.9999730781259788 2.846841348906399e-17 4.175039616213067e-05 3.997094428762043e-05 0.9999182786595502 2.81090492901366e-19 1.799902252465071e-19 0.0001089090201890124 0.9998910909798109 8.125355827214613e-26 3.193660501133863e-17 1.327550589897142e-16 0.9999643573065713 3.56426934256611e-05 1.323519259440169e-23 2.224949948797473e-15 8.516562819403981e-16</probabilities>
		</cpt>
		<cpt id="longitudinal_residue" target="true" dynamic="plate">
			<state id="very_low" />
			<state id="low_to_very_low" />
			<state id="low" />
			<state id="fairly_low" />
			<state id="medium" />
			<state id="fairly_high" />
			<state id="high" />
			<state id="high_to_very_high" />
			<state id="very_high" />
			<probabilities>0.01609581934079021 0.007201015690039819 0.01841668913547843 0.06967494166612194 0.1654662620040062 0.1998941886209278 0.1450409392858842 0.1381494987632287 0.2400606454935227</probabilities>
		</cpt>
		<cpt id="longitudinal_symptom" target="true" dynamic="plate">
			<state id="very_large" />
			<state id="large" />
			<state id="medium" />
			<state id="small" />
			<state id="very_small" />
			<parents>longitudinal_residue</parents>
			<probabilities>0.9999516480644706 4.83387863331321e-05 1.650307658832376e-12 9.979005355749015e-10 1.214964552172075e-08 0.0001161328157788466 0.9998836975805435 1.470154189206633e-11 1.212444363436226e-07 4.834453977384495e-08 3.895207129395849e-05 3.480039870294228e-05 0.9999262459572784 7.313045054102331e-10 8.414201692519508e-10 1.033121552618478e-05 9.225325507333734e-06 5.561137659996184e-14 0.999980442537908 9.210029033723062e-10 3.581892165548317e-06 3.260417079973527e-06 2.233728409567756e-14 1.225289166200182e-10 0.9999931575682032 6.061226310985333e-06 5.027582125900261e-06 2.995284398368435e-12 0.9999888864817231 2.47068446508675e-08 0.01327436500250445 0.0001351879744606936 0.9799752716241279 0.003697841285957884 0.002917334112949142 0.09860403415239329 0.8018902783924055 3.085310092580069e-06 0.08377914916959034 0.01572345297551852 0.9998391906459647 2.400267242804684e-05 2.708663464365299e-09 3.447338587389819e-05 0.0001023305870699842</probabilities>
		</cpt>
		<cpt id="angular_residue" target="true" dynamic="plate">
			<state id="very_low" />
			<state id="low_to_very_low" />
			<state id="low" />
			<state id="fairly_low" />
			<state id="medium" />
			<state id="fairly_high" />
			<state id="high" />
			<state id="high_to_very_high" />
			<state id="very_high" />
			<probabilities>0.01927879406958885 0.007061980507291316 0.01670374832905058 0.0367700360376409 0.7531376842811699 0.05986620790599034 0.04256178404776304 0.02135765112619561 0.04326211369530956</probabilities>
		</cpt>
		<cpt id="angular_symptom" target="true" dynamic="plate">
			<state id="very_large" />
			<state id="large" />
			<state id="medium" />
			<state id="small" />
			<state id="very_small" />
			<parents>angular_residue</parents>
			<probabilities>0.9999471333968405 5.286660193527304e-05 1.325046909709521e-22 1.141229959987754e-12 8.298735056435276e-14 0.0001411402770594574 0.9998588597229278 9.123804617937029e-23 9.803411068968005e-15 2.919913828104767e-15 5.906529677005183e-05 5.488715421584802e-05 0.999886047548793 1.925431290456445e-13 2.867217896559134e-14 2.395636409188389e-05 2.243230127000294e-05 1.378669089751356e-24 0.9999536113346328 5.227418071454352e-15 1.195216973536151e-06 1.117626080901189e-06 1.227048062459333e-25 3.30806409317234e-16 0.9999976871569453 1.380177380442802e-05 1.29748811689326e-05 5.748157477873506e-25 0.9999732233450253 1.461706571283023e-15 2.89009754547873e-05 2.639589135105426e-05 0.9999447031323362 6.005686505421046e-13 2.574076835106791e-13 6.216554075810981e-05 0.9999378344484727 5.86582880436078e-22 9.441376233971286e-12 1.327773451101467e-12 0.9999804627099922 1.953728999185675e-05 2.482215163116808e-24 1.212881893100699e-14 3.948063222073403e-15</probabilities>
		</cpt>
		<cpt id="curvature_residue" target="true" dynamic="plate">
			<state id="very_low" />
			<state id="low_to_very_low" />
			<state id="low" />
			<state id="fairly_low" />
			<state id="medium" />
			<state id="fairly_high" />
			<state id="high" />
			<state id="high_to_very_high" />
			<state id="very_high" />
			<probabilities>0.02585947160954985 0.02203946710857177 0.04082572915711462 0.09077438689483941 0.6060160700601308 0.08542677682468577 0.04662502797335306 0.03454266133165422 0.04789040904010061</probabilities>
		</cpt>
		<cpt id="curvature_symptom" target="true" dynamic="plate">
			<state id="very_large" />
			<state id="large" />
			<state id="medium" />
			<state id="small" />
			<state id="very_small" />
			<parents>curvature_residue</parents>
			<probabilities>0.9999484425227982 4.242547687699812e-05 1.482955799701893e-10 1.112899835261869e-06 8.018952193911416e-06 3.875706350674026e-05 0.9999610963769064 7.929382300159114e-12 1.300865451893177e-07 1.646511218055989e-08 1.959745794095313e-05 1.901623006609571e-05 0.9999613451102781 3.019297857868334e-08 1.100873632882543e-08 8.648142112792806e-06 8.396206345428563e-06 9.662446109308874e-15 0.9999829513583858 4.293146447165941e-09 1.878440864635572e-06 1.800088240645368e-06 4.471079840149682e-12 5.216389145672232e-08 0.9999962693025322 9.084960805306706e-06 8.823224799730117e-06 3.22994261192939e-14 0.9999820903920285 1.422334107403145e-09 1.765895763997755e-05 1.712046015660557e-05 0.9999651991584363 1.294349694467237e-08 8.48027028244409e-09 2.679684417168746e-05 0.9999731520959066 4.147923788995933e-12 4.890488848304336e-08 2.150885145459555e-09 0.9999768868134234 2.143939047145011e-05 3.472086658565591e-11 1.630484391650102e-09 1.672130900000931e-06</probabilities>
		</cpt>
		<cpt id="control" target="true" dynamic="plate">
			<state id="yes" />
			<state id="no" />
			<state id="warn" />
			<parents>lateral_symptom longitudinal_symptom angular_symptom curvature_symptom</parents>
			<probabilities>0.9990429561584695 0.0009570438415305193 0 0.9985647340204338 0.001435265979566237 0 0.9990569422686443 0.0009430577313557733 0 0.9996039186066168 0.0003960813933831083 0 0.9998720617368834 0.0001279382631165925 0 0.9997702660479001 0.0002297339520998981 0 0.9984549238502997 0.001545076149700356 0 0.9984064826199727 0.001593517380027369 0 0.9987467950068143 0.001253204993185836 0 0.9984835757259122 0.001516424274087727 0 0.9998896020375631 0.0001103979624369523 0 0.9993424947752139 0.0006575052247861226 0 0.9992095719871327 0.000790428012867385 0 0.9991355888461605 0.0008644111538395356 0 0.9987708213320226 0.001229178667977497 0 0.9998187127189975 0.0001812872810025651 0 0.9995853305512692 0.0004146694487308459 0 0.9995437200864778 0.0004562799135219908 0 0.999633190740197 0.000366809259803019 0 0.999653633650694 0.0003463663493060997 0 0.9997836838539326 0.0002163161460674233 0 0.9996752004994357 0.0003247995005643334 0 0.9996530945754273 0.0003469054245727367 0 0.9997659982857889 0.0002340017142110982 0 0.9997458722928636 0.0002541277071362782 0 0.9977931689178045 0.002206831082195583 0 0.996680522188038 0.003319477811962005 0 0.9978172738043439 0.002182726195656066 0 0.9990838354229674 0.0009161645770325367 0 0.9997036842375225 0.0002963157624774499 0 0.9476088881577603 0.05239111184223974 0 0.8662316030911789 0.1337683969088211 0 0.9175733647937666 0.08242663520623328 0 0.9499889662249503 0.05001103377504964 0 0.9907719297810662 0.009228070218933871 0 0.9688028516961078 0.03119714830389213 0 0.9683521528470964 0.03164784715290363 0 0.9496761241031457 0.05032387589685425 0 0.9751454550644483 0.02485454493555184 0 0.9910908160577455 0.008909183942254493 0 0.9769185758956628 0.02308142410433733 0 0.9844767031821484 0.01552329681785148 0 0.9601783941325738 0.03982160586742624 0 0.9826700042784035 0.01732999572159647 0 0.9921722253874802 0.007827774612519798 0 0.9953151507705265 0.004684849229473663 0 0.9885773378276421 0.01142266217235787 0 0.9917561738483386 0.008243826151661367 0 0.9957074497756229 0.004292550224377184 0 0.997542174642403 0.002457825357596924 0 0.9983700271668663 0.001629972833133748 1.268904814428091e-37 0.9975436702371007 0.002456329762899236 4.44480284444439e-36 0.9983852489438109 0.001614751056189148 1.06560855486718e-35 0.999322868094847 0.0006771319051528884 1.212272539103328e-37 0.9997809427642235 0.0002190572357765273 8.143246739121229e-37 0.9625304705937222 0.03746952940627778 2.117768119231925e-22 0.8888086799610884 0.1111913200389116 1.146750273783365e-16 0.9331473556367862 0.06685264436321388 1.116929767380187e-17 0.9592403065104191 0.04075969348958049 4.01190779597338e-16 0.9928121357091363 0.007187864290863745 1.734960675128033e-21 0.9711797940890934 0.02882020591090656 3.75287747213968e-19 0.9664690239675097 0.03353097603249023 8.992878058490325e-20 0.9574840734499622 0.0425159265500337 4.036835535728268e-15 0.9775848862295508 0.02241511377044891 3.387552818803925e-16 0.9922576377669098 0.00774236223308864 1.647290601495978e-15 0.9761079909408644 0.0238920090591356 4.385249813829347e-17 0.9866538461536423 0.01334615384635764 2.487856690245168e-21 0.9725160620301219 0.02748393796985345 2.478449681584613e-14 0.9776438902584849 0.02235610973933022 2.184996753266356e-12 0.992497215119049 0.007502784834560721 4.639039224377861e-11 0.9967186432718903 0.003281356728109746 1.260772943531732e-17 0.9882699293151274 0.01173006954407448 1.140798160564386e-09 0.9888945408082376 0.01110533983820176 1.193535607392325e-07 0.9941135169712781 0.005886446512660203 3.651606158338351e-08 0.9969226418040066 0.003013848065673212 6.351013032015264e-05 0.9990527624918421 0.0009472375081579853 0 0.9985660787008289 0.001433921299171106 0 0.999057283174847 0.0009427168251529014 0 0.9996066310395491 0.0003933689604507904 0 0.9998724139119473 0.0001275860880526129 0 0.9712809301404955 0.02871906985950429 0 0.8290636198522211 0.1709363801477788 0 0.9115882670743595 0.08841173292564039 0 0.9241005305547147 0.07589946944528517 0 0.9932557194833124 0.006744280516687637 0 0.9640716773690748 0.03592832263092519 0 0.9695521992458528 0.03044780075414719 0 0.9066529066460832 0.09334709335391662 0 0.8505913223598026 0.1494086776401973 0 0.9438548142300824 0.05614518576991749 0 0.9848624454367043 0.01513755456329564 0 0.9906817928703403 0.009318207129659643 0 0.9379401956074801 0.06205980439251979 0 0.8222269722301632 0.1777730277698367 0 0.1678578633399317 0.8321421366600683 0 0.9966411043974445 0.003358895602555569 0 0.929120673143892 0.07087932685610789 0 0.8925264117688007 0.1074735882311993 0 0.5594815466585976 0.4405184533414024 0 0.1764236872968898 0.8235763127031102 0 0.9983320705351661 0.001667929464833904 0 0.9974539319627168 0.00254606803728311 0 0.9983238942940177 0.001676105705982277 0 0.9993070831160767 0.0006929168839232532 0 0.9997738822802507 0.0002261177197492703 0 0.8091664096522085 0.1908335903477915 0 0.1101844012813714 0.8898155987186285 0 0.08723714717207634 0.9127628528279237 0 0.03724599501923968 0.9627540049807605 0 0.1835775767552502 0.8164224232447499 0 0.528393465145179 0.4716065348548208 0 0.6783249432768192 0.3216750567231808 0 0.09412153268504007 0.9058784673149598 0 0.01496886831453764 0.9850311316854623 0 0.01287513576314852 0.9871248642368515 0 0.7042362948278822 0.2957637051721178 0 0.9718650164518813 0.02813498354811879 0 0.2392496217051367 0.7607503782948634 0 0.1955117022708856 0.8044882977291142 0 0.02380419024391363 0.9761958097560864 0 0.8297060411369096 0.1702939588630903 0 0.5321371257739488 0.4678628742260512 0 0.5567515864174418 0.4432484135825582 0 0.41673759360964 0.58326240639036 0 0.09425987082904004 0.9057401291709599 0 0.9946456249284431 0.005354375071556948 0 0.9724176863569193 0.02758231364308081 0 0.9669078206964304 0.03309217930356963 0 0.9893851413494339 0.01061485865056602 0 0.9909881631387172 0.009011836861282849 0 0.9686858609804148 0.03131413901958513 0 0.6640699681503545 0.3359300318496456 0 0.808963088805277 0.1910369111947229 0 0.930615589301828 0.06938441069817208 0 0.9649657086494082 0.03503429135059172 0 0.9610953342701994 0.03890466572980056 0 0.802210116849537 0.197789883150463 0 0.8439610538876871 0.156038946112313 0 0.9534567412750107 0.04654325872498939 0 0.9582322473910152 0.04176775260898478 0 0.9919288862976449 0.008071113702355038 0 0.9785270742874919 0.02147292571250817 0 0.9823459105736955 0.01765408942630442 0 0.9912493282423129 0.008750671757687026 0 0.9803827928117693 0.01961720718823074 0 0.9953985215471968 0.004601478452803145 0 0.994202423174731 0.00579757682526905 0 0.99586067107561 0.00413932892438997 0 0.9978864152516637 0.002113584748336394 0 0.9970013535545903 0.002998646445409715 0 0.9878414600768575 0.01215853992314252 0 0.9383599708777736 0.06164002912222645 0 0.9260747757342372 0.07392522426576274 0 0.9757039518825917 0.02429604811740818 0 0.9787070664583322 0.02129293354166783 0 0.9313244978570968 0.06867550214290315 0 0.56581424316402 0.43418575683598 0 0.8107300664159343 0.1892699335840657 0 0.8516231990888067 0.1483768009111933 0 0.9208724591827125 0.07912754081728751 0 0.9144673398241442 0.08553266017585584 0 0.5441170963301801 0.4558829036698198 0 0.7035536467988517 0.2964463532011484 0 0.8931847531717574 0.1068152468282426 0 0.873224810488951 0.126775189511049 0 0.9726553649024184 0.02734463509758149 0 0.6826983983363035 0.3173016016636966 0 0.6690138819836705 0.3309861180163295 0 0.9407882247691538 0.05921177523084636 0 0.8811219282051904 0.1188780717948096 0 0.9935347657201044 0.006465234279895584 0 0.9703868444651046 0.0296131555348954 0 0.9809547583213747 0.01904524167862532 0 0.9921630003714064 0.007836999628593562 0 0.9900493707325295 0.009950629267470448 0 0.9910254745483201 0.008974525451679838 2.620020633634412e-40 0.9534899028642231 0.0465100971357769 7.06128142058755e-30 0.9437701854680445 0.05622981453195561 1.546758033909128e-26 0.9818799326391006 0.01812006736089945 2.610963088545969e-30 0.9839047840967517 0.01609521590324824 5.720847951332704e-23 0.948444197446524 0.05155580255347601 6.520346264200778e-34 0.7786334378693112 0.2213665621306888 1.635771834496822e-25 0.7099927405853633 0.2900072594146367 1.602150378630025e-21 0.8829611402982268 0.1170388597017731 3.215163398023986e-23 0.9387526241772483 0.06124737582275159 2.282067308369622e-20 0.9428649301933733 0.05713506980662667 9.449203647195887e-29 0.5436479151825949 0.4563520848174051 9.84527284330424e-17 0.7374227052031409 0.262577294796859 8.838783101263297e-18 0.9158446481798657 0.08415535182013445 9.901590679288697e-21 0.8874258581552775 0.1125741418162978 2.842455828808196e-11 0.9796015872811855 0.02039841271881437 6.34594883848059e-33 0.8720238803148915 0.1279761196851085 2.505655504337123e-21 0.8157719574203025 0.1842280425796973 1.230342722488648e-16 0.9479597356384958 0.05204026436150413 7.748013494509441e-21 0.8852751185312364 0.1147248560564924 2.541227117370118e-08 0.9966778806964354 0.003322119303564641 2.768498812721652e-31 0.9728146691325964 0.02718533086740364 2.149178778485232e-18 0.9845882027057851 0.01541179729421494 7.624232885865531e-20 0.9955688879848188 0.004431112015181245 7.448210838824993e-24 0.9915262915693879 0.008473708427197588 3.414529185939346e-12 0.9948279282506745 0.005172071749325646 0 0.9715933900345092 0.02840660996549087 0 0.9640761068555154 0.03592389314448471 0 0.9890267443289106 0.01097325567108936 0 0.9888882411734388 0.01111175882656117 0 0.9690994556358863 0.03090054436411377 0 0.5453484311576136 0.4546515688423863 0 0.7313627465847996 0.2686372534152003 0 0.9277180097893196 0.0722819902106802 0 0.9488489236764325 0.05115107632356748 0 0.964624793759331 0.03537520624066907 0 0.805543834912735 0.1944561650872649 0 0.6875272894179869 0.312472710582013 0 0.9328837319867623 0.0671162680132377 0 0.1837617971374754 0.8162382028625247 0 0.9909422921987339 0.009057707801266081 0 0.969600857514288 0.03039914248571193 0 0.9653826777926859 0.03461732220731403 0 0.9855692867898388 0.01443071321016124 0 0.9102107969237151 0.08978920307628481 0 0.9986639831027913 0.001336016897208668 0 0.9975612137414854 0.002438786258514619 0 0.9988130858865524 0.001186914113447565 0 0.9991256569044954 0.0008743430955045266 0 0.9978565462631486 0.002143453736851382 0 0.9911564563321456 0.00884354366785451 0 0.9483491896209313 0.05165081037906875 0 0.9278474702310608 0.072152529768939 0 0.9793007542920007 0.02069924570799936 0 0.9680385460343828 0.03196145396561734 0 0.9595973325766061 0.04040266742339386 0 0.7125195981651279 0.2874804018348721 0 0.4927918309663273 0.5072081690336726 0 0.7866727414544599 0.2133272585455402 0 0.5471559148936428 0.4528440851063572 0 0.9595814936543213 0.04041850634567875 0 0.8285689725613976 0.1714310274386023 0 0.2917618316698876 0.7082381683301123 0 0.7068060818898527 0.2931939181101473 0 0.04023983417926799 0.9597601658207321 0 0.9831823107803983 0.0168176892196018 0 0.9134646660647047 0.08653533393529532 0 0.969232844508495 0.03076715549150488 0 0.9749826335655142 0.02501736643448586 0 0.4563520877869064 0.5436479122130935 0 0.9986187651750427 0.001381234824957309 0 0.9983791567620226 0.001620843237977499 0 0.9991542488520548 0.0008457511479451789 0 0.9994476525298932 0.0005523474701067342 0 0.9986031413930501 0.001396858606949832 0 0.995285788412038 0.004714211587962089 0 0.9803937086418136 0.01960629135818636 0 0.9851164343174972 0.0148835656825029 0 0.994672294729761 0.005327705270238877 0 0.9934845138679178 0.006515486132082154 0 0.9742796450670568 0.02572035493294325 0 0.934352360133708 0.06564763986629188 0 0.9662343637014786 0.03376563629852139 0 0.9826468884808414 0.01735311151915863 0 0.9920373611290147 0.007962638870985193 0 0.9707648381434802 0.0292351618565197 0 0.8990936732898874 0.1009063267101126 0 0.9779334838793591 0.02206651612064096 0 0.9809135325878571 0.01908646741214295 0 0.987454990508282 0.01254500949171806 0 0.986614685600514 0.01338531439948603 9.037306900312953e-17 0.9726094515217624 0.02739054847801066 2.268330513383821e-13 0.9869557733211832 0.01304422667881099 5.687445604552069e-15 0.8716101032509732 0.009150298208814861 0.1192395985402117 0.3126030021358531 0.006415404076531581 0.6809815937876152 0.9957946679135875 0.004205332086412377 7.916142352460011e-24 0.9944997349848754 0.00550026501512452 3.892996402691623e-23 0.9970360453146638 0.002963954685336227 8.493880158338703e-26 0.9985373860923985 0.001462613907094204 5.073803537174175e-13 0.7619429833275816 0.001616546765140927 0.2364404699072775 0.9892946207068239 0.01070537929317612 0 0.9557459521617452 0.04425404783825484 0 0.9660901191708589 0.03390988082914115 0 0.9877897829880276 0.01221021701197253 0 0.9843501537166829 0.01564984628331713 0 0.9391967656500532 0.06080323434994681 0 0.8934362548132665 0.1065637451867335 0 0.9336112900382678 0.06638870996173216 0 0.9662457249575018 0.03375427504249827 0 0.9811937014549164 0.01880629854508371 0 0.931179740075179 0.06882025992482092 0 0.8573212644278906 0.1426787355721095 0 0.9508547574279632 0.04914524257203691 0 0.9572150843599968 0.04278491564000316 0 0.9694667312204371 0.03053326877956274 0 0.9567278721272006 0.04327212787267586 1.235847493158456e-13 0.802500155555511 0.1974868645194793 1.297992500966217e-05 0.9489762018398435 0.05102379810115571 5.900066006836569e-11 0.1057131616834921 0.02072203071595454 0.8735648076005534 0.04712806709742102 0.01493574143245824 0.9379361914701208 0.9936676302091482 0.006332369790851859 9.961642435696945e-26 0.9857870670478384 0.0142129329521617 9.482308493832815e-22 0.9928977106045602 0.007102289395439705 8.115164275592688e-24 0.9970187620214388 0.002981237978171366 3.898230278331301e-13 0.979080182233283 0.003376182870090705 0.01754363489662636 0.9921173589074791 0.007882641092520886 1.424951192507628e-37 0.9669158644385373 0.03308413556146279 1.876646451875959e-28 0.9746190947401694 0.02538090525983056 1.449415762911554e-27 0.9909701510573153 0.009029848942684557 1.254086173221366e-30 0.9881219195369823 0.01187808046301768 1.868902785529569e-22 0.9707098772782882 0.02929012272171182 8.384337830052727e-35 0.8915670292646757 0.1084329707353242 9.701862186172032e-27 0.9575924846561999 0.04240751534380006 1.198537450401057e-30 0.9751109475307247 0.02488905246927533 3.053850341458166e-29 0.9865958963105168 0.01340410368948318 5.831739337532522e-26 0.9380505903945802 0.06194940960541971 2.482841110580244e-25 0.8265451927135739 0.1734548072864262 3.017923108041925e-20 0.9631173610546507 0.03688263894534929 3.712394399542112e-26 0.9678549630530204 0.03214503694697943 2.217349705198337e-23 0.9763108986885947 0.02368910131140526 1.197816798342295e-17 0.9605559659775352 0.03944403401973775 2.726996211102258e-12 0.8006909839015169 0.1950907579064403 0.004218258192042751 0.9546376100155977 0.04536238344784214 6.536560061994455e-09 0.1343728673090059 0.01493053860043006 0.8506965940905641 0.07305360746860798 0.01043659937009628 0.9165097931612958 0.9961213116083879 0.003878688391612133 1.633442527320546e-22 0.9923072048954037 0.007692795104596188 1.084019064787336e-18 0.9971623911561396 0.00283760884386043 2.396726813190663e-22 0.99819486174182 0.00180513825789005 2.900425243987107e-13 0.9979487957133889 0.001723837355066125 0.0003273669315448959 0.9954278499762524 0.004572150023747562 0 0.9796375662188095 0.02036243378119046 0 0.9842445107717638 0.01575548922823631 0 0.9945663794048317 0.005433620595168218 0 0.9909811606677399 0.009018839332260198 0 0.9748129571461028 0.02518704285389711 0 0.9502816485474267 0.04971835145257335 0 0.9719836547006813 0.02801634529931878 0 0.9822981155012402 0.01770188449875978 0 0.9908172653478656 0.009182734652134405 0 0.9735136988788919 0.02648630112110814 0 0.8333108898919797 0.1666891101080204 0 0.9801102261414332 0.01988977385856692 0 0.9801289862426711 0.01987101375732891 0 0.9756803535689322 0.02431964643106775 0 0.9862143144802925 0.01378568551970718 4.181422808682996e-16 0.9804413889520024 0.01955861104799704 7.623001560244274e-16 0.9884168354448266 0.01158316455517283 6.566757961508471e-16 0.004927372793588304 0.005369056643418023 0.9897035705629937 0.004627598053464743 0.006296870186346818 0.9890755317601886 0.9990827809357344 0.0009172190642655656 3.54355702677631e-34 0.9991260140744274 0.0008739859255725498 5.442054988487678e-35 0.9995699467257596 0.000430053274240333 2.320216949491042e-36 0.0002642954228787735 0.0002737283415387435 0.9994619762355825 0.0003269913722151901 0.0003830369094700608 0.9992899717183148 0.992040648587745 0.007959351412255079 0 0.9610540925695498 0.03894590743045033 0 0.9688086570921217 0.03119134290787836 0 0.9897566969583406 0.01024330304165941 0 0.9376016674724893 0.06239833252751067 0 0.9662170572996041 0.03378294270039607 0 0.9350695471122072 0.06493045288779277 0 0.9384154478341261 0.06158455216587393 0 0.9632466481517317 0.03675335184826819 0 0.9793832849114618 0.02061671508853832 0 0.9737046222294813 0.02629537777051869 0 0.6981946656840464 0.3018053343159536 0 0.9613831296976918 0.03861687030230828 0 0.9480020154290197 0.05199798457098019 0 0.05333385702330404 0.9466661429766958 0 0.9858212021105248 0.01417879788947517 3.344535944033316e-19 0.9723549018122238 0.02764509818777607 2.758858447258358e-17 0.9889634815121877 0.01103651848781232 4.108547900256594e-20 0.005082485525068559 0.005981664481252845 0.9889358499936786 0.005797550991581239 0.01428905504212612 0.9799133939662926 0.9992489751398688 0.0007510248601312553 1.776093879413321e-37 0.999501483344152 0.000498516655847939 1.054240435029814e-40 0.9997546797551472 0.0002453202448528661 2.737801994904443e-44 0.0001532696655432104 0.00015889041285079 0.999687839921606 0.0002320982855041867 0.0002844544760710999 0.9994834472384246 0.996517606544798 0.003482393455201907 0 0.9928475851497991 0.007152414850200858 0 0.9965011679288688 0.003498832071131264 0 0.9985178400046637 0.001482159995336376 0 0.999097126130744 0.0009028738692559715 0 0.9883194215533292 0.01168057844667086 0 0.9849412410222517 0.01505875897774824 0 0.9916631571390762 0.008336842860923789 0 0.9962999681292168 0.003700031870783101 0 0.9983530914081448 0.001646908591855191 0 0.1409898401335609 0.006279144686738486 0.8527310151797006 0.6145909648672856 0.008102867015155838 0.3773061681175585 0.379542247899547 0.00534567412378393 0.615112077976669 0.001982189640753848 0.001787334656677492 0.9962304757025687 0.0006904526307935699 0.0006107047862385978 0.9986988425829679 0.104639672443279 0.8953603275567209 0 0.5098638031169228 0.4901361968830771 0 0.1174192637215327 0.8825791311712261 1.605107241080342e-06 0.05456067611479649 0.9454393238852035 0 0.01288067413291533 0.9871193258670847 0 0.1737296574027077 0.8262703425972924 0 0.3901957515939868 0.6098042484060131 0 0.4106235466192608 0.5893764533807392 9.113224010016414e-24 0.2889079683579288 0.7110920316420712 0 0.04418617992669871 0.9558138200733013 0 0.9917659667309873 0.008234033269012744 0 0.9828709520168326 0.01712904798316734 0 0.9917683549422076 0.008231645057792343 0 0.9964482978088223 0.003551702191177768 0 0.9976989980262986 0.00230100197370141 0 0.9763382335420028 0.02366176645799731 0 0.9687058456308151 0.03129415436918488 0 0.9818990839711669 0.01810091602883327 0 0.9913506708496513 0.008649329150348696 0 0.9959493534546181 0.004050646545381839 0 0.04273112523336994 0.01442020076949734 0.9428486739971329 0.4282583854207912 0.01941173774582858 0.5523298768333803 0.5245724031337722 0.01228460650451139 0.4631429903617165 0.004223874607061332 0.004096635802172489 0.9916794895907661 0.001453383085830264 0.00140193564883058 0.9971446812653392 0.05458047138962535 0.9454195286103747 0 0.04829404395833482 0.9517059560416651 0 0.02514231164431632 0.9748423804972592 1.530785842453177e-05 0.0242948324024167 0.9757051675975832 0 0.007458127162617849 0.992541872837382 0 0.8057012770376207 0.1942987229623793 0 0.9960992052201453 0.003900794779854703 0 0.9981805379067518 0.001819462093248234 2.00316325160462e-27 0.9943768238063251 0.00562317619367501 0 0.2685114855208762 0.7314885144791237 0 0.9938157290921183 0.006184270907881744 3.257243164808691e-23 0.9869854592887831 0.01301454071121691 1.612219021323066e-19 0.9938303095942274 0.006169690405772638 3.142760374173617e-22 0.9973243675903164 0.002675632409683523 1.76685916176062e-23 0.9982303866175104 0.001769613382489548 9.652133692958005e-18 0.9837854872620651 0.01621451273793503 1.036487617550742e-22 0.9739815458710219 0.02601845412897811 4.546547904963159e-21 0.9853131377174953 0.01468686228250472 5.077045308245064e-22 0.9934012391464032 0.006598760853596819 1.782538234911716e-22 0.9969687022559753 0.003031297744024719 7.812895271592651e-20 0.02634789769827092 0.01012604224772692 0.9635260600540021 0.08610751277773769 0.01324428481093183 0.9006482024113305 0.2775837514594765 0.008560554403272202 0.7138556941372513 0.008737895059193602 0.002912631686397868 0.9883494732544085 0.002975790084541023 0.0009919300281803411 0.9960322798872786 0.0561902454925849 0.943809754507415 1.096039249665359e-22 0.1714104925705957 0.8285895074294043 3.841573503986127e-23 0.03268748878459871 0.9670315172729567 0.0002809939424447325 0.001173889434728425 0.9820746309340508 0.01675147963122084 0.0004154397434809793 0.9910801020176929 0.008504458238826031 0.9989295780673756 0.001070421932624405 4.095127778419593e-25 0.999522359066378 0.0004776409336219816 7.04845015239664e-28 0.9997391738450762 0.0002608261549238403 1.441580931836355e-25 0.0001197932144972294 0.0001729980332805121 0.9997072087522222 0.0001144181806089875 0.3103765103712285 0.6895090714481624 0.9956308907702397 0.004369109229760185 0 0.9891603034035927 0.01083969659640724 0 0.9954493500659868 0.004550649934013239 0 0.9980949387631479 0.001905061236852219 0 0.9981206034463124 0.001879396553687758 0 0.986475335844458 0.01352466415554182 0 0.9822184228940086 0.01778157710599143 0 0.989550154785786 0.01044984521421403 0 0.9954290495952891 0.004570950404710941 0 0.9972894470818552 0.002710552918144843 0 0.3459134467695519 0.008745295324306424 0.6453412579061415 0.456173636317561 0.01139935161835551 0.5324270120640836 0.3360248918578815 0.00732249937945403 0.6566526087626644 0.001663112734740816 0.002110538273980569 0.9962263489912785 0.0005757312300610777 0.0007697932151501168 0.9986544755547888 0.3033503055286195 0.6966496944713804 0 0.6714404777282924 0.3285595222717075 0 0.001701300067857412 0.6209666568470209 0.3773320430851216 0.0005272941469472087 0.9994727058530527 0 0.0001961872740999213 0.9998038127259001 0 0.9995603841644614 0.0004396158355385192 0 0.9998212407877159 0.0001787592122840223 0 7.117443496548014e-05 8.95101777984344e-05 0.9998393153872361 3.527952736789596e-05 0.9999647204726322 0 2.734996441939224e-05 0.9999726500355807 0 0.9859724344474352 0.01402756555256476 0 0.6861951570623599 0.3138048429376401 0 0.9739839688661351 0.02601603113386472 0 0.9935169218180639 0.006483078181935943 0 0.05677769602643644 0.9432223039735635 0 0.9705799537525348 0.0294200462474651 0 0.9382200445690867 0.06177995543091327 0 0.9664606260659135 0.03353937393408642 0 0.9850377330832881 0.01496226691671193 0 0.5249705690266206 0.4750294309733793 0 0.8367102295369638 0.04892495202192201 0.1143648184411142 0.7882235356495025 0.1026836157786771 0.1090928485718203 0.1372559882097187 0.2892987818479695 0.5734452299423117 0.002784163523413332 0.007461270434008865 0.9897545660425777 0.0009594306381640502 0.006606605407533913 0.9924339639543019 0.2906986263669245 0.7093013736330754 0 0.5721602089779367 0.4278397910220632 0 0.002093580682181087 0.4030543783682655 0.5948520409495534 0.0006434950396587662 0.9993565049603412 0 0.0002531260721357154 0.9997468739278643 0 0.999543502843334 0.00045649715666601 0 0.9998297804510966 0.0001702195489033781 0 6.749237568081196e-05 8.229781101047337e-05 0.9998502098133087 3.523326770132895e-05 0.9999647667322986 0 2.907031991942188e-05 0.9999709296800806 0 0.9981931257917033 0.00180687420829669 0 0.9956215634952953 0.004378436504704777 0 0.9971099395787725 0.002890060421227586 0 0.9983701726522646 0.001629827347735432 0 0.9993787744858434 0.0006212255141566461 0 0.9930199759413995 0.006980024058600469 0 0.9904345298644719 0.009565470135528069 0 0.9941400047841504 0.005859995215849679 0 0.9975802172932358 0.002419782706764229 0 0.9996726688733144 0.000327331126685702 0 0.1350318161641338 0.002937363438827291 0.8620308203970389 0.6962395749316095 0.003664492054434425 0.300095933013956 0.7939970509115343 0.002434690000087248 0.2035682590883784 0.0009083425748401656 0.0007744431688166335 0.9983172142563432 0.0001668528634741544 0.0001504208885707151 0.9996827262479551 0.06122731834424092 0.938772681655759 0 0.8590431004996831 0.1409568995003168 0 0.02468025429660813 0.9680522633932706 0.00726748231012142 0.009692193532684483 0.9903078064673155 0 0.001349694594197373 0.9986503054058027 0 0.2154905848421526 0.7845094151578473 0 0.3203482192953123 0.6796517807046877 0 0.3427515481389176 0.6572484518610825 1.139170382809921e-19 0.1982677471912379 0.8017322528087621 0 0.0356486806294516 0.9643513193705485 0 0.9955185302340499 0.004481469765950064 0 0.9878614170479376 0.01213858295206229 0 0.9920139680710817 0.007986031928918461 0 0.9953098647240678 0.004690135275932145 0 0.9980195339369236 0.001980466063076387 0 0.9825210910013609 0.01747890899863922 0 0.9754336894677399 0.02456631053226007 0 0.9844036442699959 0.01559635573000405 0 0.9938244435163202 0.006175556483679822 0 0.9991972642174016 0.00080273578259834 0 0.05560094949894794 0.006829509205612375 0.9375695412954398 0.6874198785316831 0.009244842838105873 0.303335278630211 0.13394344078601 0.005764187663980951 0.860292371550009 0.001816139443264873 0.001735780972273353 0.9964480795844617 0.0003547037091701863 0.0003440323373748555 0.999301263953455 0.035437622161292 0.9645623778387079 0 0.1549180763135137 0.8450819236864863 0 0.01082079745170807 0.9432334757328106 0.04594572681548134 0.006297893423300183 0.9937021065766998 0 0.000607927685788636 0.9993920723142115 0 0.6786752708025702 0.3213247291974298 0 0.9931005235174721 0.006899476482527786 0 0.9971569629048851 0.002843037095115059 2.973905751879157e-21 0.94538221868948 0.05461778131052005 0 0.3117742723123444 0.6882257276876556 0 0.9965664253849129 0.003433574615087037 4.785101421399923e-21 0.9900800409033846 0.009919959096567644 4.764899468485854e-14 0.9935082733875124 0.006491726612314635 1.731165951013233e-13 0.9960970242542846 0.00390297574564814 6.727795646088637e-14 0.9982355987633583 0.001764401020958044 2.156837345284072e-10 0.9893760831458718 0.01062391685412832 6.700800152956744e-18 0.9789298774625352 0.02107012253746359 1.04482992332638e-15 0.9878523331173077 0.01214766688269134 1.077544353352109e-15 0.9951886798038931 0.004811320196106784 2.191280743406799e-17 0.999392069314895 0.0006079306851049749 6.754384829519424e-24 0.1286681359116812 0.004680558491305436 0.8666513055970134 0.0571264955133067 0.006133987856068048 0.9367395166306253 0.04022568208943925 0.003958449117895147 0.9558158687926657 0.003628115184118505 0.001209371728039502 0.995162513087842 0.001714978493988048 0.0002449969277125783 0.9980400245782993 0.1004702596065101 0.8995297403934899 5.407392689025141e-21 0.1012592922206379 0.8987407077793621 4.369174987760644e-21 0.01981821598544488 0.707246547100652 0.272935236913903 0.0005023879952254725 0.9943288115373812 0.005168800467393445 0.0001456039796822309 0.9974578299507058 0.002396566069611913 0.9990901314968399 0.0009098685031600109 2.038192580698259e-20 0.9997127631761665 0.0002872368238334166 5.226293238599273e-24 0.9998404302207408 0.0001595697792591834 1.85402475857391e-21 7.230549528758783e-05 0.0001124064705323693 0.9998152880341801 2.989303256652978e-05 0.06015523766446208 0.9398148693029713 0.9968604087579865 0.003139591242013593 0 0.869949314964896 0.130050685035104 0 0.3787285979417351 0.6212714020582648 0 0.6258004289051872 0.3741995710948129 0 0.006625064506826278 0.9933749354931738 0 0.9925308045531813 0.007469195446818781 0 0.9244736854001451 0.07552631459985494 0 0.9728605058262341 0.02713949417376588 0 0.9934216035127594 0.00657839648724049 0 0.9995431043369211 0.0004568956630789909 0 0.09648469460259297 0.005967234615705403 0.8975480707817016 0.2107388573514407 0.007784041071149877 0.7814771015774095 0.1030458075442755 0.005064549375698322 0.8918896430800263 0.0007076653247186335 0.001029404796828284 0.9982629298784531 0.0001427206569440745 0.000182188015826453 0.9996750913272295 0.1050738514358638 0.8949261485641362 0 0.1516179601913105 0.8483820398086894 0 0.0006635174369718039 0.8298361357469792 0.1695003468160489 0.0002294118925788347 0.9997705881074211 0 6.815262572967973e-05 0.9999318473742704 0 0.9975856175833655 0.002414382416634395 0 0.9998780730539417 0.0001219269460583217 0 4.546708283787721e-05 6.45586822580454e-05 0.999889974234904 2.022506223949383e-05 0.9999797749377606 0 6.597660689191576e-06 0.9999934023393108 0 0.4388270087807378 0.5611729912192623 0 0.006226264086003738 0.9937737359139963 0 0.004047177810265764 0.9959528221897341 0 0.001791359748288588 0.9982086402517114 0 0.0004448794763310599 0.9995551205236688 0 0.7446759347738591 0.2553240652261409 0 0.04142329066759673 0.9585767093324032 0 0.06823205927535846 0.9317679407246414 0 0.08599470667443027 0.9140052933255697 0 0.9975286373384847 0.002471362661515302 0 0.1436497217600883 0.8310295525731086 0.02532072566680304 0.01459811903052258 0.9613762347622232 0.02402564620725434 0.0479694306053973 0.9365490961732422 0.01548147322136043 0.001186903634744664 0.01403672422102323 0.9847763721442322 0.0002389798928376592 0.0007060389219642166 0.9990549811851981 0.09670644492627339 0.9032935550737267 0 0.1254187076438076 0.8745812923561923 0 0.00075790103873734 0.8686735794710247 0.1305685194902379 0.0002822518578276569 0.9997177481421724 0 8.512939604653631e-05 0.9999148706039535 0 0.9219934881705648 0.07800651182943526 0 0.9997759472187063 0.0002240527812938002 0 5.553954240619334e-05 9.460809062376809e-05 0.9998498523669699 2.275677962400706e-05 0.999977243220376 0 8.160234400797464e-06 0.9999918397655992 0</probabilities>
		</cpt>
	</nodes>
	<dynamic numslices="11">
		<cpt id="lateral_symptom" order="1">
			<parents>lateral_symptom</parents>
			<probabilities>0.9999987970985061 1.202901493806427e-06 7.235520563768042e-47 5.509601942857598e-46 5.519820638474883e-46 0.9998643049339602 0.0001356950660397871 6.170479769526517e-29 1.558677163890286e-29 8.525488456513266e-28 0.999764256530959 0.0002357434690411202 2.454631887579068e-23 3.365719791936055e-22 1.066313589789254e-22 0.9996520629235817 0.0003475234549742119 3.506247781926916e-09 2.30043677616112e-07 1.800715186998804e-07 0.9983598738943007 0.001505619226561951 1.223246052592207e-06 9.971672387613067e-05 3.356690920868726e-05 0.0001406278272443984 0.9998593721727556 2.859171133308653e-37 5.335526288202884e-36 7.311079811866697e-36 0.0001099398149715949 0.9998900601850285 3.192123330772617e-52 3.182264333214811e-50 1.949319879320064e-50 0.0001863607300576712 0.9998136392699424 2.599841512462634e-45 6.411784855492093e-45 1.827905886658759e-44 0.0003660699327208245 0.9996339300672792 1.131563326056988e-27 1.405949222268109e-26 7.688769486809427e-26 0.0008520875291076096 0.9991479124703103 1.608751949257883e-13 3.112357143146679e-13 1.099845523970765e-13 0.0003316209109137228 0.0003300232062110871 0.999338355882875 6.636874070898288e-26 1.242714080685403e-25 0.0001799229627817107 0.000179915284830171 0.999640161752388 5.001547159006972e-44 2.510809973271644e-42 5.5709820972538e-05 5.570941710568343e-05 0.9998885807619219 3.208992202811315e-47 1.507893473809801e-47 5.970772292920044e-05 5.958737225268354e-05 0.9998807049048182 1.868043829683825e-33 2.441093944414392e-32 0.000185668377346238 0.0001791228392683893 0.9996352087833854 9.843042404316297e-18 1.394660466917129e-17 0.001277178493770564 0.00084991171257446 2.164211588851758e-05 0.9976893741548559 0.0001618935229105679 0.0004108126890554173 0.0004095773414316174 1.766416600543212e-17 0.9991796099695129 1.337934088947197e-17 6.182706803999325e-05 6.181172142353253e-05 3.529458461682476e-27 0.9998763612105365 7.303990261600785e-27 6.826146150189084e-07 6.82128399047666e-07 6.256740314618761e-43 0.999998635256986 2.680148425401916e-41 3.525134586073627e-06 3.451177999673644e-06 4.454144612062301e-22 0.9999930236874143 4.581810768036723e-22 5.55820387666625e-05 4.984672626033481e-05 1.095800425605759e-10 3.586360465156332e-10 0.999894570766757 7.426290232368756e-05 7.40761840489018e-05 5.715383913545714e-20 4.394612886355736e-19 0.9998516609136275 2.351825775832102e-05 2.350798832583176e-05 6.70898635143618e-25 8.155307733769558e-24 0.9999529737539158 1.966236921088936e-06 1.947742417142623e-06 9.846198792940347e-27 3.523551675951031e-25 0.9999960860206618 1.272817522189937e-07 1.268273735485608e-07 4.573424373356723e-34 6.365705190942713e-34 0.9999997458908741 0.0001001178640107333 9.862091070811094e-05 1.878481342093248e-20 0.9998012612252812 3.25229215221581e-21 7.373105492720283e-05 7.371765525517667e-05 1.96229663256774e-34 0.9998525512898176 2.183409747382822e-34 2.146568130870397e-05 2.146505818187834e-05 2.22736380704809e-40 0.9999570692605093 5.079052218730025e-40 2.61027044254709e-06 2.607877174278887e-06 3.798820879471385e-41 0.9999947818523831 1.232929479472202e-38 7.284937432333066e-06 7.177880556796563e-06 2.379443370738502e-23 0.9999855371820108 4.278433711562069e-24 0.0001499437960741868 0.0001491909029998027 0.9997008653009261 1.237422235428597e-26 3.415507611147946e-26 5.448332506428742e-05 5.448170191498859e-05 0.9998910349730208 1.103184115913566e-45 8.395076913156219e-46 2.192186160159903e-05 2.192171742689646e-05 0.9999561564209715 3.6961504002178e-49 2.173517280514464e-49 3.320110998360509e-05 3.31153678187091e-05 0.9999336835221978 4.452347905465717e-32 4.553886115313762e-32 4.493428339895448e-05 4.403580897738408e-05 0.9999110299076237 1.362399009872795e-21 1.592642199722848e-21 8.973225605302777e-05 0.999910267743947 2.695729724681302e-34 1.863422582183089e-33 3.7225003238344e-33 4.794340641363107e-05 0.9999520565935862 8.255629433341171e-51 6.529486229640352e-50 6.017942662619423e-50 7.918556188453434e-05 0.9999208144381155 1.753578172311418e-45 2.817140495597133e-44 1.587190280894955e-44 9.226828767494011e-05 0.9999077317123249 1.334716209747012e-30 7.345878034551372e-29 6.378475415508844e-29 7.973348251255227e-05 0.9999202665174874 1.791866454484663e-21 8.382268907144124e-22 3.303029681762367e-21 0.9999957670209151 4.232979085021923e-06 9.977071830590209e-46 4.011805425493239e-45 9.512721026135811e-45 0.999891287157306 0.000108712842693962 6.811660735022706e-37 1.360213284327814e-36 6.429752620417479e-37 0.9998477584898934 0.0001522415101067197 4.496504378913303e-33 1.046736963915728e-31 7.400851707554596e-32 0.9998854036085145 0.0001145963914855618 4.177821993063704e-21 1.507228729793188e-19 2.088131985023029e-19 0.9998800621625281 0.0001199378222595875 3.412871352947995e-12 1.082932300817375e-11 9.701633731408588e-13</probabilities>
		</cpt>
		<cpt id="longitudinal_symptom" order="1">
			<parents>longitudinal_symptom</parents>
			<probabilities>0.9999875556819855 1.243947316579727e-05 1.87833063481985e-12 2.002697328179126e-09 2.840273020855981e-09 0.9959594719164908 0.0005611762912600495 2.612455639071795e-06 0.001885333405288405 0.001591405931321514 0.9759709404758677 0.003223313791037932 1.538530104310043e-05 0.01341333077516419 0.007377029656887135 0.7610926138372496 0.01247896450117504 4.17591609631281e-05 0.1032915727947186 0.1230950897058938 0.7575071646765612 0.03163362770938747 7.199338031366946e-05 0.1416422481582145 0.06914496607552308 0.003918712982113551 0.9911332257352297 1.358395721809024e-06 0.002332507844328025 0.002614195042606902 9.19875451183921e-05 0.9999054642559788 1.747495527728712e-09 8.121400757256983e-07 1.734311331499092e-06 7.535450022860928e-05 0.9999246348855227 3.179389092877301e-11 4.886914906427548e-09 5.695539902905105e-09 0.004773627157018873 0.9911150028895205 3.804371309462627e-07 0.002726737537994389 0.001384251978335408 0.0954284819710554 0.8263690461622732 1.25305564376223e-05 0.04082825752032297 0.03736168378991084 0.153603975651824 0.02978758746085826 0.2690813681666717 0.2075674823372959 0.3399595863833502 0.0002102010454926989 0.0002604231390882375 0.9983613352065106 0.0006490691069918466 0.0005189715019164866 2.487236436479317e-05 2.439115088988909e-05 0.9999507364488666 3.569050997124206e-11 1.88155401812046e-13 3.156910815841358e-05 2.519565056412199e-05 0.9999391385044573 1.911044522411779e-06 2.185692297895753e-06 0.001157291199163372 0.0003715794722398812 0.9970710016392049 0.0003568055216489627 0.001043322167742952 0.4389686154772452 0.04658753738593718 8.340847753093412e-05 0.3616168611479375 0.1527435775113492 0.1083726946879005 0.006517529845021332 2.092768095807882e-05 0.797724577397276 0.08736427038884401 1.884050358707131e-05 1.746814042288832e-05 9.090582813513383e-09 0.9999624908724982 1.191392909021995e-06 6.099671933215167e-06 5.591198317751023e-06 2.427330947556436e-10 0.999987746196437 5.626905789017119e-07 9.71973211114938e-06 7.504208572454367e-06 7.213497175320508e-11 0.999982534894629 2.410925524791337e-07 0.450714422567777 0.03259053387288692 9.252840906699564e-05 0.1072831856791203 0.4093193294711487 0.2114694814652109 0.006966861454303833 0.0001110671342410976 0.1032897028093385 0.6781628871369056 5.555737010658896e-05 2.995203757016223e-05 3.833065305501263e-07 2.180508525790933e-05 0.9998923022005349 3.57714871748246e-06 2.82078386372978e-06 1.052874956846275e-09 8.66857321281e-08 0.9999935143288117 3.662784820307921e-06 2.742780429881627e-06 2.20554237266553e-11 1.604340577842241e-07 0.9999934339786365 0.4561295815917784 0.01656834800246418 5.407714879451051e-05 0.3567607856804967 0.1704872075764664 0.003618559853517716 0.000701143560777448 5.547774645310039e-06 0.9924822709537192 0.003192477857340211 3.532890890545152e-06 3.427823864391219e-06 7.706386705012281e-13 0.999993037811936 1.47253834110174e-09 2.152220274506909e-06 1.777771396820769e-06 1.061566918463085e-11 0.99999602779176 4.220595309441613e-08 7.128500686359023e-06 4.665771635862601e-06 1.175867250019137e-10 0.999987472682676 7.329274150560526e-07 0.1939871884528402 0.05391984469512874 0.3582794323773108 0.0339360373744993 0.3598774971002208 6.443885611806625e-06 4.827205848881628e-06 0.9999870943314881 7.710695317942818e-07 8.635075192410266e-07 2.165644545831141e-06 2.13671680390332e-06 0.9999956976377108 5.009760762600795e-13 4.38612848708624e-13 8.689397365677549e-06 5.857710490786892e-06 0.9999640055479933 8.090459257195018e-06 1.335688489306972e-05 0.02129484503139221 0.0004363101830378114 0.9618144595205409 0.01075696718379287 0.005697418081236205 0.0002154709237564045 0.9996505957060108 1.041341264038555e-08 7.633856438872598e-05 5.758439243153723e-05 2.799251933879131e-06 0.999997200300066 8.193162246077264e-14 1.28571846224676e-10 3.193463273128008e-10 3.510097554867011e-06 0.9999964898711203 1.964722982906998e-13 8.890902262589569e-12 2.223734975677868e-11 0.001250592968921891 0.9956685715960996 3.488021009789314e-07 0.001068477323672549 0.002012009309204941 0.09870876340824405 0.8811587478141308 2.9251490372027e-05 0.01608367756172289 0.00401955972553012 0.9999991652447164 8.34437982299147e-07 9.85978436827223e-14 1.641444111271151e-10 1.530580949260908e-10 0.9999952660462342 4.306757020698487e-06 6.987083040581296e-10 3.119276658586518e-07 1.145703710944746e-07 0.9996853167186029 1.827161150625226e-05 1.441354156121169e-06 0.0001604323205556895 0.0001345379951790859 0.9530151682893745 0.01045652790360263 1.817853698069271e-05 0.01705202455770428 0.01945810071233798 0.8749762773294995 0.01383167748677325 1.753390158093844e-05 0.06024954713440924 0.05092496414773709</probabilities>
		</cpt>
		<cpt id="angular_symptom" order="1">
			<parents>angular_symptom</parents>
			<probabilities>0.9999945260865238 5.473913476046388e-06 8.979976533256823e-53 1.601465818038717e-47 2.670649137585228e-44 0.9999037916233613 9.620837663850642e-05 5.958584933238174e-39 2.331349757859765e-33 8.385173431132413e-30 0.9999131270446264 8.687295537345051e-05 3.538817071491536e-40 1.485538474643601e-30 6.197296065835962e-30 0.9999411664964861 5.883350351391389e-05 2.48699575368105e-33 1.509296345243483e-28 2.156898879013136e-27 0.99994394786403 5.605213596945217e-05 2.05434346773278e-23 1.037660354413732e-16 3.956309734088863e-16 5.173649888488958e-05 0.999948263501115 8.249774664920543e-44 1.450119951790176e-38 3.714496591016183e-36 2.784584093870704e-05 0.9999721541590613 3.979437101076205e-53 2.139180992239209e-46 7.042252468741537e-44 9.577241149616598e-05 0.9999042275885038 2.123579372551869e-45 8.651068635592444e-36 7.849056281742013e-35 9.215468511397758e-05 0.9999078453148861 4.168718899571284e-35 1.387214716311032e-30 1.193913451687166e-31 9.532211499232658e-05 0.9999046778850077 7.580232016973188e-25 5.026675013746538e-19 2.076287691569478e-18 6.749571135920485e-05 6.749666386732584e-05 0.9998650076247734 5.726984186243351e-32 9.105416966009603e-29 6.505309012494524e-05 6.505346400581805e-05 0.9998698934458692 1.056597255348347e-35 2.848121590762439e-33 8.563037746555275e-06 8.56331496481081e-06 0.9999828736472887 1.713877923771177e-46 6.095322176171e-45 2.884233821899078e-05 2.884516032354807e-05 0.9999423125014575 3.689106282056983e-33 1.090824170624297e-32 4.164367243869637e-05 4.168894844024995e-05 0.9999166673791211 1.030754322499893e-19 3.244180490512394e-18 8.581579171598751e-05 8.581918236661657e-05 4.55127587386968e-31 0.9998283650259174 7.104810128248525e-23 7.451346229312679e-05 7.4514542288924e-05 1.334255234062134e-36 0.9998509719954179 1.829016891139201e-27 2.514662687618397e-05 2.515189076710509e-05 5.762018873302569e-44 0.9999497014823566 2.535710143123394e-33 4.637598780719642e-06 4.637759345230521e-06 4.07200182539133e-45 0.9999907246418741 1.101548231142136e-39 5.961248373644974e-06 5.963286510583504e-06 4.063526238852243e-34 0.9999880754651157 9.780490898167176e-26 4.102142327766215e-05 4.103736221221998e-05 3.440405743135495e-19 4.802049927110305e-14 0.9999179412144622 6.640559174476049e-05 6.642322930160804e-05 4.918436736882651e-22 1.235063216706963e-13 0.9998671711788302 2.512698030852881e-05 2.523510975404263e-05 2.253574879880211e-26 1.987158902639826e-18 0.9999496379099375 2.562736042937662e-06 2.563742189561392e-06 2.68516001098374e-31 2.244361260657811e-26 0.9999948735217675 1.145576614174258e-07 1.145730694545549e-07 1.747383453368443e-40 1.529013120452974e-35 0.9999997708692689 7.596046708985319e-05 7.596479278978774e-05 4.337622390572279e-29 0.9998480747401204 1.150137282549163e-20 7.421147486294207e-05 7.421321916143973e-05 1.312642770766521e-33 0.9998515753059755 9.280598632790671e-25 1.831406868436072e-05 1.831861455187354e-05 5.957553371904206e-43 0.9999633673167636 2.880279678627252e-33 2.270054591173316e-06 2.270117224866756e-06 4.338977739018114e-46 0.9999954598281839 1.749721953000416e-41 4.914108222390079e-06 4.916363898612793e-06 3.237353454502285e-31 0.9999901695278789 2.211339763306873e-24 7.95372712577535e-05 7.954064357167558e-05 0.9998409220851706 2.770167750726486e-25 1.755142226240168e-23 6.196681593292434e-05 6.196768054955844e-05 0.9998760655035175 2.811516835662951e-31 5.404518155654066e-28 2.312060332459993e-06 2.312111827826462e-06 0.9999953758278397 9.587244271427903e-51 2.620134046241581e-48 2.524984660332827e-05 2.525536108482107e-05 0.9999494947923118 1.426497070595564e-28 1.168843279469985e-28 3.15413938997145e-05 3.160774323454219e-05 0.9999368508628504 3.206636556038543e-16 1.503840185073943e-14 8.499481206801416e-05 0.999915005187932 3.453993215939326e-34 5.540871929732905e-29 5.626791159882299e-26 4.635660681890299e-06 0.9999953643393181 4.151049434418711e-58 3.690753012549262e-51 2.825574883879117e-49 8.365772755485543e-05 0.9999163422724452 1.377297593006586e-39 1.765370031978884e-30 1.070065916278592e-28 9.774794352093155e-05 0.9999022520564792 5.408676896865356e-29 5.235596635925598e-24 2.546118837142129e-23 5.307481588242888e-05 0.9999469251841162 2.087870461244115e-22 8.556851587594687e-17 1.442024490735352e-15 0.9999978922999816 2.107700018441118e-06 2.181234181744688e-54 4.145236941535133e-49 2.043980517358757e-46 0.9999151483669791 8.48516330208432e-05 3.408571333165048e-35 2.662409159249224e-28 7.291235831827014e-26 0.9999083395216476 9.166047835247783e-05 3.376894366288e-35 1.69078924324145e-26 4.379347786295048e-24 0.9999331419086077 6.685809139217635e-05 9.26865715839311e-27 1.016221843747168e-22 7.182762149330452e-23 0.9999391288906558 6.087103753334864e-05 3.290797111970521e-18 1.877768769010036e-12 6.993320869684624e-11</probabilities>
		</cpt>
		<cpt id="curvature_symptom" order="1">
			<parents>curvature_symptom</parents>
			<probabilities>0.999988799105899 1.120089410118175e-05 3.957776876466809e-20 5.254197438351689e-19 3.020705887231033e-18 0.9999690101817503 3.098981817162945e-05 4.537052900232947e-16 2.345130616463966e-14 5.429415082304297e-14 0.9999773285469764 2.267145297480419e-05 1.152067771785139e-15 1.664567492192748e-15 4.584757293311064e-14 0.9999816341142018 1.83647678513006e-05 2.864625868435395e-12 9.782268187420061e-10 1.368554355411013e-10 0.9982850051195389 5.11909461273912e-05 4.30274939847024e-06 0.001006337401148223 0.0006531637837870033 3.42230087779156e-05 0.9999657769904043 7.532312530385462e-15 2.807913997559265e-13 5.295789830585134e-13 3.408489177538742e-05 0.9999659151082029 3.942519334602313e-16 1.657846364539096e-14 4.768756443729639e-15 2.075712505110569e-05 0.9999792428749475 6.039265543285319e-17 8.978324668501324e-16 4.536387382369246e-16 1.53756301929838e-05 0.9999846243449581 4.749324775121165e-14 7.85032577231136e-12 1.695095913278953e-11 4.30561898287936e-05 0.9993923861362187 7.57383927775836e-07 0.0001883118033420118 0.0003754884866828891 2.479590159522123e-05 2.434215055819035e-05 0.9999508619218307 1.026785696305187e-11 1.574812226425449e-11 1.971889608006217e-05 1.955214001817921e-05 0.9999607289638591 8.066519119475254e-16 4.189928663545957e-14 1.063356641540443e-05 1.056163099408482e-05 0.9999788048025897 6.822519849973489e-17 8.515652353823967e-16 7.977172222024177e-06 7.814397997230614e-06 0.9999842084253665 8.202982584682587e-13 3.593896320107619e-12 1.952613242042159e-05 1.41288447905822e-05 0.9996628456240225 9.171588852377829e-05 0.0002117835102428114 1.694427271704554e-05 1.647713459850786e-05 4.134680357710445e-13 0.9999665784100883 1.821825996351418e-10 1.415399836825481e-05 1.396373317081212e-05 8.83688271512043e-15 0.9999718822681981 2.540168250359513e-13 7.336817540168901e-06 7.260878557643995e-06 1.363654607862874e-17 0.9999854023039003 1.681155170770179e-15 2.890763431078615e-06 2.843043630188756e-06 1.603873477475869e-17 0.9999942661929313 7.444616223792071e-15 4.101602513939456e-06 3.769352207333184e-06 1.250326400057058e-09 0.9999915756487842 5.52146168090223e-07 1.082688140282671e-05 1.004867308681069e-05 3.45787204937935e-07 1.779314204206508e-05 0.9999609855162634 8.493715400868626e-06 8.036070418069634e-06 1.429914573847092e-08 1.367659631981393e-07 0.999983319149072 4.311532751935475e-06 4.143334611654676e-06 6.873619220053394e-10 8.868914268423311e-09 0.9999915355763603 1.784194567278943e-06 1.663193219050909e-06 3.353350760038414e-10 6.555659670091608e-09 0.9999965457212189 2.028993279914548e-07 1.970249460011073e-07 1.785795400699306e-15 7.649460424942562e-13 0.9999996000749592 1.357668624345552e-05 1.329261513883791e-05 2.044281550545924e-14 0.9999731306966014 1.99591791113771e-12 1.292276525009931e-05 1.277323836814862e-05 2.076052510344817e-16 0.9999743039963601 2.157127623370402e-14 7.131102349745595e-06 7.063530404659036e-06 6.382920945919784e-18 0.999985805367245 6.143625200298979e-16 3.798730863771691e-06 3.721466814770151e-06 1.696294660175926e-17 0.9999924798022631 5.839078330634259e-14 4.007904507028036e-06 3.69927653753341e-06 1.362673659470952e-10 0.9999921220508657 1.706318225017669e-07 1.642348255397e-05 1.619520373602864e-05 0.999967381313559 4.956776241149639e-14 1.015690653502425e-13 1.651901703867254e-05 1.638532457418526e-05 0.9999670956583832 1.222055286854352e-15 2.764276341496863e-15 1.02622133964939e-05 1.018575024172157e-05 0.9999795520363611 2.824591788473447e-16 4.71265168290981e-16 7.181357819782859e-06 7.030785506540549e-06 0.9999857878547956 6.452751213755645e-13 1.232878381333933e-12 1.313901980698578e-05 1.122153447859792e-05 0.9999010826599551 2.146600793455847e-05 5.309077782477952e-05 1.74578756208365e-05 0.9999825421243721 8.736203584061263e-19 5.636618660521633e-15 1.405171591677768e-15 1.093042332067994e-05 0.9999890695766793 2.858072137279097e-21 2.09540555953439e-19 4.957038934419981e-19 1.602710244690428e-05 0.9999839728975473 1.540107478163731e-17 1.41895145174136e-15 4.348011731468263e-15 1.281308031298005e-05 0.9999871867222567 1.312901166477396e-14 9.879109446760498e-12 1.875381486430802e-10 4.338705520139718e-05 0.9985946630658122 6.846290874753643e-07 0.0007985880136475344 0.0005626772362513072 0.9999957403886884 4.259611311508025e-06 5.289608801117303e-23 1.082356572551394e-21 4.03607721364289e-21 0.9999823729904339 1.762700948338713e-05 1.45171999154457e-16 2.653623754258427e-14 5.590868234172251e-14 0.9999834509030823 1.654909596261101e-05 1.555095662204524e-14 2.85982829552896e-13 6.536358566572531e-13 0.9999865490521758 1.344018113616535e-05 4.199425295697374e-11 4.507514869329378e-09 6.217179023597585e-09 0.9856018182008017 8.316489813174814e-05 2.343017916058751e-05 0.001936136276271122 0.01235545044563469</probabilities>
		</cpt>
		<cpt id="control" order="1">
			<parents>control</parents>
			<probabilities>0.9999287285089052 7.12714910947725e-05 0 0.9947238983135791 0.005276101686420954 0 0.9749900857861725 0.02500991421382739 0 0.9998817418807995 0.0001182581192004876 0 0.9782176195607021 0.02178238043929783 0 0.8843342459365024 0.1156657540634976 0 0.9999223430839892 7.76569160108997e-05 0 0.9821620302537254 0.01783796974627461 0 0.9247626588850639 0.07523734111493617 0 0.9999683605396564 3.163946034352934e-05 0 0.991925436033429 0.008074563966570953 0 0.9592156218289197 0.04078437817108031 0 0.9999893541741868 1.064582581324535e-05 0 0.996852562686701 0.003147437313298981 0 0.9877752639373977 0.01222473606260232 0 0.9999742303635264 2.576963647353229e-05 0 0.9594877092501678 0.04051229074983215 0 0.9606265737528585 0.03937342624714144 0 0.9998650563473899 0.0001349436526100309 0 0.8948759973635824 0.1051240026364176 0 0.52136162476047 0.47863837523953 0 0.9998690696726392 0.0001309303273606586 0 0.9288759725703183 0.07112402742968177 0 0.532935102823529 0.4670648971764711 0 0.9998746088093154 0.0001253911906845487 0 0.9633146361822208 0.03668536381777922 0 0.5656071546745302 0.4343928453254698 0 0.999840686420347 0.0001593135796530227 0 0.9890363777678699 0.01096362223213014 0 0.6947405561610581 0.3052594438389418 0 0.9999882344864452 1.176551355470262e-05 0 0.9729429596138421 0.0270570403861578 0 0.5570451982790812 0.4429548017209189 0 0.9999367778737589 6.322212624099766e-05 0 0.9709755259864619 0.02902447401353821 0 0.5442420540890478 0.4557579459109523 0 0.9999263736658593 7.362633414065583e-05 0 0.9788003467506972 0.02119965324930292 0 0.5676574809055532 0.4323425190944468 0 0.9999243380162289 7.566198377114486e-05 0 0.9907485820190639 0.009251417980936025 0 0.6297273298505561 0.3702726701494438 0 0.9998886407546714 0.0001113592453285617 0 0.9952001223802126 0.004799877619787437 0 0.8028739620481949 0.197126037951805 0 0.9999818380413463 1.816195865368331e-05 0 0.9864646292683696 0.01353537073163049 0 0.7368640352309158 0.2631359647690841 0 0.9999554125543753 4.458744562479784e-05 0 0.9672107218679383 0.03278927813206151 0 0.6052286163785764 0.3947713836214236 0 0.999952411332749 4.758866725092681e-05 0 0.9816378152647137 0.01836218473528623 0 0.6540164072513396 0.3459835927486604 0 0.9999631723817136 3.682761828641121e-05 0 0.9933856971286952 0.006614302871304965 0 0.8416413682731189 0.1583586317268811 0 0.9999666028757379 3.339712426216167e-05 0 0.996850427908213 0.003149572091787058 0 0.9053372073464596 0.0946627926535403 0 0.9999754135631984 2.458643680155579e-05 0 0.9970469764072112 0.002953023592788862 0 0.9718945295313367 0.02810547046866329 0 0.999964104493313 3.589550668706634e-05 0 0.9955780572550958 0.004421942744904248 0 0.94927626523611 0.05072373476389008 0 0.9999621684496826 3.783155031745493e-05 0 0.9971596669309573 0.002840333069042785 0 0.940298400839775 0.05970159916022508 0 0.9999695616788248 3.043832117515174e-05 0 0.9987170875129717 0.00128291248702839 0 0.9668444484722072 0.03315555152779274 0 0.9999577590174222 4.224098257779105e-05 0 0.9995832758820994 0.0004167241179006681 0 0.9856496627478485 0.01435033725215155 0 0.9998471326552687 0.0001528673447313552 0 0.9897345711315136 0.0102654288684863 0 0.952399088017557 0.047600911982443 0 0.9997451370637404 0.0002548629362596953 0 0.9410363858831409 0.05896361411685903 0 0.7918107806492941 0.208189219350706 0 0.9998325306545844 0.0001674693454155831 0 0.9398870226732563 0.06011297732674359 0 0.8566125011065665 0.1433874988934335 0 0.9999318063849196 6.819361508027563e-05 0 0.9720491634229825 0.02795083657701749 0 0.917586055703379 0.08241394429662101 0 0.9999770480020277 2.295199797223021e-05 0 0.9857658507828639 0.01423414921713598 0 0.9743620115586002 0.02563798844139981 0 0.9990727424053198 0.0009272575946802215 0 0.8935909257733985 0.1064090742266014 0 0.9217052213031663 0.07829477869683363 0 0.9963274229464463 0.003672577053553644 0 0.5662731740770882 0.4337268259229117 0 0.5126316692625734 0.4873683307374267 0 0.9968630652534978 0.003136934746502192 0 0.6001313980766424 0.3998686019233576 0 0.5195115385812252 0.4804884614187748 0 0.997816424988795 0.002183575011205066 0 0.6825931281631979 0.3174068718368022 0 0.5392056827166758 0.4607943172833242 0 0.9992177895886313 0.000782210411368668 0 0.8564332012933004 0.1435667987066997 0 0.6269318723559179 0.3730681276440823 0 0.9984645123597927 0.00153548764020723 0 0.9056580220443444 0.09434197795565559 0 0.5339402100634394 0.4660597899365607 0 0.9980243054154911 0.001975694584508879 0 0.8961514352521701 0.1038485647478299 0 0.5262765799034659 0.4737234200965341 0 0.997781737003445 0.002218262996554995 0 0.9135035797565968 0.08649642024340316 0 0.5404686333395399 0.4595313666604601 0 0.9985874636098698 0.001412536390130221 0 0.9648975455507209 0.03510245444927896 0 0.5801235633068459 0.4198764366931542 0 0.9992805088475691 0.000719491152430932 0 0.9552391713540241 0.04476082864597589 0 0.725374054920028 0.274625945079972 0 0.9988996163428325 0.001100383657167399 0 0.9587337155505039 0.04126628444949604 0 0.8915458539995381 0.1084541460004619 0 0.999067790636873 0.0009322093631269982 0 0.7314709854897369 0.2685290145102631 0 0.5594883165710623 0.4405116834289378 0 0.9978434761209231 0.002156523879076945 0 0.880603707720204 0.119396292279796 0 0.5902539822966172 0.4097460177033828 0 0.9990650145629238 0.0009349854370761665 0 0.9707462719406699 0.02925372805933014 0 0.6672936722506783 0.3327063277493217 0 0.9995230748619133 0.000476925138086644 0 0.9620473664193554 0.03795263358064455 0 0.8430057919825388 0.1569942080174613 0 0.9997405177300862 0.000259482269913676 0 0.9838983713421006 0.01610162865789932 0 0.9914168575426668 0.008583142457333054 0 0.9995941610059869 0.0004058389940131872 0 0.9496284893053019 0.05037151069469811 0 0.8904548924801269 0.1095451075198731 0 0.9994703157822502 0.0005296842177496854 0 0.9639553176278211 0.03604468237217907 0 0.9658081949834925 0.03419180501650759 0 0.9997567922962853 0.0002432077037146546 0 0.9882899537429566 0.01171004625704351 0 0.984567329565966 0.01543267043403405 0 0.9997332371107571 0.000266762889242883 0 0.9936583103514133 0.006341689648586796 0 0.9811361043310182 0.0188638956689818 0 0.9998209605208701 0.0001790394791298531 8.121640704071011e-61 0.9905861294955952 0.009413870504404816 1.008329371041603e-30 0.9510416207028389 0.04895837929716114 2.888403989267737e-34 0.9997006320741216 0.0002993679258782827 2.321461769979665e-59 0.9380199157559787 0.06198008424402127 8.372713853336194e-22 0.7579579981264126 0.2420420018735873 1.992751108397212e-24 0.9998030929138565 0.0001969070861435143 8.970958737370548e-59 0.9316523369319916 0.06834766306800816 2.492600048999575e-16 0.8312313692677423 0.1687686307322576 1.139851051453185e-24 0.9999198625409997 8.013745900017258e-05 8.66857257467887e-61 0.9640992085996205 0.03590079140037926 1.065213886509174e-16 0.8988362998114129 0.1011637001885871 4.698760104826711e-23 0.9999730337357852 2.696626421475877e-05 1.540025105049053e-59 0.9799014133631743 0.02009858663424802 2.577669525779147e-12 0.9679461309851138 0.03205386901488613 4.409675369276379e-22 0.9984113001904494 0.001588699809550492 5.401693991327837e-51 0.8980332569772087 0.1019667430227913 5.64659777182983e-20 0.9117280056813742 0.08827199431862567 8.121044699443877e-35 0.9937623730747482 0.006237626925251793 2.119335682524696e-43 0.4999999999820668 0.4999999999820668 3.586633494134767e-11 0.5 0.5 2.042585401179363e-23 0.9942010344067473 0.005798965593252712 7.535407960612216e-41 0.4999999996567012 0.4999999996567012 6.86597758545166e-10 0.5 0.5 3.738610628986491e-21 0.9960993219467928 0.003900678053207026 3.905649176095228e-39 0.4999710394780437 0.4999710394780437 5.792104391248919e-05 0.5 0.5 5.651560926667152e-17 0.9990097616969887 0.0009902383030113635 4.916019140063438e-42 0.2573986480925045 0.2573986480925045 0.485202703814991 0.4999999995336843 0.4999999995336843 9.32631233617423e-10 0.9979722925174892 0.002027707482510844 3.318396292805837e-45 0.9023832816868285 0.09761671831317126 1.664595508422562e-16 0.5 0.5 4.739154280080414e-18 0.9971856748367808 0.002814325163219164 1.371367783703856e-43 0.8638795321676848 0.1361204678323113 3.925082739843262e-15 0.5 0.5 8.449543689363448e-19 0.9973402146067188 0.002659785393281152 3.683488141299207e-42 0.8793514739621995 0.1206485260376683 1.32148901715837e-13 0.4999999999999999 0.4999999999999999 1.598794554367075e-16 0.9980403222433839 0.001959677756616177 1.821906973649791e-40 0.9516433050216708 0.04835669497832613 3.039136403751235e-15 0.4999999999996539 0.4999999999996539 6.920302165875347e-13 0.9991807744271156 0.0008192255728843899 1.056074452743445e-38 0.8734971780238169 0.1083843938368778 0.01811842813930545 0.499988911296309 0.499988911296309 2.217740738218124e-05 0.9987284820127441 0.001271517987255867 1.11068187008661e-44 0.9538910740910476 0.04610892590895245 4.554391988319022e-18 0.9409316987116173 0.05906830128838275 6.229975372139454e-29 0.998897570500723 0.00110242949927692 2.327590805289786e-46 0.7749638983077191 0.2250361007882681 9.040127640996553e-10 0.8360228358391086 0.1639771641608913 1.166347937901046e-22 0.997877729610984 0.002122270389016133 4.135495876878258e-40 0.8028733071093587 0.1971261017474493 5.911431920790375e-07 0.8374623459194008 0.1625376540805992 1.30537122581333e-20 0.9988159524172873 0.001184047582712638 6.164278105860402e-40 0.9620155199568446 0.03798448004313996 1.54478301017461e-14 0.7664451517549034 0.2335548482450833 1.333573089296749e-14 0.9992529768407509 0.0007470231592490636 2.299868605108473e-35 0.4513384443747246 0.07763184195076236 0.4710297136745131 0.6446929493125149 0.3550525300019238 0.0002545206855612603 0.9997999145567775 0.0002000854432224608 7.6472219452336e-44 0.9927409454857402 0.007259054514259737 1.060750035777962e-17 0.9965418182481408 0.003458181751859193 3.372728645424573e-35 0.9995212421680506 0.0004787578319494344 2.637911742816806e-39 0.9587581612440916 0.04124134919783567 4.895580727293966e-07 0.9695862006132935 0.03041379938670656 2.130985723256973e-21 0.999469517136777 0.0005304828632229222 1.037957108060884e-36 0.9496581402931505 0.04900488597426335 0.001336973732586151 0.9769429539713521 0.02305704602864783 5.125953877740981e-21 0.9997858431788186 0.0002141568211813651 1.72738189325972e-38 0.9882919578439611 0.01170802142275428 2.073328454335032e-08 0.9900798080227902 0.009920191977209772 1.111812376420747e-22 0.9997813410238758 0.0002186589761241144 5.173552261775658e-31 0.1300705996236083 0.00973637950545448 0.8601930208709372 0.9780364504908287 0.02196354931215132 1.970200880411915e-10 0.9998993629195813 0.0001006370804186497 0 0.9942533819322409 0.005746618067759212 0 0.9710826460392568 0.02891735396074334 0 0.9998316851834578 0.0001683148165422709 0 0.9422097201444981 0.05779027985550197 0 0.8310976860973804 0.1689023139026195 0 0.9998892995081824 0.000110700491817496 0 0.9034868356508947 0.09651316434910531 0 0.8893075682277992 0.1106924317722009 0 0.9999549520067896 4.50479932103748e-05 0 0.944883425375047 0.05511657462495306 0 0.9366286600935093 0.0633713399064906 0 0.9999848405215995 1.515947840054329e-05 0 0.1438005557133336 0.8561994442866664 0 0.9806250568974121 0.01937494310258794 0 0.9981394432028035 0.001860556797196546 0 0.9066788714258101 0.09332112857419 0 0.9470667662132899 0.05293323378671014 0 0.9916211774327052 0.008378822567294792 0 0.1739929867728413 0.8260070132271586 0 0.4834654832028577 0.5165345167971424 0 0.9946969082101438 0.005303091789856263 0 0.1226194395986386 0.8773805604013614 0 0.4744791387115073 0.5255208612884926 0 0.9968375814068045 0.003162418593195612 0 0.06562528607679968 0.9343747139232003 0 0.4488937893170477 0.5511062106829524 0 0.9994082152732089 0.000591784726791024 0 0.02008908515786961 0.9799109148421303 0 0.34065242299108 0.65934757700892 0 0.9982818727340159 0.001718127265984005 0 0.8108810411236875 0.1891189588763125 0 0.4556593530760922 0.5443406469239077 0 0.9981247701954276 0.001875229804572298 0 0.6992706567948597 0.3007293432051403 0 0.4656597518837253 0.5343402481162746 0 0.9976539987349092 0.002346001265090761 0 0.4005695003706155 0.5994304996293844 0 0.447259942412965 0.5527400575870349 0 0.9984338257997613 0.001566174200238851 0 0.840026621470678 0.1599733785293221 0 0.3969247004687486 0.6030752995312515 0 0.9994755711118879 0.0005244288881119273 0 0.01135344657496736 0.9886465534250326 0 0.234511988761238 0.7654880112387619 0 0.9990505530944576 0.0009494469055424456 0 0.9517315907528968 0.04826840924710312 0 0.9565610983364665 0.04343890166353356 0 0.9993266893168341 0.0006733106831659284 0 0.06458200357277433 0.9354179964272257 0 0.8716403134139669 0.1283596865860333 0 0.9980698874324349 0.001930112567565246 0 0.05559244436139318 0.9444075556386069 0 0.7318035979624539 0.2681964020375461 0 0.9987130713449235 0.001286928655076475 0 0.889425336571485 0.1105746634285149 0 0.9116400251897044 0.08835997481029564 0 0.9993532064717094 0.0006467935282906134 0 0.01923958584008725 0.9807604141599129 0 0.8300375675665556 0.1699624324334444 0 0.9998101435824318 0.0001898564175682087 0 0.9933650961531744 0.006634903846825563 0 0.9979486946045796 0.002051305395420336 0 0.9994971851011096 0.0005028148988903159 0 0.3548524101365203 0.6451475898634796 0 0.9762535748991654 0.02374642510083448 0 0.9995183409780406 0.000481659021959365 0 0.2414032973266667 0.7585967026733332 0 0.9873494306386864 0.01265056936131358 0 0.9998153523299397 0.0001846476700602423 0 0.3379070101907994 0.6620929898092006 0 0.993827274786327 0.006172725213673028 0 0.999820283338117 0.0001797166618829655 0 0.0256175240321775 0.9743824759678223 0 0.9877454427065093 0.01225455729349082 0 0.9998609536478041 0.0001390463521959063 0 0.9903282000454728 0.009671799954527303 0 0.9546761523869279 0.045323847613072 0 0.9997675044347999 0.0002324955652000714 0 0.8295619969775293 0.1704380030224706 0 0.7269391920973943 0.2730608079026058 0 0.9998471792739102 0.0001528207260899488 0 0.2861181785139439 0.7138818214860561 0 0.8059952941739787 0.1940047058260213 0 0.9999377912652607 6.220873473926057e-05 0 0.5873207397509798 0.4126792602490202 0 0.8791688982543437 0.1208311017456562 0 0.9999790615464529 2.093845354717094e-05 0 0.01342636794364242 0.9865736320563575 0 0.9609006269460786 0.03909937305392139 0 0.9970812573331763 0.002918742666823732 0 0.7351397171667773 0.2648602828332227 0 0.9233674340862584 0.07663256591374168 0 0.9882487254324603 0.01175127456753972 0 0.1426643455873404 0.8573356544126596 0 0.4244139047780668 0.575586095221933 0 0.9922248880455454 0.00777511195445462 0 0.09856943161778436 0.9014305683822156 0 0.3865462330738977 0.6134537669261024 0 0.9952801045430391 0.00471989545696096 0 0.05180852225383328 0.9481914777461667 0 0.2978878912224356 0.7021121087775644 0 0.9991773959609983 0.0008226040390015959 0 0.01567091865352744 0.9843290813464726 0 0.1282751904619722 0.8717248095380278 0 0.9973835193656575 0.002616480634342478 0 0.1653160328963714 0.8346839671036285 0 0.3192293241051561 0.6807706758948439 0 0.9973927789104248 0.002607221089575246 0 0.2029300820260556 0.7970699179739444 0 0.3527946608186792 0.6472053391813208 0 0.9962321875757624 0.00376781242423765 0 0.09936526541468499 0.900634734585315 0 0.29334068501115 0.70665931498885 0 0.9976480238219206 0.002351976178079424 0 0.1272439672123252 0.8727560327876748 0 0.1900295664777876 0.8099704335222124 0 0.9992461882846142 0.0007538117153858849 0 0.008232876189499446 0.9917671238105006 0 0.06698947037139749 0.9330105296286024 0 0.998380643710962 0.001619356289038056 0 0.8966662263479879 0.1033337736520122 0 0.319377209685117 0.6806227903148829 0 0.9989904953527426 0.001009504647257372 0 0.1471142441649477 0.8528857558350523 0 0.6374133483062983 0.3625866516937019 0 0.9966874665731356 0.00331253342686436 0 0.1117171220804045 0.8882828779195956 0 0.8925831377113098 0.1074168622886901 0 0.9980245282368795 0.001975471763120462 0 0.2185866131720363 0.7814133868279637 0 0.8042843282381853 0.1957156717618147 0 0.9989907311300905 0.001009268869909479 0 0.01444976292219547 0.9855502370778045 0 0.1357082425556763 0.8642917574443238 0 0.9996290155318212 0.0003709844681787269 0 0.9841400204883864 0.01585997951161349 0 0.9965053839393032 0.00349461606069682 0 0.9991510276523319 0.0008489723476681697 0 0.1477412299694827 0.8522587700305173 0 0.9603213480892567 0.03967865191074332 0 0.9991709016095687 0.000829098390431431 0 0.1041429670491028 0.8958570329508971 0 0.9696132717725365 0.03038672822746349 0 0.9996577167504797 0.0003422832495203434 0 0.150489641306948 0.849510358693052 0 0.9777708092521853 0.02222919074781482 0 0.999671804231646 0.0003281957683540836 0 0.01624861935064485 0.9837513806493551 0 0.5941146866780671 0.4058853133219328 0 0.9997284269831092 0.000271573016890952 0 0.9964972068933832 0.00350279310661683 0 0.9828004706977348 0.01719952930226513 0 0.9982429338704422 0.001757066129557742 0 0.9595582362754023 0.04044176372459776 0 0.8842517110298745 0.1157482889701254 0 0.9980602770240065 0.001939722975993543 0 0.9468193942640779 0.05318060573592209 0 0.8965369129383811 0.103463087061619 0 0.9992224469525445 0.0007775530474555404 0 0.9749668056170516 0.02503319438294833 0 0.9652419447453521 0.03475805525464802 0 0.9992779040962612 0.0007220959037388393 0 0.9825285967084985 0.01747140329150165 0 0.9574491075620646 0.04255089243793535 0 0.9981080324605981 0.001891967539401994 0 0.9404147982490636 0.05958520175093634 0 0.9366149545847906 0.06338504541520952 0 0.9618028674425783 0.03819713255742173 0 0.5913449820954761 0.4086550179045238 0 0.5019191679124425 0.4980808320875575 0 0.9800624353535872 0.01993756464641284 0 0.779891087366838 0.2201089126331619 0 0.5029666308799068 0.4970333691200932 0 0.9939493237144686 0.006050676285531356 0 0.8716906670234228 0.1283093329765772 0 0.9685212376504538 0.03147876234954616 0 0.9950386247661387 0.004961375233861189 0 0.9090113115194783 0.09098868848052161 0 0.9733796360678582 0.0266203639321419 0 0.9976648842812464 0.002335115718753609 0 0.9478926168122404 0.0521073831877597 0 0.811113802349257 0.1888861976507429 0 0.9009644409247348 0.09903555907526526 0 0.7553592473105619 0.2446407526894379 0 0.5729005643033765 0.4270994356966235 0 0.9857340253175663 0.01426597468243379 0 0.872078951851711 0.127921048148289 0 0.6095622474631861 0.3904377525368138 0 0.9958052942796481 0.004194705720351876 0 0.9379000083598306 0.06209999164016961 0 0.9415497007783458 0.05845029922165421 0 0.991791963588719 0.008208036411280947 0 0.9674315065273229 0.03256849347267705 0 0.8675520941996924 0.1324479058003076 0 0.9995218052105216 0.0004781947894784082 0 0.9846822437103825 0.0153177562896175 0 0.9450612453996241 0.05493875460037596 0 0.9981120903536916 0.001887909646308349 0 0.8165936849005917 0.1834063150994084 0 0.5065207546807494 0.4934792453192505 0 0.9985788429649762 0.001421157035023835 0 0.8847741050371113 0.1152258949628887 0 0.5100778243473606 0.4899221756526394 0 0.9991249464904221 0.0008750535095779591 0 0.9247479516746547 0.07525204832534538 0 0.9734764958141124 0.02652350418588759 0 0.9985029957909506 0.001497004209049467 0 0.9702452252936913 0.02975477470630869 0 0.5687196262905565 0.4312803737094435 0 0.9997520403734219 0.0002479596265780708 0 0.9848535698481001 0.01514643015189993 0 0.9835270836681735 0.01647291633182639 0 0.9993533719725887 0.000646628027411342 0 0.9725366060558863 0.0274633939441136 0 0.9035435904142616 0.09645640958573837 0 0.9995659875734929 0.0004340124265070423 0 0.9780460171031999 0.02195398289680005 0 0.9557535791789196 0.04424642082108039 0 0.9997467064033276 0.0002532935966723431 0 0.9877622069195416 0.0122377930804583 0 0.9918365374366113 0.008163462563388837 0 0.9995886822904777 0.0004113177095222565 0 0.9954942215650632 0.004505778434936722 0 0.9586483078548567 0.04135169214514341 0 0.9994268305208983 0.000573169479101634 0 0.9935524339173304 0.006447566082669554 0 0.967610632405395 0.03238936759460503 0 0.996249513507253 0.003750486492747044 0 0.9287577182873189 0.07124228171268118 0 0.8101688807123729 0.189831119287627 0 0.9958388413617884 0.004161158638211653 0 0.8974934064412966 0.1025065935587034 0 0.8288846642354862 0.1711153357645138 0 0.9983301631865422 0.001669836813457764 0 0.9492796104282122 0.05072038957178784 0 0.93818864041174 0.06181135958825992 0 0.9984343843401596 0.001565615659840335 0 0.9546945283919211 0.04530547160807888 0 0.923372526003453 0.07662747399654699 0 0.9961203243415706 0.003879675658429308 0 0.8984273691329708 0.1015726308670291 0 0.8831080255205704 0.1168919744794296 0 0.8906799278250851 0.1093200721749149 0 0.5060637775269158 0.4939362224730842 0 0.5011342053882167 0.4988657946117833 0 0.9673310884288424 0.03266891157115767 0 0.646142176446884 0.3538578235531161 0 0.5017535617536278 0.498246438246372 0 0.9867180599790981 0.01328194002090192 0 0.7674127394976776 0.2325872605023224 0 0.9403800638617145 0.05961993613828549 0 0.9896917084001496 0.01030829159985048 0 0.6797651312861017 0.3202348687138983 0 0.9484069519148146 0.05159304808518532 0 0.9949072401219617 0.005092759878038172 0 0.9264030350398663 0.07359696496013379 0 0.7247621352963857 0.2752378647036143 0 0.7274842493521123 0.2725157506478876 0 0.5962909381707638 0.4037090618292362 0 0.535167052037844 0.464832947962156 0 0.9645830177212119 0.0354169822787881 0 0.7446803143418799 0.2553196856581202 0 0.554011009013395 0.4459889909866051 0 0.9903130462344668 0.009686953765533227 0 0.8680919019272875 0.1319080980727124 0 0.8846881429048016 0.1153118570951983 0 0.9783678561961726 0.02163214380382751 0 0.8969469366007597 0.1030530633992403 0 0.7694658542345045 0.2305341457654956 0 0.9987794894318716 0.001220510568128422 0 0.9736055357162593 0.02639446428374072 0 0.902672843807141 0.09732715619285909 0 0.9841047505024846 0.01589524949751539 0 0.7976023462457075 0.2023976537542926 0 0.7514403721258456 0.2485596278741543 0 0.9757062325034188 0.02429376749658119 0 0.6199644517825954 0.3800355482174046 0 0.505961002963051 0.494038997036949 0 0.9944326720330156 0.005567327966984415 0 0.6840343309549468 0.3159656690450531 0 0.9531409183331337 0.04685908166686632 0 0.9858178060692149 0.01418219393078511 0 0.8287854673036488 0.1712145326963513 0 0.7648899694329295 0.2351100305670704 0 0.9997174994804415 0.0002825005195585684 0 0.9812970732611382 0.0187029267388617 0 0.9948452115917438 0.005154788408256226 0 0.9980158242638663 0.001984175736133822 0 0.9145333826141062 0.08546661738589381 0 0.9618775128275722 0.03812248717242778 0 0.9980765058879408 0.001923494112059247 0 0.9558784320091253 0.04412156799087481 0 0.9647372929637856 0.03526270703621432 0 0.9993465652201707 0.0006534347798293528 0 0.9365471674420399 0.06345283255796019 0 0.9919294257496092 0.008070574250390733 0 0.9986738286281136 0.001326171371886406 0 0.9527432390553291 0.04725676094467098 0 0.9692320906886174 0.03076790931138253 0 0.9993410115284287 0.0006589884715712696 2.09191291652372e-64 0.9937230553188603 0.006276944681139719 2.656059753617734e-44 0.9670608387869487 0.03293916121305141 2.372530560741568e-47 0.995643566754517 0.004356433245482869 5.034880381995169e-53 0.9350045310110339 0.06499546898896617 3.284075214181338e-30 0.817331967755798 0.1826680322442019 3.839671321989886e-36 0.9951237375394335 0.004876262460566467 1.610891642454426e-47 0.903858984921087 0.09614101507891309 3.933739769350157e-25 0.8364493499110189 0.1635506500889811 5.421723180201864e-36 0.9980407568705779 0.001959243129422115 7.401268717685427e-52 0.9489530831079371 0.05104691689206289 1.201269812017786e-25 0.9414909121078392 0.05850908789216078 6.151338619786437e-38 0.998160621123597 0.001839378876403032 1.798572104285716e-44 0.9485350292657933 0.05146497073420672 3.203875523042297e-18 0.9252702773881588 0.0747297226118412 4.234867049507007e-29 0.9952698693439653 0.004730130656034609 3.240468425921139e-58 0.9101191620886147 0.08988083791138533 2.709168138998681e-32 0.8799164268597821 0.1200835731402178 1.465384710607545e-43 0.8467198160022805 0.1532801839977193 7.442761111962922e-35 0.5 0.5 1.114210734123739e-22 0.5 0.5 3.659953240083518e-35 0.9528589305236932 0.04714106947630672 2.618454837708306e-40 0.6564995762729341 0.343500423727066 2.451965863011724e-23 0.5 0.5 2.50480748028915e-33 0.9868135730130384 0.01318642698696159 6.014671153647398e-45 0.7828231294067979 0.2171768705932023 2.17247773036671e-21 0.9389234998732723 0.06107650012672765 7.574321762911261e-43 0.9878223659711824 0.01217763402881762 1.750640766291541e-37 0.643802074359501 0.3561979256109872 2.951191535253951e-11 0.9457216298293024 0.05427837017069754 3.896014596229936e-36 0.9944189943341339 0.005581005665866089 2.980231415527531e-50 0.9391415026232304 0.06085849737676975 1.599343602502663e-31 0.7348066999241643 0.2651933000758357 2.028350310439296e-34 0.7013426740992356 0.2986573259007645 3.166112039057643e-27 0.5947361535520473 0.4052638464479527 1.102943807025526e-20 0.527831307094747 0.4721686929052529 2.902612666399805e-32 0.9585190879446314 0.04148091205536872 1.51426914625716e-36 0.7584993782322927 0.2415006217677073 8.593261405905597e-22 0.5428503666944186 0.4571496333055814 4.565520787943054e-29 0.9886274213882037 0.01137257861179634 7.235022414249919e-41 0.8750415149656554 0.1249584850343446 1.936182205867055e-20 0.8673328148628899 0.1326671851371101 4.819153146980793e-33 0.9744985677764747 0.02550143222352537 8.271396629634888e-29 0.8953770418470448 0.1046229581529139 4.120471625388382e-14 0.7341958628421802 0.2658041371578198 2.920690731153071e-21 0.9985614243025154 0.001438575697484559 1.233213119672915e-56 0.9760246950817211 0.02397530491827897 1.428102469648511e-32 0.9261207441129028 0.07387925588709719 7.882188415078246e-39 0.9740265802415889 0.02597341975841098 1.740906583975763e-38 0.6303527893162713 0.3696472106837286 4.477138097509039e-17 0.75 0.25 1.107070968468874e-31 0.9742410762925305 0.02575892370746941 1.395059426924503e-35 0.6049513948738512 0.3950486051261241 2.472403025865496e-14 0.75 0.25 1.701250263848089e-29 0.9928302369765133 0.007169763023486674 3.839477151873368e-40 0.6479677784261805 0.3520322215423657 3.145391763868037e-11 0.9508369837077995 0.04916301629220053 2.060993457208371e-36 0.984125416160042 0.01587458383995807 3.34499737867147e-27 0.7731000250587291 0.2268991722109178 8.02730353086439e-07 0.4999999999999635 0.4999999999999635 7.31596205528669e-14 0.9997962284763002 0.0002037715236997056 2.895828039873017e-56 0.9965040496659999 0.003495950333999999 1.386799278315792e-33 0.9976426625182345 0.002357337481765473 4.392228729344816e-49 0.9980933620132583 0.001906637986741741 2.608355326534701e-42 0.9727082627952329 0.0272917372047671 8.264798604968869e-21 0.9772727272727273 0.02272727272727273 7.510481027329444e-35 0.9982917914731958 0.001708208526804205 1.706847663224319e-41 0.9818063551169426 0.01819364488305745 3.08529106414742e-21 0.9871794871794871 0.01282051282051282 8.471657025348496e-37 0.9993716428339381 0.0006283571660618931 7.286035200011999e-45 0.9772727272727268 0.02272727272727272 5.607280288182082e-16 0.9972069689150128 0.002793031084987103 1.076971323788522e-42 0.9988707391065865 0.001129260893413466 3.389696969406196e-32 0.9749999241249658 0.0249999980544863 7.782054788257789e-08 0.986111111111111 0.01388888888888889 2.093224427339081e-24 0.9996287526466182 0.0003712473533816771 0 0.9964113765477458 0.003588623452254229 0 0.9810358059649459 0.01896419403505409 0 0.9975433637841877 0.002456636215812306 0 0.9600062500731347 0.03999374992686541 0 0.8837469041975606 0.1162530958024393 0 0.9972528561615193 0.002747143838480789 0 0.9387413431621267 0.06125865683787347 0 0.8969267455866133 0.1030732544133867 0 0.9988977069874495 0.001102293012550579 0 0.9675612089394499 0.03243879106055027 0 0.9655944462716062 0.0344055537283938 0 0.9989645130390108 0.001035486960989286 0 0.9586111604776738 0.0413888395223261 0 0.9547359414534453 0.04526405854655466 0 0.9973576428017775 0.002642357198222357 0 0.9458694348363328 0.05413056516366718 0 0.9270436779711934 0.07295632202880666 0 0.9221618214692338 0.07783817853076631 0 0.4495560385334604 0.5504439614665395 0 0.4985148010570542 0.5014851989429457 0 0.9697602633984848 0.03023973660151532 0 0.6982532640416126 0.3017467359583872 0 0.4977040242121658 0.5022959757878342 0 0.9912876124281238 0.008712387571876312 0 0.8268202335814268 0.1731797664185732 0 0.9642993541142515 0.03570064588574848 0 0.9932276959348203 0.006772304065179715 0 0.2725721146333909 0.7274278853666091 0 0.9681218444206079 0.03187815557939196 0 0.9967173979330297 0.003282602066970204 0 0.9619818361704082 0.03801816382959177 0 0.8084563866980927 0.1915436133019073 0 0.782379005987586 0.217620994012414 0 0.5669128889024539 0.4330871110975462 0 0.5463043300914454 0.4536956699085545 0 0.9761673073733551 0.0238326926266449 0 0.8043388388113424 0.1956611611886576 0 0.5707831754489437 0.4292168245510563 0 0.9936451656762115 0.006354834323788578 0 0.9037707476035408 0.09622925239645913 0 0.9192214311695158 0.08077856883048413 0 0.985258772604544 0.01474122739545598 0 0.8411041877268155 0.1588958122731845 0 0.809601118263847 0.1903988817361529 0 0.9992021514273 0.0007978485726999998 0 0.9867859134911321 0.01321408650886791 0 0.9604620990166466 0.03953790098335353 0 0.988705005673558 0.01129499432644189 0 0.8448910048149982 0.1551089951850017 0 0.8744456840927162 0.1255543159072839 0 0.9835551285455748 0.01644487145442514 0 0.8200750774849725 0.1799249225150273 0 0.9282744762312419 0.07172552376875806 0 0.9962285896555246 0.003771410344475357 0 0.91737441903063 0.08262558096937006 0 0.9740874123056448 0.02591258769435518 0 0.9899892078781066 0.0100107921218933 0 0.438680012361131 0.561319987638869 0 0.8688305766172866 0.1311694233827136 0 0.9998281421114507 0.0001718578885493027 0 0.9984760828522959 0.001523917147704127 0 0.9981165446508204 0.001883455349179458 0 0.9985123194020961 0.001487680597903888 0 0.9884361787695434 0.01156382123045653 0 0.9913560565968211 0.008643943403178728 0 0.9988484000145317 0.00115159998546825 0 0.9930190617874428 0.006980938212557151 0 0.994667120968349 0.005332879031650918 0 0.9994258767374445 0.0005741232625554239 0 0.9943318512490434 0.005668148750956386 0 0.9985074637440854 0.001492536255914641 0 0.9989854042986643 0.001014595701335609 0 0.9007010615549851 0.09929893844501506 0 0.9939263678021073 0.006073632197892764 0 0.9994820913421578 0.0005179086578423256 0 0.994563607254459 0.005436392745541052 0 0.9720489602795418 0.02795103972045824 0 0.9965884773891235 0.003411522610876694 0 0.9360923829992903 0.06390761700070959 0 0.8315932668807642 0.1684067331192359 0 0.9962080033558327 0.003791996644167319 0 0.9000399985919624 0.09996000140803765 0 0.8473516358362293 0.1526483641637707 0 0.9984782371029716 0.001521762897028419 0 0.9478118988763572 0.05218810112364293 0 0.9462859935691252 0.05371400643087466 0 0.9985699844006729 0.00143001559932703 0 0.9113828501674858 0.08861714983251427 0 0.9233371961255982 0.07666280387440176 0 0.9962578860785791 0.003742113921420773 0 0.9140563110980622 0.08594368890193785 0 0.8956693583294898 0.1043306416705102 0 0.9126385384548459 0.08736146154515399 0 0.4354123615850197 0.5645876384149802 0 0.4930401119215478 0.5069598880784522 0 0.958639149745944 0.04136085025405589 0 0.5913071810622826 0.4086928189377173 0 0.4892387807808513 0.5107612192191489 0 0.9883844867107651 0.01161551328923489 0 0.7130282862961693 0.2869717137038308 0 0.9472295364354888 0.05277046356451119 0 0.9907071528785435 0.009292847121456416 0 0.1802491527583086 0.8197508472416914 0 0.9519776171935308 0.04802238280646911 0 0.9955163486538327 0.004483651346167343 0 0.9382969456783572 0.06170305432164289 0 0.7326419508043608 0.2673580491956392 0 0.7292810592857125 0.2707189407142875 0 0.4731079007453854 0.5268920992546148 0 0.5216784136162156 0.4783215863837846 0 0.9673770114601989 0.03262298853980106 0 0.6717546261759164 0.3282453738240836 0 0.5334301707886597 0.4665698292113401 0 0.9911169380725677 0.008883061927432238 0 0.8124706559746659 0.1875293440253341 0 0.8888516686681457 0.1111483313318542 0 0.9794048743202984 0.0205951256797016 0 0.2489303142763433 0.7510696857236566 0 0.6970861874501818 0.3029138125498183 0 0.9988828761818607 0.00111712381813936 0 0.9812334574549509 0.01876654254504904 0 0.9394552585590853 0.06054474144091473 0 0.9831046676002608 0.01689533239973918 0 0.81909748783195 0.1809025121680501 0 0.8723661237759964 0.1276338762240035 0 0.9815988869076816 0.01840111309231839 0 0.6502171730473506 0.3497828269526493 0 0.9271596750943453 0.07284032490565469 0 0.9951152240912128 0.004884775908787342 0 0.8800932602319769 0.1199067397680231 0 0.9683371431843339 0.03166285681566595 0 0.9892388887746598 0.01076111122534018 0 0.2913352490100079 0.7086647509899922 0 0.8408975172986581 0.1591024827013418 0 0.9996604638288638 0.0003395361711363523 0 0.9977036024623821 0.002296397537617788 0 0.9965597640642468 0.00344023593575323 0 0.997043882563429 0.002956117436571061 0 0.989467336088857 0.01053266391114312 0 0.9907867100473492 0.009213289952650892 0 0.9981404316531035 0.001859568346896396 0 0.9925244622103554 0.007475537789644534 0 0.9925226005872455 0.007477399412754533 0 0.9990993017490276 0.000900698250972416 0 0.9941420714405172 0.005857928559482702 0 0.99788131197653 0.00211868802347009 0 0.9981112205327979 0.001888779467202077 0 0.8498461904694206 0.1501538095305795 0 0.9900288251200562 0.009971174879943838 0 0.9997454995434525 0.000254500456547524 0 0.9971579247958543 0.002842075204145636 0 0.9973836608386871 0.002616339161312894 0 0.9989913344025265 0.00100866559747348 0 0.9868863652740602 0.01311363472593994 0 0.9764408786792941 0.02355912132070597 0 0.9991796310413468 0.0008203689586532564 0 0.9895347927464572 0.01046520725354285 0 0.9865629331336276 0.01343706686637238 0 0.9996523962355551 0.0003476037644448692 0 0.9949823342169778 0.00501766578302222 0 0.9713914560826258 0.02860854391737415 0 0.9995328526760172 0.0004671473239828291 0 0.9954647487761792 0.004535251223820905 0 0.9450923509863174 0.05490764901368266 0 0.9982606074297146 0.001739392570285409 0 0.9516338718518373 0.04836612814816266 0 0.9566827525299134 0.04331724747008654 0 0.9950388027010071 0.004961197298992969 0 0.8089666654440391 0.1910333345559609 0 0.5774435277749187 0.4225564722250812 0 0.9968809312275629 0.003119068772437097 0 0.9552768832271066 0.04472311677289344 0 0.6159995980072382 0.3840004019927619 0 0.998231817414663 0.001768182585337007 0 0.9475090265929998 0.05249097340700019 0 0.9784074041720339 0.02159259582796618 0 0.9988097412821766 0.001190258717823484 0 0.9516928399516542 0.04830716004834584 0 0.9827422168974144 0.01725778310258569 0 0.9973817035701901 0.002618296429809887 0 0.9475767849002431 0.05242321509975689 0 0.9759530327267328 0.02404696727326717 0 0.9799183996966653 0.02008160030333471 0 0.9700486802194502 0.02995131978054982 0 0.9201989647076688 0.07980103529233115 0 0.9926899296897546 0.0073100703102455 0 0.9725594750704862 0.02744052492951372 0 0.9466909604044805 0.05330903959551945 0 0.9969651758311873 0.003034824168812742 0 0.941860699958624 0.05813930004137605 0 0.9938180413940831 0.006181958605916781 0 0.995678333707022 0.004321666292977993 0 0.9821331979182599 0.0178668020817401 0 0.9932074215855039 0.006792578414496134 0 0.9988352407668201 0.001164759233179867 7.804891388803145e-23 0.963477594014498 0.02692254260663856 0.009599863378863477 0.9808325797283236 0.01916737381783898 4.645383753325778e-08 0.9977071334075266 0.002292866592473374 8.662925689003706e-20 0.9648079718950746 0.03515998396068113 3.204414424418063e-05 0.07697828607152245 0.07637971452159924 0.8466419994068783 0.9987643006746708 0.001235699325329217 1.640602356661689e-21 0.9566107915858821 0.02768157750863358 0.01570763090548417 0.04973156213395541 0.04934529332961942 0.9009231445364251 0.9985730842395355 0.001175480623890802 0.000251435136573617 0.03652563304259709 0.01022598729127721 0.9532483796661257 0.02360674923016532 0.002620790246139103 0.9737724605236956 0.9898076234355243 0.001888611158192239 0.008303765406283437 0.007870602108988219 0.002299140142606389 0.9898302577484053 0.005923395477064228 0.001183147341577308 0.9928934571813585 0.9997596649306157 0.0002403350693842712 3.274187413058422e-38 0.9914875047120502 0.008512482902552788 1.238539698299614e-08 0.9917203759850286 0.008279624014970566 9.519434277950989e-16 0.9995618391384485 0.0004381608615514815 1.119752956397794e-34 0.9852462466398491 0.01475344003162714 3.133285239108671e-07 0.9829839372570491 0.01701606273795692 4.993994726236125e-12 0.9997397528819938 0.0002602471180063072 5.695686879396834e-36 0.9918850764719833 0.00811474564110041 1.778869163689448e-07 0.9879797888118764 0.0120202111837296 4.39399957532562e-12 0.9998463049845125 0.0001536950154873846 8.758441246998827e-23 0.2814823673505655 0.002395252550639969 0.7161223800987944 0.3960792043256759 0.002445238055858344 0.6014755576184656 0.999805622239555 0.000194377760444869 4.917208046662503e-26 0.9640124016667508 0.002055385812559099 0.03393221252069019 0.04498582216230816 0.0002787493368395159 0.9547354285008525 0.9994632508188969 0.0005367491811031115 0 0.9946713167210449 0.005328683278955023 0 0.9949562962262395 0.005043703773760452 0 0.9978579215507759 0.002142078449223981 0 0.9742831657367647 0.02571683426323534 0 0.9554690402806858 0.04453095971931421 0 0.9982598118740788 0.001740188125921245 0 0.9788098204972331 0.02119017950276697 0 0.9754602082164296 0.02453979178357034 0 0.9992586954455787 0.0007413045544213226 0 0.9899171949503789 0.01008280504962114 0 0.9475441791918722 0.0524558208081278 0 0.9989887428034036 0.001011257196596484 0 0.989404861661028 0.01059513833897201 0 0.8950077346150647 0.1049922653849353 0 0.9968233865169011 0.003176613483098922 0 0.9088601307043312 0.09113986929566871 0 0.9241762958760469 0.07582370412395313 0 0.9895605938010021 0.01043940619899789 0 0.6886747698345916 0.3113252301654084 0 0.5371689459456827 0.4628310540543172 0 0.9940898770260591 0.005910122973940837 0 0.911212229802875 0.0887877701971251 0 0.5570419031888764 0.4429580968111236 0 0.9965058587128379 0.003494141287162035 0 0.8775226473169865 0.1224773526830135 0 0.9555827774670723 0.04441722253292757 0 0.9974992631675381 0.002500736832461848 0 0.7866927549819118 0.2133072450180883 0 0.9662280851251839 0.03377191487481617 0 0.994236499771299 0.005763500228701005 0 0.8974571812528097 0.1025428187471902 0 0.9524555282004498 0.04754447179955019 0 0.9433635991237985 0.05663640087620152 0 0.933870662708841 0.066129337291159 0 0.8486717536334781 0.1513282463665218 0 0.9842400198525352 0.01575998014746491 0 0.9485930618825449 0.05140693811745511 0 0.8948623761794248 0.1051376238205752 0 0.9935189969191165 0.006481003080883412 0 0.8287020670767216 0.1712979329232784 0 0.9889455242145526 0.01105447578544745 0 0.9902252186033507 0.009774781396649229 0 0.9423564181716046 0.05764358182839534 0 0.9861792047244518 0.0138207952755482 0 0.996553160370418 0.003446839629582107 6.613138620192758e-20 0.9494845099681917 0.05031233671589654 0.0002031533159117711 0.9665205311902394 0.033479451233458 1.757630269942397e-08 0.9694560508058424 0.03054374958047568 1.996136821039387e-07 0.8912246015878382 0.08448675711551336 0.02428864129664846 0.1590609515638071 0.1575828862476151 0.6833561621885776 0.9885434859995813 0.01145651394549205 5.492667182329555e-11 0.4296162891855664 0.06526457179796814 0.5051191390164655 0.1029692803625122 0.102011351810916 0.7950193678265719 0.1363968247778616 0.003323536460287073 0.8602796387618514 0.1113110158138702 0.02178837292869975 0.8669006112574299 0.03684558171007245 0.005258557643524064 0.9578958606464034 0.0701623425717165 0.004110235018505304 0.9257274224097782 0.01469760225400417 0.004819844574830113 0.9804825531711656 0.007479286531490841 0.002489166779083973 0.9900315466894252 0.999704849054688 0.0002951509453119092 5.399706766948666e-40 0.9900552255658306 0.009944774416134746 1.803455481743156e-11 0.9961713480577343 0.003828651942265609 4.034234068056672e-24 0.9988567834355907 0.0011432165644093 7.688322242868293e-32 0.9646168829669823 0.03523533358369529 0.0001477834493223096 0.9881595198679035 0.01184048013209651 1.089581755642034e-17 0.9992555035557041 0.000744496444295934 1.968186060365868e-32 0.9816264015691349 0.01837009390928951 3.504521575542258e-06 0.9931837691017178 0.006816230898282304 2.800445646519075e-19 0.9996691221038908 0.0003308778961091877 6.142187935576177e-21 0.7624380359320122 0.004988602530594384 0.2325733615373933 0.9976442467599214 0.002350512329889954 5.240910188769067e-06 0.9996458644706731 0.0003541355293268853 1.247593272632256e-25 0.3048401739710038 0.003954697458649833 0.6912051285703463 0.3159175088188184 0.0006519732741462293 0.6834305179070354 0.9993833822184927 0.0006166177815072838 1.900877551798306e-62 0.9948006377027837 0.005199362297216237 1.332240048465606e-44 0.9949223836973902 0.005077616302609935 3.436035345169639e-57 0.9975120298559323 0.002487970144067729 3.386855722950032e-54 0.9740335372295192 0.02596646277048076 4.509971483691506e-36 0.9557037895450169 0.04429621045498301 2.072847755547232e-44 0.9979752893430449 0.002024710656955162 1.151828670876919e-53 0.977844249993619 0.02215575000638103 1.515543466880242e-33 0.9757571064680896 0.02424289353191036 3.927060500666163e-45 0.9991341214212559 0.000865878578744098 1.35207035086532e-54 0.98962880142245 0.01037119857754993 2.090114803554744e-34 0.9451280369902479 0.05487196300975201 6.355450259521811e-37 0.9988144870097029 0.001185512990297173 9.2037699832524e-45 0.9879481925809832 0.01205180741901675 8.862696507618197e-26 0.8815494580837744 0.1184505419162257 1.09835744498628e-23 0.9964017106994474 0.003598289300552655 9.617032280182973e-56 0.9113225108922952 0.08867748910770476 1.493171282564526e-30 0.9291845286171453 0.07081547138285472 7.127055476734572e-45 0.9905960435627699 0.009403956437230151 8.579292094613328e-51 0.6983882662821063 0.3016117337178937 5.561530629115496e-24 0.5297857107545054 0.4702142892454946 1.361197974210621e-33 0.9940692356406999 0.005930764359300059 4.95386960043077e-51 0.9067320092709698 0.09326799072903025 7.767506198655666e-30 0.5458335119100355 0.4541664880899644 1.496835309324739e-31 0.9962749396727537 0.0037250603272463 4.380255752259168e-50 0.8658052058659333 0.1341947941340668 7.51495036012268e-23 0.9497643369541519 0.0502356630458482 2.462440596723662e-42 0.9971745621166781 0.002825437883321873 2.535387344497235e-43 0.9029953999719176 0.09700460002808232 1.433731385443378e-17 0.9608474935986814 0.03915250640131863 2.295288832918378e-36 0.9933106236817706 0.006689376318229497 6.066707061607681e-47 0.9037480129908556 0.09625198700914438 6.134757502664794e-26 0.947935537373227 0.05206446262677291 5.37136086304569e-43 0.9492521636659327 0.05074783633406735 5.839681282598167e-35 0.9218386423558419 0.07816135764415812 